{"8": {"id": 8, "members": [1, 2, 3, 4, 5, 6, 7, 8, 9, 10], "x_loglikelihoods": [-233.19680786132812, -108.75827026367188, -497.0127868652344, -173.77377319335938, -674.18603515625, -568.7503662109375, -373.89117431640625, -245.8382568359375, -378.5663146972656, -232.06170654296875, -114.41704559326172, -166.3270263671875, -128.40826416015625, -533.0595092773438, -353.72967529296875, 41.804927825927734, -369.341064453125, 68.77468872070312, -841.7781372070312, -207.9635009765625, 63.95768356323242, -122.15648651123047, -409.5523681640625, -550.296142578125, -115.67173767089844, -575.6537475585938, -418.1484680175781, -190.8846435546875, -346.34423828125, -633.8536987304688, 31.20514678955078, -276.5556335449219, -216.53182983398438, -172.32669067382812, 84.83634185791016, -317.2389831542969, -436.79949951171875, -375.2989501953125, -649.5325927734375, -247.22511291503906, -85.85087585449219, -392.9482421875, -960.220703125, -194.76425170898438, -224.1484832763672, -324.77398681640625, -209.16136169433594, 54.41364288330078, -408.0572509765625, -123.5144271850586, -114.47676086425781, -176.5393829345703, -267.975341796875, -478.41583251953125, -792.1508178710938, -158.36781311035156, 62.49552917480469, 23.32375717163086, -482.06414794921875, 62.86964797973633, -192.12203979492188, -199.19586181640625, 70.715087890625, -255.83326721191406, -611.3140258789062, -233.9661102294922, -477.3434143066406, 69.83850860595703, -93.9941635131836, -562.3876342773438, -412.756591796875, -342.94158935546875, 63.053565979003906, -414.18450927734375, -241.2415313720703, -135.30032348632812, -346.9365234375, -307.68841552734375, -536.3864135742188, -119.125732421875, -149.94664001464844, -83.49589538574219, 54.90321350097656, -141.57205200195312, -392.79669189453125, -470.03021240234375, 89.49290466308594, 63.03374099731445, -319.3179016113281, -308.27581787109375, -421.61614990234375, -532.4510498046875, 77.04229736328125, -137.192138671875, 57.18463897705078, -584.2973022460938, -633.1944580078125, -264.7151184082031, -786.55078125, -228.87960815429688, -168.47998046875, -279.5658874511719, -97.90022277832031, 70.34851837158203, -632.146484375, -257.3296203613281, -165.77996826171875, -326.451171875, -136.39634704589844, -436.2596740722656, -274.21533203125, -292.4284973144531, -56.717689514160156, -447.51416015625, -354.586669921875, -452.997802734375, -502.083251953125, -332.5245361328125, 77.15709686279297, -296.391357421875, 89.18849182128906, -168.1552734375, -107.22418212890625, -41.10369873046875, -390.1612243652344, -418.36077880859375, -632.2435302734375, -803.9087524414062], "y_loglikelihoods": [-142.04127502441406, -106.16766357421875, -84.49948120117188, -112.85525512695312, -445.85638427734375, -276.7434997558594, -278.8913879394531, -273.2490234375, -291.7149658203125, -168.90725708007812, -72.29271697998047, -744.0158081054688, -116.7631607055664, -489.427001953125, -172.38356018066406, 74.8008804321289, -334.3162841796875, 75.71312713623047, -529.226318359375, -746.05859375, 60.14130401611328, -130.71087646484375, -92.45116424560547, -541.9848022460938, -586.0350341796875, -261.95330810546875, -684.9336547851562, -302.89727783203125, -314.0892028808594, -337.077880859375, 66.10501098632812, -331.48712158203125, -106.36577606201172, -310.416259765625, 79.68651580810547, -217.4779815673828, -383.0481872558594, -86.02272033691406, -634.6997680664062, -205.91378784179688, -281.93231201171875, -225.026611328125, -501.1073913574219, -362.7942810058594, -79.26300048828125, -212.78158569335938, -131.09182739257812, 58.186065673828125, -1729.619384765625, -191.31414794921875, -214.04336547851562, -447.1805725097656, -171.14682006835938, -259.728515625, -1471.616943359375, -158.53848266601562, 85.2723159790039, 58.0045166015625, -317.716064453125, 87.73955535888672, -112.47357177734375, -117.19252014160156, 74.49180603027344, -562.7491455078125, -150.72132873535156, -187.78619384765625, -130.18804931640625, 61.64896011352539, -177.9671173095703, -387.9122314453125, -486.29595947265625, -157.34197998046875, 66.62940979003906, -144.952392578125, -448.61737060546875, -366.1719055175781, -135.09994506835938, -130.4430389404297, -343.9864501953125, -82.16757202148438, -1149.4169921875, -309.3847961425781, 77.96453857421875, -467.42584228515625, -444.104736328125, -245.08981323242188, 84.12027740478516, 39.36505126953125, -394.86590576171875, -501.1308898925781, -278.3388671875, -686.2470703125, 86.60653686523438, -87.09429931640625, 68.36215209960938, -371.9514465332031, -759.8263549804688, -178.65646362304688, -274.5816650390625, -246.83343505859375, -340.0684509277344, -155.35476684570312, -174.93319702148438, 50.63939666748047, -341.3222961425781, -361.01068115234375, -320.43585205078125, -191.4685516357422, -157.37664794921875, -1481.4276123046875, -206.3505859375, -543.7970581054688, -167.67813110351562, -212.67202758789062, -281.99005126953125, -349.3453369140625, -432.55352783203125, -360.31878662109375, 82.84993743896484, -92.56233215332031, 87.65228271484375, -228.43470764160156, -313.36138916015625, -82.16642761230469, -793.3828125, -551.9329223632812, -126.62922668457031, -584.7777099609375], "x_weights": [0.0, 0.0, 0.0, 0.0, 0.0, 0.0, 0.0, 0.0, 0.0, 0.0, 0.0, 0.0, 0.0, 0.0, 0.0, 1.1144641147534238e-21, 0.0, 5.752867626718228e-10, 0.0, 0.0, 4.6546351842313705e-12, 0.0, 0.0, 0.0, 0.0, 0.0, 0.0, 0.0, 0.0, 0.0, 2.777407608406539e-26, 0.0, 0.0, 0.0, 0.005437155719846487, 0.0, 0.0, 0.0, 0.0, 0.0, 0.0, 0.0, 0.0, 0.0, 0.0, 0.0, 0.0, 3.333968267205025e-16, 0.0, 0.0, 0.0, 0.0, 0.0, 0.0, 0.0, 0.0, 1.0786488889580337e-12, 1.0490527617698737e-29, 0.0, 1.5680424623673583e-12, 0.0, 0.0, 4.004875986396428e-09, 0.0, 0.0, 0.0, 0.0, 1.666845883541157e-09, 0.0, 0.0, 0.0, 0.0, 1.8846573607289585e-12, 0.0, 0.0, 0.0, 0.0, 0.0, 0.0, 0.0, 0.0, 0.0, 5.439754113363484e-16, 0.0, 0.0, 0.0, 0.5723890066146851, 1.8476619973589736e-12, 0.0, 0.0, 0.0, 0.0, 2.24109999180655e-06, 0.0, 5.325859839814184e-15, 0.0, 0.0, 0.0, 0.0, 0.0, 0.0, 0.0, 0.0, 2.7758113585463207e-09, 0.0, 0.0, 0.0, 0.0, 0.0, 0.0, 0.0, 0.0, 0.0, 0.0, 0.0, 0.0, 0.0, 0.0, 2.513726485631196e-06, 0.0, 0.4221690893173218, 0.0, 0.0, 0.0, 0.0, 0.0, 0.0, 0.0], "y_weights": [0.0, 0.0, 0.0, 0.0, 0.0, 0.0, 0.0, 0.0, 0.0, 0.0, 0.0, 0.0, 0.0, 0.0, 0.0, 1.0191963610850507e-06, 0.0, 2.5377075871801935e-06, 0.0, 0.0, 4.3821250881453944e-13, 0.0, 0.0, 0.0, 0.0, 0.0, 0.0, 0.0, 0.0, 0.0, 1.7048641665073916e-10, 0.0, 0.0, 0.0, 0.00013491566642187536, 0.0, 0.0, 0.0, 0.0, 0.0, 0.0, 0.0, 0.0, 0.0, 0.0, 0.0, 0.0, 6.202053844453492e-14, 0.0, 0.0, 0.0, 0.0, 0.0, 0.0, 0.0, 0.0, 0.03597034513950348, 5.172372811090495e-14, 0.0, 0.4240851104259491, 0.0, 0.0, 7.482187243113003e-07, 0.0, 0.0, 0.0, 0.0, 1.979025884141228e-12, 0.0, 0.0, 0.0, 0.0, 2.880270466576462e-10, 0.0, 0.0, 0.0, 0.0, 0.0, 0.0, 0.0, 0.0, 0.0, 2.411110654065851e-05, 0.0, 0.0, 0.0, 0.011366337537765503, 4.1559742085488576e-22, 0.0, 0.0, 0.0, 0.0, 0.1365807056427002, 0.0, 1.629122614588141e-09, 0.0, 0.0, 0.0, 0.0, 0.0, 0.0, 0.0, 0.0, 3.273850500820345e-17, 0.0, 0.0, 0.0, 0.0, 0.0, 0.0, 0.0, 0.0, 0.0, 0.0, 0.0, 0.0, 0.0, 0.0, 0.003190942108631134, 0.0, 0.38864314556121826, 0.0, 0.0, 0.0, 0.0, 0.0, 0.0, 0.0], "size": 10, "data_size": 147, "large": false, "x_coef": [[0.4823236809674899], [0.009566294738110302], [-0.1603343206080653], [-1.135613547135481], [0.2486811752531364]], "y_coef": [[-0.40055102845057516], [0.27403612106332653], [0.8508815104922851], [0.7491193307341806], [0.36869027137681704]], "x_kernel_index": 86, "y_kernel_index": 59}, "17": {"id": 17, "members": [13, 14, 15, 16, 17, 21, 22, 24, 26, 29], "x_loglikelihoods": [-307.35650634765625, -172.80738830566406, -728.0344848632812, -78.71131896972656, -447.5498046875, -514.0833740234375, -507.8045349121094, 22.262399673461914, 8.882640838623047, -102.70069122314453, -101.76890563964844, -238.08631896972656, -209.58245849609375, -804.4603881835938, -590.5776977539062, -787.430908203125, -410.2008361816406, -449.0862731933594, -902.5357666015625, -176.93760681152344, -334.48638916015625, -86.32648468017578, -12.776838302612305, -710.2061157226562, -183.14501953125, -31.832218170166016, -764.5764770507812, 10.02682876586914, 19.354127883911133, -754.9287109375, -182.31463623046875, -370.5558166503906, -425.50146484375, 8.562978744506836, -674.07373046875, -416.6111755371094, -609.7112426757812, -476.76580810546875, -411.37957763671875, -470.4949035644531, -155.63232421875, 25.130475997924805, -1145.0799560546875, -207.9287109375, 8.90957260131836, -429.8468933105469, 6.719491958618164, -288.49725341796875, -521.929931640625, -190.90911865234375, 1.5994995832443237, -137.62205505371094, -136.1927490234375, -589.0338745117188, -1056.8055419921875, -346.2656555175781, -422.8732604980469, -195.4757080078125, -551.7604370117188, -250.3282928466797, -107.889892578125, -229.32171630859375, -653.5610961914062, -339.4236145019531, -770.656494140625, -220.65606689453125, -717.1936645507812, -326.8738708496094, -204.60205078125, -450.7341003417969, 16.82506561279297, -423.51568603515625, -516.9287109375, 39.9250602722168, -307.60272216796875, 15.301362991333008, -50.12105941772461, -187.98533630371094, -351.7720947265625, -142.4770050048828, -181.0650634765625, -16.430295944213867, -374.4120788574219, -6.131233215332031, -202.7416534423828, -570.0502319335938, -912.2012939453125, -330.60858154296875, -490.3819580078125, -229.26788330078125, -294.0434265136719, -422.321044921875, -599.99169921875, -154.63882446289062, -1143.9090576171875, -139.45751953125, -1127.95166015625, -377.9482116699219, -973.288818359375, -358.839111328125, 19.521635055541992, -329.2676696777344, 5.942690849304199, -358.90948486328125, -482.4152526855469, -2.7432539463043213, -76.35607147216797, -500.6308898925781, 12.66872787475586, -616.3577880859375, -373.3481750488281, -290.6759033203125, -124.53138732910156, -603.3729248046875, -220.3194122314453, -62.07929992675781, -728.9158935546875, -40.41999816894531, -648.7255249023438, -444.2113952636719, -752.5810546875, -80.27268981933594, -207.64810180664062, -100.6201400756836, -493.67034912109375, -462.4136962890625, -380.6809387207031, -1015.5460815429688], "y_loglikelihoods": [-275.211181640625, -467.896240234375, -256.5549011230469, -123.74728393554688, -460.6418151855469, -445.9391174316406, -237.3719482421875, 31.00991439819336, 26.928173065185547, -147.54348754882812, -92.86180877685547, -570.0717163085938, -306.9728698730469, -528.7481079101562, -414.60028076171875, -664.6273803710938, -328.1854553222656, -783.223388671875, -377.7801208496094, -849.881591796875, -1204.5433349609375, -197.61595153808594, -2.4564473628997803, -423.1323547363281, -463.3721008300781, -6.062866687774658, -1198.156982421875, 23.612491607666016, -0.13382911682128906, -343.4543151855469, -298.0235900878906, -289.80523681640625, -296.1954345703125, 18.97219467163086, -657.065673828125, -505.00634765625, -286.8969421386719, -274.1935119628906, -685.4218139648438, -556.5895385742188, -553.0176391601562, 6.622439384460449, -587.266357421875, -264.262451171875, -26.472578048706055, -409.988525390625, -8.461583137512207, -492.62359619140625, -1389.1058349609375, -260.9520263671875, 14.191614151000977, -508.6687927246094, -170.83721923828125, -262.6222839355469, -1329.6529541015625, -391.310546875, -955.6025390625, -419.7763366699219, -313.2466125488281, -723.5027465820312, -212.88070678710938, -277.93157958984375, -1058.6094970703125, -581.0206909179688, -120.19597625732422, -475.70465087890625, -309.87384033203125, -607.6607055664062, -386.8006896972656, -485.7914123535156, 30.07825469970703, -375.39349365234375, -376.9491882324219, 19.613019943237305, -297.46453857421875, 40.77531051635742, 16.655187606811523, -229.71548461914062, -342.1027526855469, -202.80838012695312, -882.5296630859375, -36.002384185791016, -1484.3232421875, -195.48670959472656, -544.7025756835938, -493.2395935058594, -753.8403930664062, -401.2427062988281, -580.9271850585938, -491.1856384277344, -282.87890625, -822.4388427734375, -1057.30810546875, -121.92711639404297, -376.3566589355469, -25.56682586669922, -654.4219360351562, -384.8796081542969, -382.1725158691406, -487.7924499511719, -22.3233699798584, -499.36431884765625, 20.531665802001953, -479.6362609863281, -506.2859802246094, -7.939356803894043, -364.61016845703125, -213.8888702392578, 7.566349029541016, -1189.0791015625, -287.5819396972656, -535.5758666992188, -378.39996337890625, -461.6886291503906, -239.3816680908203, 7.12424373626709, -301.4368591308594, 34.132789611816406, -1235.411865234375, -315.53778076171875, -764.032958984375, -226.22962951660156, -467.23443603515625, -222.8727264404297, -773.5907592773438, -686.176513671875, -77.16314697265625, -483.2278747558594], "x_weights": [0.0, 0.0, 0.0, 0.0, 0.0, 0.0, 0.0, 2.1340461842100922e-08, 3.299501988361479e-14, 0.0, 0.0, 0.0, 0.0, 0.0, 0.0, 0.0, 0.0, 0.0, 0.0, 0.0, 0.0, 0.0, 1.2937695132276384e-23, 0.0, 0.0, 6.858194331715752e-32, 0.0, 1.0360075563273577e-13, 1.1645480135769049e-09, 0.0, 0.0, 0.0, 0.0, 2.3967396941887084e-14, 0.0, 0.0, 0.0, 0.0, 0.0, 0.0, 0.0, 3.7565877164524863e-07, 0.0, 0.0, 3.389570389774818e-14, 0.0, 3.793198614503732e-15, 0.0, 0.0, 0.0, 2.266835198270124e-17, 0.0, 0.0, 0.0, 0.0, 0.0, 0.0, 0.0, 0.0, 0.0, 0.0, 0.0, 0.0, 0.0, 0.0, 0.0, 0.0, 0.0, 0.0, 0.0, 9.285378715917503e-11, 0.0, 0.0, 0.9999996423721313, 0.0, 2.0233172776107367e-11, 7.82468246897406e-40, 0.0, 0.0, 0.0, 0.0, 3.351046366195222e-25, 0.0, 9.954184862712298e-21, 0.0, 0.0, 0.0, 0.0, 0.0, 0.0, 0.0, 0.0, 0.0, 0.0, 0.0, 0.0, 0.0, 0.0, 0.0, 0.0, 1.376907921013526e-09, 0.0, 1.7443945805312015e-15, 0.0, 0.0, 2.947037985867241e-19, 0.0, 0.0, 1.4545379874511544e-12, 0.0, 0.0, 0.0, 0.0, 0.0, 0.0, 5.605193857299268e-45, 0.0, 1.2781523732165725e-35, 0.0, 0.0, 0.0, 0.0, 0.0, 0.0, 0.0, 0.0, 0.0, 0.0], "y_weights": [0.0, 0.0, 0.0, 0.0, 0.0, 0.0, 0.0, 5.73246470594313e-05, 9.675283081378439e-07, 0.0, 0.0, 0.0, 0.0, 0.0, 0.0, 0.0, 0.0, 0.0, 0.0, 0.0, 0.0, 0.0, 1.6752708000277474e-19, 0.0, 0.0, 4.548177069424313e-21, 0.0, 3.513027024837356e-08, 1.7091674207592516e-18, 0.0, 0.0, 0.0, 0.0, 3.3917674224781535e-10, 0.0, 0.0, 0.0, 0.0, 0.0, 0.0, 0.0, 1.4689127845462645e-15, 0.0, 0.0, 6.223188216191099e-30, 0.0, 4.1313145428693936e-22, 0.0, 0.0, 0.0, 2.8460753719039555e-12, 0.0, 0.0, 0.0, 0.0, 0.0, 0.0, 0.0, 0.0, 0.0, 0.0, 0.0, 0.0, 0.0, 0.0, 0.0, 0.0, 0.0, 0.0, 0.0, 2.2580145014217123e-05, 0.0, 0.0, 6.43773367947631e-10, 0.0, 0.9986171722412109, 3.3432031448787924e-11, 0.0, 0.0, 0.0, 0.0, 4.521368665592556e-34, 0.0, 0.0, 0.0, 0.0, 0.0, 0.0, 0.0, 0.0, 0.0, 0.0, 0.0, 0.0, 0.0, 1.539490295486614e-29, 0.0, 0.0, 0.0, 0.0, 3.9444920635333937e-28, 0.0, 1.6132284397230023e-09, 0.0, 0.0, 6.964458880396937e-22, 0.0, 0.0, 3.775116155145747e-15, 0.0, 0.0, 0.0, 0.0, 0.0, 0.0, 2.426201363566697e-15, 0.0, 0.0013019336620345712, 0.0, 0.0, 0.0, 0.0, 0.0, 0.0, 0.0, 0.0, 0.0, 0.0], "size": 10, "data_size": 130, "large": false, "x_coef": [[-0.14497556454914648], [0.04678003180162656], [-0.21671109166213567], [-0.06495051662776404], [-0.10689924281237305]], "y_coef": [[0.11746315328079807], [-0.05927108941989952], [0.31306496788643956], [0.10215980775877584], [-0.12329739513639304]], "x_kernel_index": 73, "y_kernel_index": 75}, "19": {"id": 19, "members": [18, 19, 23], "x_loglikelihoods": [-77.14035034179688, -36.025386810302734, -151.7578582763672, -33.463653564453125, -188.20291137695312, -153.28863525390625, -113.27671813964844, 8.990143775939941, 10.56917953491211, -52.537357330322266, -33.81044006347656, -52.84748840332031, -65.20249938964844, -191.25973510742188, -122.09452819824219, -208.45050048828125, -98.36393737792969, -98.05197143554688, -259.03387451171875, -57.89418411254883, -66.36650085449219, -44.657875061035156, 0.22785818576812744, -170.16993713378906, -42.10211944580078, 2.584545373916626, -169.49484252929688, 9.58820915222168, 6.734013557434082, -183.22036743164062, -34.35581970214844, -78.6322021484375, -108.33271789550781, 5.706186771392822, -136.45294189453125, -76.26518249511719, -140.18670654296875, -101.44271850585938, -152.5624237060547, -97.98532104492188, -38.641510009765625, -1.1817128658294678, -269.32061767578125, -55.62896728515625, 2.8383004665374756, -85.64131164550781, 0.5545080304145813, -64.48057556152344, -118.21269226074219, -46.919464111328125, 6.381679534912109, -57.842166900634766, -61.315311431884766, -139.58253479003906, -262.14031982421875, -113.27104187011719, -97.39244079589844, -45.130165100097656, -135.20176696777344, -46.862735748291016, -54.10866928100586, -68.61595153808594, -162.65574645996094, -81.37018585205078, -182.64309692382812, -44.71232604980469, -157.6548614501953, -73.32777404785156, -46.000186920166016, -174.01962280273438, 7.418211936950684, -101.25027465820312, -115.29220581054688, -4.283358097076416, -75.07589721679688, 1.4437745809555054, 1.0718520879745483, -99.2228775024414, -144.03619384765625, -45.29475402832031, -37.50585174560547, 2.490957736968994, -95.07829284667969, 6.496390342712402, -101.02669525146484, -129.70306396484375, -194.99932861328125, -73.71940612792969, -114.35572814941406, -84.23340606689453, -116.60128021240234, -162.54293823242188, -138.27462768554688, -43.91033172607422, -252.9768524169922, -0.7030172348022461, -248.88827514648438, -81.46513366699219, -237.72879028320312, -71.43574523925781, 0.268938273191452, -75.07830810546875, 2.3202133178710938, -72.69468688964844, -172.40696716308594, 10.86471176147461, -28.956390380859375, -115.10420227050781, 5.237865447998047, -140.70428466796875, -84.93094635009766, -78.80325317382812, -27.463668823242188, -128.806884765625, -97.30290985107422, 2.1608219146728516, -166.8050537109375, 3.555124282836914, -152.39971923828125, -91.68875122070312, -162.20574951171875, -38.7879638671875, -39.75969314575195, -17.34882354736328, -116.92132568359375, -114.32466125488281, -166.05091857910156, -255.08164978027344], "y_loglikelihoods": [-158.73858642578125, -201.03988647460938, -137.46534729003906, -59.306396484375, -225.97555541992188, -239.15460205078125, -114.89038848876953, -39.6829948425293, -32.640289306640625, -74.91293334960938, -47.93714904785156, -258.3860168457031, -159.23898315429688, -217.9036865234375, -236.22418212890625, -286.5539855957031, -133.70513916015625, -287.3230895996094, -184.3878173828125, -362.44891357421875, -420.55853271484375, -78.34114837646484, -14.408454895019531, -201.68948364257812, -196.00387573242188, -44.90131759643555, -640.11279296875, -17.535228729248047, -40.51874542236328, -150.22052001953125, -133.10525512695312, -133.18392944335938, -158.2743682861328, -37.85487747192383, -231.57540893554688, -261.91998291015625, -133.83523559570312, -148.2098846435547, -307.06317138671875, -267.38958740234375, -305.2622985839844, -41.042320251464844, -243.3345184326172, -121.29685974121094, -31.304719924926758, -242.7528533935547, -28.817659378051758, -170.77389526367188, -608.95166015625, -171.1355743408203, -33.76528549194336, -245.15914916992188, -86.02671813964844, -115.9613037109375, -560.82470703125, -187.73135375976562, -378.29461669921875, -215.127197265625, -137.4973907470703, -270.9115905761719, -110.49403381347656, -158.57113647460938, -446.6010437011719, -233.73971557617188, -57.836029052734375, -246.11614990234375, -138.8843536376953, -244.5018768310547, -199.9876251220703, -218.73223876953125, -38.27721405029297, -202.83456420898438, -158.13888549804688, -21.521133422851562, -142.16036987304688, -27.063085556030273, -17.131900787353516, -92.87081909179688, -160.13494873046875, -112.46466064453125, -365.0510559082031, -56.49180603027344, -576.6317138671875, -147.67379760742188, -225.2573699951172, -269.24224853515625, -279.06689453125, -140.40859985351562, -228.3352813720703, -216.64791870117188, -139.627685546875, -326.8394775390625, -416.0494384765625, -53.630577087402344, -146.43545532226562, -50.66218948364258, -304.20831298828125, -209.77871704101562, -168.50704956054688, -258.7948303222656, -67.37701416015625, -239.7674102783203, -26.459747314453125, -172.50521850585938, -216.74942016601562, -51.85789489746094, -181.8861541748047, -91.96420288085938, -12.083171844482422, -497.47564697265625, -137.08587646484375, -230.87295532226562, -205.85128784179688, -250.70330810546875, -130.98446655273438, -44.740142822265625, -136.28224182128906, -37.085350036621094, -522.575927734375, -148.286376953125, -305.3122253417969, -126.03523254394531, -189.25772094726562, -123.52897644042969, -343.2927551269531, -275.79693603515625, -50.3956413269043, -225.39157104492188], "x_weights": [2.6656157998664903e-39, 1.9133786167602577e-21, 0.0, 2.4794050621157966e-20, 0.0, 0.0, 0.0, 0.06788869202136993, 0.3292789161205292, 1.2904559980976782e-28, 1.7528309377993845e-20, 9.463569560594376e-29, 4.076995525960749e-34, 0.0, 0.0, 0.0, 0.0, 0.0, 0.0, 6.085592558726783e-31, 1.2729778447883654e-34, 3.410035166016353e-25, 1.0626378752931487e-05, 0.0, 4.392476127883746e-24, 0.00011217118299100548, 0.0, 0.12346217781305313, 0.007111684884876013, 0.0, 1.0159788520339309e-20, 5.9964504015234005e-40, 0.0, 0.002544444752857089, 0.0, 6.395551414550823e-39, 0.0, 0.0, 0.0, 0.0, 1.3984051438786388e-22, 2.5954707325581694e-06, 0.0, 5.862359222579074e-30, 0.00014457256474997848, 5.423025056937042e-43, 1.4731516785104759e-05, 8.392044269997358e-34, 0.0, 3.552738316507846e-26, 0.004999836441129446, 6.410525998565262e-31, 1.9885025372390632e-32, 0.0, 0.0, 0.0, 0.0, 2.126404645345249e-25, 0.0, 3.760105504735953e-26, 2.6812116591747486e-29, 1.342445973597894e-35, 0.0, 3.879775058176121e-41, 0.0, 3.229320444657995e-25, 0.0, 1.2066416283601595e-37, 8.908410836327328e-26, 0.0, 0.014096655882894993, 0.0, 0.0, 1.1673175492887822e-07, 2.100767803180264e-38, 3.584683145163581e-05, 2.4713081074878573e-05, 0.0, 0.0, 1.803706547441654e-25, 4.353545873765526e-22, 0.00010214957728749141, 0.0, 0.00560756167396903, 0.0, 0.0, 0.0, 8.156326655487043e-38, 0.0, 2.2154528720975358e-42, 0.0, 0.0, 0.0, 7.201331737906679e-25, 0.0, 4.189007086097263e-06, 0.0, 3.528329403323457e-41, 0.0, 8.00342672009723e-37, 1.1071995686506853e-05, 2.095709255853898e-38, 8.61159132909961e-05, 2.2726081370293993e-37, 0.0, 0.44249865412712097, 2.2481588248866873e-18, 0.0, 0.0015929556684568524, 0.0, 1.102821891423631e-42, 5.05368482069495e-40, 1.0002482206769862e-17, 0.0, 0.0, 7.342782191699371e-05, 0.0, 0.0002960727724712342, 0.0, 1.401298464324817e-45, 0.0, 1.2078943517435506e-22, 4.5710106546368226e-23, 2.471321487295536e-13, 0.0, 0.0, 0.0, 0.0], "y_weights": [0.0, 0.0, 0.0, 2.7955172626920863e-21, 0.0, 0.0, 2.802596928649634e-45, 9.306733985900428e-13, 1.065136867595129e-09, 4.662613321155819e-28, 2.4213839695583065e-16, 0.0, 0.0, 0.0, 0.0, 0.0, 0.0, 0.0, 0.0, 0.0, 0.0, 1.5127696726042872e-29, 0.08818413317203522, 0.0, 0.0, 5.040904827347155e-15, 0.0, 0.003867673920467496, 4.0349245212373264e-13, 0.0, 0.0, 0.0, 0.0, 5.790799697397153e-12, 0.0, 0.0, 0.0, 0.0, 0.0, 0.0, 0.0, 2.390285235367995e-13, 0.0, 0.0, 4.049820478968513e-09, 0.0, 4.870264191936258e-08, 0.0, 0.0, 0.0, 3.458006381240608e-10, 0.0, 6.949853944531502e-33, 1.401298464324817e-45, 0.0, 0.0, 0.0, 0.0, 0.0, 0.0, 1.639519203260036e-43, 0.0, 0.0, 0.0, 1.2162829799649907e-20, 0.0, 0.0, 0.0, 0.0, 0.0, 3.795946629941982e-12, 0.0, 0.0, 7.184448622865602e-05, 0.0, 2.815491768615175e-07, 0.0057891253381967545, 7.406626035567777e-36, 0.0, 2.2420775429197073e-44, 0.0, 4.6646957176807074e-20, 0.0, 0.0, 0.0, 0.0, 0.0, 0.0, 0.0, 0.0, 0.0, 0.0, 0.0, 8.155286879506643e-19, 0.0, 1.5870609832881285e-17, 0.0, 0.0, 0.0, 0.0, 8.738512014277132e-25, 0.0, 5.147314823261695e-07, 0.0, 0.0, 4.800708534664313e-18, 0.0, 1.8338285844678673e-35, 0.9020863175392151, 0.0, 0.0, 0.0, 0.0, 0.0, 0.0, 5.922509847860113e-15, 0.0, 1.2500864926545674e-11, 0.0, 0.0, 0.0, 0.0, 0.0, 0.0, 0.0, 0.0, 2.0718295195303403e-17, 0.0], "size": 3, "data_size": 39, "large": false, "x_coef": [[0.09484284001235704], [0.23406128006446497], [-0.4730894185777389], [-0.14568130804896343], [-0.021649251522609145]], "y_coef": [[0.23213919011374493], [-0.003257370865803029], [0.3311710287243085], [-0.03976053736389204], [-0.20493807551308138]], "x_kernel_index": 8, "y_kernel_index": 108}, "27": {"id": 27, "members": [11, 12, 27, 28, 30], "x_loglikelihoods": [-158.1669921875, -76.8701171875, -407.8109436035156, -84.94974517822266, -510.5204772949219, -315.1780700683594, -155.05136108398438, 19.484590530395508, 22.649368286132812, -133.27337646484375, -111.35477447509766, -79.81716918945312, -124.7093505859375, -253.1951141357422, -332.9818420410156, -321.6559143066406, -135.8377685546875, -171.15478515625, -305.3867492675781, -199.94752502441406, -132.38438415527344, -113.0925064086914, 2.264033079147339, -206.6806182861328, -50.77701187133789, 4.301129341125488, -368.5332336425781, 16.879253387451172, 20.602949142456055, -264.5228271484375, -66.06253814697266, -103.94540405273438, -229.62933349609375, 15.582334518432617, -240.68328857421875, -236.29055786132812, -182.4294891357422, -278.0247497558594, -412.5843505859375, -235.59033203125, -71.0821762084961, 3.2626545429229736, -360.8121643066406, -69.12415313720703, 15.453153610229492, -198.73329162597656, 3.7853167057037354, -154.39816284179688, -158.81532287597656, -66.9403305053711, 12.227327346801758, -160.21791076660156, -155.46176147460938, -206.54690551757812, -335.0319519042969, -152.52622985839844, -156.38987731933594, -106.67073059082031, -176.9708251953125, -90.1570816040039, -152.15322875976562, -118.47771453857422, -256.9718017578125, -111.47953796386719, -213.45407104492188, -138.3605499267578, -196.91184997558594, -145.13003540039062, -97.90999603271484, -459.40167236328125, 14.903858184814453, -264.3059387207031, -172.7270050048828, -5.8264479637146, -80.77454376220703, 6.867845058441162, 4.249125003814697, -253.31182861328125, -390.488037109375, -89.08797454833984, -38.88819122314453, 3.5743839740753174, -143.2861785888672, 12.75467586517334, -255.28831481933594, -340.79388427734375, -374.5295715332031, -108.86674499511719, -164.12046813964844, -230.03001403808594, -350.3876647949219, -480.4073486328125, -233.55624389648438, -38.4706916809082, -398.1238708496094, -12.499645233154297, -392.0762939453125, -206.2056884765625, -333.37469482421875, -181.39517211914062, 1.920644998550415, -179.09947204589844, 7.529949188232422, -127.63955688476562, -481.8974914550781, 18.328088760375977, -90.95668029785156, -162.9840850830078, 12.496254920959473, -190.77227783203125, -114.81684875488281, -91.4473648071289, -44.02970504760742, -303.406005859375, -261.00640869140625, -6.177002429962158, -230.1450958251953, -5.478018283843994, -239.0370635986328, -256.68267822265625, -280.46282958984375, -112.0749282836914, -42.322105407714844, -46.05670928955078, -124.2884521484375, -128.91322326660156, -428.66583251953125, -396.145263671875], "y_loglikelihoods": [-266.7867126464844, -333.3495788574219, -210.31541442871094, -98.97797393798828, -422.6076965332031, -398.93804931640625, -154.8859100341797, 11.081838607788086, 28.004499435424805, -140.37229919433594, -71.50596618652344, -413.40679931640625, -261.03460693359375, -322.0054626464844, -369.734619140625, -376.06158447265625, -214.1990203857422, -405.3243408203125, -249.9279022216797, -706.8281860351562, -612.62255859375, -153.88845825195312, 5.7987961769104, -302.4058837890625, -325.03533935546875, 25.37472152709961, -1013.0873413085938, 12.059610366821289, 27.762405395507812, -241.912841796875, -158.81764221191406, -188.05628967285156, -251.9841766357422, 31.344303131103516, -329.0548095703125, -423.3867492675781, -208.4956512451172, -230.55142211914062, -600.5316162109375, -428.5102233886719, -531.0300903320312, 20.102008819580078, -368.35723876953125, -188.9309539794922, 9.719772338867188, -363.70306396484375, 13.689801216125488, -238.76736450195312, -971.4722900390625, -279.0057067871094, 23.88226890563965, -410.6910095214844, -148.59417724609375, -175.6588134765625, -883.5244750976562, -346.80975341796875, -510.9112548828125, -222.88986206054688, -223.11883544921875, -414.3673400878906, -188.504150390625, -269.8634033203125, -597.517333984375, -382.3581237792969, -86.4123764038086, -405.3980712890625, -194.3595428466797, -327.51104736328125, -352.273193359375, -383.4338073730469, 26.792285919189453, -343.675048828125, -210.05401611328125, 10.58167552947998, -216.4989013671875, 19.76865005493164, 16.896625518798828, -185.9324951171875, -292.3548889160156, -189.84292602539062, -610.840087890625, 26.033733367919922, -775.9946899414062, -10.960466384887695, -443.1702880859375, -440.0848083496094, -377.9059143066406, -215.5466766357422, -343.2530517578125, -417.7182312011719, -235.79129028320312, -595.9384765625, -547.7149047851562, -78.38752746582031, -196.13705444335938, 27.69767951965332, -455.1370544433594, -342.32171630859375, -258.7752990722656, -462.4753112792969, 20.814769744873047, -403.3313903808594, 19.234737396240234, -245.7267303466797, -415.53216552734375, 32.32408905029297, -317.0133056640625, -150.57093811035156, 1.663284182548523, -834.6691284179688, -175.63877868652344, -375.50518798828125, -330.8297424316406, -393.0164489746094, -257.5332336425781, 22.877700805664062, -211.94676208496094, 24.210756301879883, -701.7315063476562, -213.18800354003906, -404.4321594238281, -220.31942749023438, -284.89404296875, -201.13052368164062, -518.6806030273438, -460.1174621582031, -93.19400024414062, -301.73028564453125], "x_weights": [0.0, 5.044674471569341e-44, 0.0, 0.0, 0.0, 0.0, 0.0, 0.03548264130949974, 0.8403524160385132, 0.0, 0.0, 2.802596928649634e-45, 0.0, 0.0, 0.0, 0.0, 0.0, 0.0, 0.0, 0.0, 0.0, 0.0, 1.1782095299395223e-09, 0.0, 1.0859038284691761e-32, 9.034874182134445e-09, 0.0, 0.002621394582092762, 0.10857076197862625, 0.0, 2.496721499856813e-39, 0.0, 0.0, 0.0007166179711930454, 0.0, 0.0, 0.0, 0.0, 0.0, 0.0, 1.6496085522031747e-41, 3.1982985149170418e-09, 0.0, 1.168766997154757e-40, 0.0006297746440395713, 0.0, 5.393961277633252e-09, 0.0, 0.0, 1.0378871218852833e-39, 2.5016501240315847e-05, 0.0, 0.0, 0.0, 0.0, 0.0, 0.0, 0.0, 0.0, 0.0, 0.0, 0.0, 0.0, 0.0, 0.0, 0.0, 0.0, 0.0, 0.0, 0.0, 0.0003636044275481254, 0.0, 0.0, 3.6105336385580666e-13, 1.401298464324817e-45, 1.1766119456524393e-07, 8.577034193990585e-09, 0.0, 0.0, 0.0, 1.5813897440211091e-27, 4.368188033510023e-09, 0.0, 4.238880137563683e-05, 0.0, 0.0, 0.0, 0.0, 0.0, 0.0, 0.0, 0.0, 0.0, 2.4008037944728745e-27, 0.0, 4.564979248899829e-16, 0.0, 0.0, 0.0, 0.0, 8.357785574730769e-10, 0.0, 2.2812936606442236e-07, 0.0, 0.0, 0.011162297800183296, 0.0, 0.0, 3.2735606509959325e-05, 0.0, 0.0, 0.0, 9.249243199049627e-30, 0.0, 0.0, 2.542891841105649e-13, 0.0, 5.115556415968836e-13, 0.0, 0.0, 0.0, 0.0, 5.101630135314483e-29, 1.2184033740905794e-30, 0.0, 0.0, 0.0, 0.0], "y_weights": [0.0, 0.0, 0.0, 0.0, 0.0, 0.0, 0.0, 4.201912984225231e-10, 0.009394317865371704, 0.0, 1.401298464324817e-45, 0.0, 0.0, 0.0, 0.0, 0.0, 0.0, 0.0, 0.0, 0.0, 0.0, 0.0, 2.1332935418172383e-12, 0.0, 0.0, 0.0006772783817723393, 0.0, 1.1170893099432533e-09, 0.007374373730272055, 0.0, 0.0, 0.0, 0.0, 0.2650474011898041, 0.0, 0.0, 0.0, 0.0, 0.0, 0.0, 0.0, 3.474219056442962e-06, 0.0, 0.0, 1.076240069286527e-10, 0.0, 5.702566419074628e-09, 0.0, 0.0, 0.0, 0.00015226610412355512, 0.0, 0.0, 0.0, 0.0, 0.0, 0.0, 0.0, 0.0, 0.0, 0.0, 0.0, 0.0, 0.0, 0.0, 0.0, 0.0, 0.0, 0.0, 0.0, 0.0027951658703386784, 0.0, 0.0, 2.5481755594469746e-10, 0.0, 2.489323605914251e-06, 1.4085649979733716e-07, 0.0, 0.0, 0.0, 0.0, 0.0013090986758470535, 0.0, 1.1235604600065432e-19, 0.0, 0.0, 0.0, 0.0, 0.0, 0.0, 0.0, 0.0, 0.0, 0.0, 0.0, 0.0069121806882321835, 0.0, 0.0, 0.0, 0.0, 7.086067853379063e-06, 0.0, 1.4595062793887337e-06, 0.0, 0.0, 0.7060560584068298, 0.0, 0.0, 3.41209299584231e-14, 0.0, 0.0, 0.0, 0.0, 0.0, 0.0, 5.576026887865737e-05, 0.0, 0.00021147719235159457, 0.0, 0.0, 0.0, 0.0, 0.0, 0.0, 0.0, 0.0, 0.0, 0.0], "size": 5, "data_size": 72, "large": false, "x_coef": [[0.030084808542833425], [0.21959900909529007], [-0.4632571262658126], [-0.16188607773055524], [-0.11969883776253995]], "y_coef": [[0.10337048989429773], [0.01991267385533457], [0.5337215560881894], [0.09670637830208827], [-0.20872136650233358]], "x_kernel_index": 8, "y_kernel_index": 105}, "40": {"id": 40, "members": [36, 37, 38, 39, 40, 41, 42, 45, 49, 50], "x_loglikelihoods": [66.13410949707031, 51.701778411865234, 75.96039581298828, -149.6247100830078, -484.26123046875, 37.63024139404297, -336.2051086425781, -222.9608154296875, -355.931640625, -141.0188751220703, -158.58584594726562, -121.17527770996094, 44.15668487548828, -541.7379150390625, 79.94613647460938, -364.8936462402344, -282.3820495605469, -127.17747497558594, -777.10791015625, -118.64653015136719, -101.2298355102539, -94.02139282226562, -258.13995361328125, -574.1041870117188, -122.56231689453125, -485.3614807128906, 78.5115737915039, -155.82568359375, -324.319580078125, -548.1331787109375, -58.48363494873047, -229.5432891845703, 63.84466552734375, -183.41310119628906, -210.9532928466797, 60.897544860839844, -388.8902893066406, 66.26702117919922, -434.7870178222656, 75.0269775390625, 27.31011962890625, -360.614501953125, -976.8177490234375, -138.98944091796875, -218.27122497558594, 63.286659240722656, -202.80203247070312, -74.5001449584961, -353.9594421386719, 2.1876912117004395, -81.85490417480469, -88.454345703125, -199.8693389892578, -360.23150634765625, -736.89208984375, 4.041174411773682, -220.2134552001953, -10.197141647338867, -409.82977294921875, -102.14608764648438, -107.34324645996094, 30.64263916015625, -314.306884765625, -196.08892822265625, -618.7882080078125, 37.40674591064453, -478.02197265625, -134.3682098388672, 47.38288116455078, -351.8307800292969, -394.8323974609375, 69.36300659179688, -301.87091064453125, -341.13116455078125, -233.556640625, -130.6691436767578, -437.57989501953125, -197.19285583496094, -300.17681884765625, 43.92329025268555, -156.92526245117188, -67.32798767089844, -203.95193481445312, -104.583984375, -258.6954040527344, 68.50013732910156, -431.42755126953125, -94.7426986694336, -250.72227478027344, -234.46485900878906, -280.2323913574219, -394.26995849609375, -212.45762634277344, -106.25112915039062, -592.01416015625, -549.3763427734375, -637.3761596679688, 67.80419158935547, -641.7413330078125, 65.26692962646484, -172.193359375, 57.8286018371582, -117.11128234863281, -125.26016998291016, -517.3129272460938, -262.2104187011719, -99.3576889038086, -282.13623046875, -135.82191467285156, -427.6830749511719, -201.82200622558594, -247.7877197265625, 16.24693489074707, 74.98509979248047, -277.3019104003906, -414.55029296875, -422.41021728515625, -213.96087646484375, -261.0780944824219, 77.19734954833984, -356.4025573730469, -93.22270202636719, -173.30062866210938, 7.404031753540039, -378.37664794921875, -395.73321533203125, -434.0957336425781, -619.033203125], "y_loglikelihoods": [51.75093078613281, 67.14388275146484, 66.0513687133789, -44.93982696533203, -327.92352294921875, 48.511539459228516, -196.06259155273438, -290.5042724609375, -263.0727233886719, -124.69855499267578, -74.3425521850586, -365.662109375, 65.39216613769531, -332.76239013671875, 52.54751205444336, -351.7812805175781, -191.77316284179688, -235.10052490234375, -247.51893615722656, -549.9076538085938, -399.4131164550781, -110.70339965820312, -92.11636352539062, -327.1868896484375, -385.2510681152344, -199.7178955078125, 43.124446868896484, -287.0863952636719, -241.0754852294922, -157.15591430664062, -122.77681732177734, -213.15145874023438, 64.75550842285156, -271.1906433105469, -205.81689453125, 66.50736236572266, -224.0353546142578, 66.7715072631836, -453.6191101074219, 69.34357452392578, 51.865943908691406, -217.22743225097656, -321.1756591796875, -235.19610595703125, -101.06938934326172, 56.625709533691406, -85.3770523071289, -113.8338851928711, -1097.1865234375, 11.656598091125488, -158.33706665039062, -366.9501647949219, -143.2885284423828, -125.75164031982422, -902.8857421875, 58.08930969238281, -359.25506591796875, -390.1590270996094, -181.08863830566406, -245.64537048339844, -45.75830841064453, 48.370452880859375, -547.2258911132812, -296.51910400390625, -112.91255187988281, 77.81133270263672, -94.415771484375, -165.6434326171875, 64.35084533691406, -335.6070251464844, -388.5018615722656, 69.47561645507812, -113.58613586425781, -145.0643310546875, -242.28713989257812, -338.40484619140625, -112.9884033203125, -124.86956787109375, -226.03561401367188, 48.097877502441406, -770.50439453125, -259.3652038574219, -640.0950317382812, -358.1465759277344, -411.87652587890625, 69.79598999023438, -352.0048828125, -113.26749420166016, -283.6835021972656, -379.8818054199219, -235.3740234375, -641.3677978515625, -525.1886596679688, -78.97620391845703, -194.39427185058594, -353.4694519042969, -530.1587524414062, 71.93561553955078, -173.92250061035156, 53.599212646484375, -265.7728271484375, 78.9709243774414, -155.0877685546875, -115.13211059570312, -202.90892028808594, -316.35504150390625, -259.1637268066406, -97.66128540039062, -124.26380920410156, -924.285400390625, -132.3302001953125, -321.11480712890625, 71.28864288330078, 77.42192077636719, -202.7290802001953, -274.5013732910156, -239.01600646972656, -290.6766662597656, -512.687744140625, 55.99922561645508, -275.7535095214844, -197.47532653808594, -347.530517578125, 51.01752471923828, -377.2674865722656, -360.81561279296875, -65.4706039428711, -339.43341064453125], "x_weights": [7.515883453379502e-07, 4.0560030377737033e-13, 0.013914958573877811, 0.0, 0.0, 3.139839310992632e-19, 0.0, 0.0, 0.0, 0.0, 0.0, 0.0, 2.144399828292516e-16, 0.0, 0.748974621295929, 0.0, 0.0, 0.0, 0.0, 0.0, 0.0, 0.0, 0.0, 0.0, 0.0, 0.0, 0.17842037975788116, 0.0, 0.0, 0.0, 0.0, 0.0, 7.615301456098678e-08, 0.0, 0.0, 3.997319364401619e-09, 0.0, 8.584259489907708e-07, 0.0, 0.005471463315188885, 1.0349881897770452e-23, 0.0, 0.0, 0.0, 0.0, 4.358610539156871e-08, 0.0, 0.0, 0.0, 1.2717542515964303e-34, 0.0, 0.0, 0.0, 0.0, 0.0, 8.116364212435645e-34, 0.0, 5.317871620174108e-40, 0.0, 0.0, 0.0, 2.898880306086228e-22, 0.0, 0.0, 0.0, 2.510987141020498e-19, 0.0, 0.0, 5.400388574777195e-15, 0.0, 0.0, 1.8978951629833318e-05, 0.0, 0.0, 0.0, 0.0, 0.0, 0.0, 0.0, 1.6980237883035444e-16, 0.0, 0.0, 0.0, 0.0, 0.0, 8.00816087576095e-06, 0.0, 0.0, 0.0, 0.0, 0.0, 0.0, 0.0, 0.0, 0.0, 0.0, 0.0, 3.992890924564563e-06, 0.0, 3.1576831815982587e-07, 0.0, 1.8575643800922137e-10, 0.0, 0.0, 0.0, 0.0, 0.0, 0.0, 0.0, 0.0, 0.0, 0.0, 1.6227608858977344e-28, 0.005247062537819147, 0.0, 0.0, 0.0, 0.0, 0.0, 0.04793846234679222, 0.0, 0.0, 0.0, 2.3433140459648502e-32, 0.0, 0.0, 0.0, 0.0], "y_weights": [9.873574397314955e-13, 4.781327788805356e-06, 1.6035248791013146e-06, 0.0, 0.0, 3.8692302400250567e-14, 0.0, 0.0, 0.0, 0.0, 0.0, 0.0, 8.294451276924519e-07, 0.0, 2.1899049414131344e-12, 0.0, 0.0, 0.0, 0.0, 0.0, 0.0, 0.0, 0.0, 0.0, 0.0, 0.0, 1.770272389981886e-16, 0.0, 0.0, 0.0, 0.0, 0.0, 4.38824400816884e-07, 0.0, 0.0, 2.5299459593952633e-06, 0.0, 3.2947912131930934e-06, 0.0, 4.3138250475749373e-05, 1.1077046398189072e-12, 0.0, 0.0, 0.0, 0.0, 1.2928970394288086e-10, 0.0, 0.0, 0.0, 3.8170532189279796e-30, 0.0, 0.0, 0.0, 0.0, 0.0, 5.587240670124061e-10, 0.0, 0.0, 0.0, 0.0, 0.0, 3.360094659649905e-14, 0.0, 0.0, 0.0, 0.20528781414031982, 0.0, 0.0, 2.927842785993562e-07, 0.0, 0.0, 4.922747393720783e-05, 0.0, 0.0, 0.0, 0.0, 0.0, 0.0, 0.0, 2.5584301523032607e-14, 0.0, 0.0, 0.0, 0.0, 0.0, 6.781785486964509e-05, 0.0, 0.0, 0.0, 0.0, 0.0, 0.0, 0.0, 0.0, 0.0, 0.0, 0.0, 0.0005761978682130575, 0.0, 6.268634916706262e-12, 0.0, 0.6545870900154114, 0.0, 0.0, 0.0, 0.0, 0.0, 0.0, 0.0, 0.0, 0.0, 0.0, 0.00030171367689035833, 0.13907328248023987, 0.0, 0.0, 0.0, 0.0, 0.0, 6.910116923108944e-11, 0.0, 0.0, 0.0, 4.741985341720489e-13, 0.0, 0.0, 0.0, 0.0], "size": 10, "data_size": 126, "large": false, "x_coef": [[-0.006536932484689954], [-0.44201667113803367], [-0.5375296741230838], [-0.8689522649252992], [0.39227203247787884]], "y_coef": [[0.05449465090772493], [0.6470047313279131], [0.5978924130588744], [1.0236425715325916], [-0.10530798896608624]], "x_kernel_index": 14, "y_kernel_index": 101}, "23": {"id": 23, "members": [43, 44, 46, 47, 48], "x_loglikelihoods": [5.394688129425049, 13.027073860168457, -14.954060554504395, -67.45648956298828, -240.57601928710938, 2.910853385925293, -101.50941467285156, -97.27356719970703, -156.4865264892578, -69.11293029785156, -82.60728454589844, -34.80841064453125, 14.729694366455078, -169.1510772705078, -8.932157516479492, -141.2097930908203, -87.6787338256836, -43.93434524536133, -545.5875244140625, -71.25790405273438, -28.6976261138916, -47.10053634643555, -109.16835021972656, -182.97940063476562, -35.940765380859375, -189.63572692871094, -1.6525797843933105, -72.83975219726562, -139.92678833007812, -197.51156616210938, -15.371240615844727, -64.54347229003906, 9.711441040039062, -81.05513000488281, -88.25153350830078, -8.504514694213867, -115.51040649414062, 3.7481446266174316, -211.56564331054688, 2.154588460922241, 9.910321235656738, -171.84646606445312, -323.7813415527344, -42.310401916503906, -98.38992309570312, 3.7849903106689453, -82.82347869873047, -42.96329879760742, -106.63153076171875, 9.543841361999512, -45.08408737182617, -50.173282623291016, -92.95585632324219, -113.5606460571289, -232.52359008789062, 4.810559272766113, -107.95706939697266, -13.312960624694824, -130.62994384765625, -38.69590377807617, -59.171321868896484, 6.760042667388916, -117.43649291992188, -58.49552536010742, -194.77491760253906, 2.1743786334991455, -141.40863037109375, -74.7186279296875, 15.145943641662598, -179.32167053222656, -182.5670928955078, 6.031930446624756, -124.52310180664062, -147.77670288085938, -69.48745727539062, -57.404788970947266, -219.35128784179688, -101.52544403076172, -160.10662841796875, 11.883466720581055, -49.25791931152344, -34.13196563720703, -76.96659088134766, -52.61595916748047, -127.92693328857422, -3.6356778144836426, -170.85678100585938, -55.6708984375, -72.75055694580078, -111.23600006103516, -147.48797607421875, -211.3797149658203, -77.04158020019531, -30.158472061157227, -240.0595245361328, -298.5657653808594, -198.76882934570312, 6.807668209075928, -205.1455535888672, 13.65578556060791, -88.80445861816406, 13.723355293273926, -58.74681854248047, -36.47937774658203, -248.32492065429688, -126.25538635253906, -48.440216064453125, -84.02056884765625, -60.03617858886719, -133.38116455078125, -69.52899932861328, -80.01390075683594, 7.399890422821045, -0.15166997909545898, -133.77166748046875, -176.18063354492188, -124.5068588256836, -95.7266845703125, -101.02689361572266, -0.48694801330566406, -150.6597137451172, -48.51620101928711, -50.90485382080078, -1.0011632442474365, -111.87396240234375, -123.81753540039062, -211.09144592285156, -215.9583282470703], "y_loglikelihoods": [26.108924865722656, 21.93093490600586, 23.28604507446289, -10.884805679321289, -94.0716781616211, 24.176223754882812, -143.35096740722656, -140.27598571777344, -147.8132781982422, -32.915985107421875, -22.93777847290039, -256.9180908203125, 25.050487518310547, -217.6868896484375, 14.808300018310547, -116.67125701904297, -134.17312622070312, -80.03404998779297, -214.33326721191406, -187.4578399658203, -133.87265014648438, -34.04772186279297, -55.06419372558594, -238.1471710205078, -408.585205078125, -147.6469268798828, 1.4212112426757812, -156.44229125976562, -160.58956909179688, -103.79496765136719, -44.38938903808594, -158.0775146484375, 20.453907012939453, -177.63331604003906, -72.38890075683594, 18.991483688354492, -162.50283813476562, 25.35416030883789, -134.1438446044922, 21.065885543823242, 23.864347457885742, -150.4016571044922, -222.64952087402344, -159.4169158935547, -65.33145141601562, 14.684730529785156, -70.16594696044922, -34.983543395996094, -744.7447509765625, 17.5974063873291, -105.30435943603516, -118.95199584960938, -35.250572204589844, -93.54206085205078, -596.1640625, 24.735994338989258, -124.55591583251953, -1347.7462158203125, -124.58914947509766, -87.30194091796875, -8.247465133666992, 22.83729362487793, -186.2346954345703, -192.00741577148438, -74.63731384277344, 24.221607208251953, -60.34214782714844, -55.902103424072266, 27.58272361755371, -110.00282287597656, -253.28366088867188, 28.283714294433594, -36.56694793701172, -89.74959564208984, -186.3131561279297, -199.85740661621094, -71.34110260009766, -43.796287536621094, -61.295196533203125, 18.84113883972168, -476.8206787109375, -151.02125549316406, -225.54014587402344, -245.07662963867188, -137.5362548828125, 27.4137020111084, -150.87661743164062, -36.3070068359375, -174.83013916015625, -112.22418212890625, -71.0400161743164, -198.6398468017578, -180.5465087890625, -48.23343276977539, -66.69924926757812, -207.14901733398438, -351.88006591796875, 29.221609115600586, -109.18522644042969, 20.440006256103516, -206.1773681640625, 23.0235595703125, -112.99644470214844, -33.91929244995117, -59.2696647644043, -193.39517211914062, -79.67861938476562, -64.06072998046875, -72.85638427734375, -604.2799072265625, -106.64293670654297, -208.25030517578125, 23.639102935791016, 25.67406463623047, -47.97800827026367, -164.79638671875, -160.14105224609375, -180.10450744628906, -198.27554321289062, 18.473514556884766, -98.69895935058594, -56.50152587890625, -193.30908203125, 21.011676788330078, -279.96026611328125, -290.93536376953125, -11.049246788024902, -260.4414978027344], "x_weights": [2.5325680326204747e-05, 0.05227138102054596, 3.683084246657378e-14, 5.816971533693292e-37, 0.0, 2.112735955961398e-06, 0.0, 0.0, 0.0, 1.1099765850708421e-37, 1.5274153261140506e-43, 8.781675958655929e-23, 0.28688156604766846, 0.0, 1.5187648014225452e-11, 0.0, 1.401298464324817e-45, 9.555080795977417e-27, 0.0, 1.2994619010269396e-38, 3.957824970931823e-20, 4.028794109800355e-28, 0.0, 0.0, 2.8301012908084354e-23, 0.0, 2.2027824897463688e-08, 2.6716259689799794e-39, 0.0, 0.0, 2.426790559684807e-14, 1.0710364244497873e-35, 0.0018980292370542884, 7.216687091272808e-43, 0.0, 2.3292357625992466e-11, 0.0, 4.880635515291942e-06, 0.0, 9.917533816405921e-07, 0.0023156634997576475, 0.0, 0.0, 4.847345959934617e-26, 0.0, 5.063817297923379e-06, 1.233142648605839e-43, 2.5232164409985116e-26, 0.0, 0.0016051488928496838, 3.0262703439560287e-27, 1.8650765766756754e-29, 0.0, 0.0, 0.0, 1.4121374988462776e-05, 0.0, 1.9007821846443035e-13, 0.0, 1.799950632760477e-24, 2.306204754601146e-33, 9.92035202216357e-05, 0.0, 4.533071354703465e-33, 0.0, 1.0115752502315445e-06, 0.0, 4.081225725407457e-40, 0.4349881410598755, 0.0, 0.0, 4.789735976373777e-05, 0.0, 0.0, 7.632359859939336e-38, 1.349252987024961e-32, 0.0, 0.0, 0.0, 0.016657186672091484, 4.6583863864103754e-29, 1.727244273466042e-22, 4.3103940762631373e-41, 1.621277543682364e-30, 0.0, 3.0319542432266644e-09, 0.0, 7.64036474626985e-32, 2.920872124232506e-39, 0.0, 0.0, 0.0, 3.9988854276437305e-41, 9.18373316898521e-21, 0.0, 0.0, 0.0, 0.00010404235945316032, 0.0, 0.09801894426345825, 0.0, 0.10487093776464462, 3.5258104492930014e-33, 1.6515266901014152e-23, 0.0, 0.0, 1.0552601092122722e-28, 3.783505853677006e-44, 9.711738716886923e-34, 0.0, 7.321790641810412e-38, 2.0472970563785577e-42, 0.0001881088683148846, 9.881171791903398e-08, 0.0, 0.0, 0.0, 0.0, 0.0, 7.066410745437679e-08, 0.0, 9.780469295881144e-29, 8.97389464999663e-30, 4.225502081567356e-08, 0.0, 0.0, 0.0, 0.0], "y_weights": [0.023408733308315277, 0.0003588392282836139, 0.0013912871945649385, 2.010041030288038e-18, 0.0, 0.003388570388779044, 0.0, 0.0, 0.0, 5.434811080497993e-28, 1.1712945978431881e-23, 0.0, 0.008122775703668594, 0.0, 2.89453595314626e-07, 0.0, 0.0, 0.0, 0.0, 0.0, 0.0, 1.7525780734285345e-28, 1.3071927525507425e-37, 0.0, 0.0, 0.0, 4.4426298035325773e-13, 0.0, 0.0, 0.0, 5.653903381502593e-33, 0.0, 8.192848326871172e-05, 0.0, 4.203895392974451e-45, 1.898071241157595e-05, 0.0, 0.011004945263266563, 0.0, 0.0001510823640273884, 0.002480677794665098, 0.0, 0.0, 0.0, 4.543009621341057e-42, 2.558075777869817e-07, 3.6433760072445244e-44, 6.874724297846224e-29, 0.0, 4.7083899517019745e-06, 0.0, 0.0, 5.263639362236338e-29, 0.0, 0.0, 0.00593091594055295, 0.0, 0.0, 0.0, 0.0, 2.8092304299387e-17, 0.0008882322581484914, 0.0, 0.0, 1.401298464324817e-45, 0.0035458984784781933, 6.6704189109250645e-40, 5.655118758466847e-38, 0.1021975725889206, 0.0, 0.0, 0.20600463449954987, 1.411209217642395e-29, 0.0, 0.0, 0.0, 1.1210387714598537e-44, 1.0231259649163364e-32, 2.571873136498553e-40, 1.633121974009555e-05, 0.0, 0.0, 0.0, 0.0, 0.0, 0.08630490303039551, 0.0, 1.830132082467538e-29, 0.0, 0.0, 1.5414283107572988e-44, 0.0, 0.0, 1.2103280136924944e-34, 1.1574725315322989e-42, 0.0, 0.0, 0.5262590050697327, 0.0, 8.079749386524782e-05, 0.0, 0.0010700912680476904, 0.0, 1.9927611579049312e-28, 1.949522857328758e-39, 0.0, 0.0, 1.6187799859880287e-41, 2.802596928649634e-45, 0.0, 0.0, 0.0, 0.0019803771283477545, 0.015153765678405762, 1.5625449216959785e-34, 0.0, 0.0, 0.0, 0.0, 1.1307363820378669e-05, 0.0, 3.105376328615376e-38, 0.0, 0.00014311041741166264, 0.0, 0.0, 1.7052554768473352e-18, 0.0], "size": 5, "data_size": 57, "large": false, "x_coef": [[-0.15449166086163188], [-0.4572038090305656], [-0.35839356583838045], [-1.0503829091924304], [0.4119084266140254]], "y_coef": [[0.16162919955809285], [0.6053611433135264], [0.46394218207207977], [1.1303832737611306], [-0.06193960076848872]], "x_kernel_index": 68, "y_kernel_index": 97}, "26": {"id": 26, "members": [32, 35], "x_loglikelihoods": [-44.234947204589844, -15.649246215820312, -82.07341003417969, -45.622074127197266, -208.85153198242188, -61.18949890136719, 14.374940872192383, -58.9065055847168, -92.15564727783203, -56.51122283935547, -62.31184005737305, 10.360527038574219, -11.356706619262695, 8.72261905670166, -63.38019561767578, -124.80502319335938, 13.342682838439941, -48.50324249267578, -7.397981643676758, -65.9600830078125, -35.05671691894531, -47.9918212890625, -110.856201171875, 10.147269248962402, 3.115370512008667, -116.86498260498047, -71.59304809570312, -54.31547546386719, -72.1572036743164, 13.374199867248535, -17.36520004272461, 11.533479690551758, -34.88053512573242, -35.22380065917969, -76.6013412475586, -57.40655517578125, 15.167745590209961, -41.63898468017578, -146.80294799804688, -48.70506286621094, -9.23434829711914, -94.90868377685547, 8.326980590820312, 7.9886698722839355, -42.855194091796875, -46.902015686035156, -39.31573486328125, -47.673038482666016, 14.026336669921875, -5.620598793029785, -34.152374267578125, -47.417686462402344, -69.7991943359375, 15.331169128417969, 11.743223190307617, -22.166515350341797, -71.39892578125, -29.306272506713867, 13.591364860534668, -30.16215705871582, -62.2523307800293, -27.68627166748047, -100.35405731201172, 12.372291564941406, 10.246012687683105, -33.32307052612305, 14.024637222290039, -63.81623840332031, -10.328128814697266, -137.73114013671875, -109.97270965576172, -41.888206481933594, -74.6317138671875, -82.16691589355469, 10.53796100616455, -26.055742263793945, -99.52587127685547, -104.0853271484375, -121.66194915771484, -13.77557373046875, 6.610194683074951, -19.621488571166992, -57.37037658691406, -34.22924041748047, -112.5174560546875, -65.51226043701172, -138.74246215820312, -43.26126480102539, 13.943107604980469, -77.90381622314453, -133.82070922851562, -167.9226531982422, -76.79830932617188, 5.142287254333496, -156.91024780273438, -187.2582244873047, 5.829102993011475, -31.371337890625, 14.89501667022705, -25.532756805419922, -40.16302490234375, -24.780391693115234, -25.08509063720703, -38.03944396972656, -187.7022705078125, -77.54196166992188, -36.25647735595703, 13.429187774658203, -30.601367950439453, 13.350598335266113, 12.024333000183105, 9.646442413330078, -4.835515022277832, -68.47659301757812, -116.93620300292969, -95.84011840820312, 16.079532623291016, -73.88592529296875, -86.33590698242188, -49.147544860839844, -110.38690185546875, -45.829811096191406, 3.085336446762085, -6.015337944030762, 11.650550842285156, 11.631370544433594, -170.62197875976562, 14.198722839355469], "y_loglikelihoods": [-31.987655639648438, -41.678672790527344, -27.17115592956543, -9.449692726135254, -115.89292907714844, -41.75046920776367, 9.251989364624023, -47.142425537109375, -40.48540115356445, -32.66674041748047, -23.157670974731445, 10.107916831970215, -34.67863845825195, 3.365361213684082, -83.88727569580078, -131.16815185546875, 9.261789321899414, -105.01982116699219, 8.48834228515625, -221.54147338867188, -160.97970581054688, -34.30068588256836, -18.510330200195312, 10.786785125732422, -191.95071411132812, -24.227510452270508, -181.69003295898438, -49.668792724609375, -26.329822540283203, 8.595634460449219, -50.81904220581055, 10.41476821899414, -38.964332580566406, -42.409934997558594, -92.9136962890625, -74.07723999023438, 10.730148315429688, -30.059629440307617, -159.2337646484375, -67.15604400634766, -100.1395263671875, -46.38972091674805, 7.574775218963623, 10.1674165725708, -15.517217636108398, -69.17991638183594, -11.74327278137207, -52.737998962402344, -54.927146911621094, -42.81192398071289, -25.369918823242188, -113.25830841064453, -39.734535217285156, 9.44406509399414, 0.1222085952758789, -46.75779342651367, -153.09376525878906, -1404.7613525390625, 9.056621551513672, -112.86649322509766, -42.97196578979492, -49.516387939453125, -205.6525115966797, 8.538050651550293, 3.259772539138794, -66.27085876464844, 1.526449203491211, -69.25264739990234, -46.01421356201172, -102.52233123779297, -59.4552001953125, -52.504783630371094, -57.079444885253906, -25.007217407226562, 11.067804336547852, -47.272682189941406, -14.085817337036133, -49.98988723754883, -65.38740539550781, -27.664575576782227, 4.028328895568848, -37.77653503417969, -229.99517822265625, -44.28368377685547, -119.52339172363281, -72.16534423828125, -152.61968994140625, -48.0712776184082, 4.545894145965576, -102.95626831054688, -69.13334655761719, -156.84327697753906, -177.6954345703125, -1.3941999673843384, -68.91832733154297, -57.839656829833984, 5.9838361740112305, -44.89091491699219, 5.761873722076416, -79.1172103881836, -43.741966247558594, -62.628334045410156, -28.147491455078125, -45.67607498168945, -93.71092987060547, -46.80470275878906, -84.57698059082031, 6.74531364440918, -11.507408142089844, 2.6985368728637695, 6.0587158203125, 8.878066062927246, -45.593788146972656, -59.123085021972656, -77.33924865722656, -28.06256866455078, 11.232996940612793, -48.768028259277344, -209.03053283691406, -22.594568252563477, -124.58631896972656, -66.68367004394531, -3.9580910205841064, -23.838726043701172, 6.110893249511719, -87.86209106445312, -18.604494094848633, 10.883752822875977], "x_weights": [1.911224506296867e-27, 4.965053026920532e-15, 7.006492321624085e-44, 4.774084701889494e-28, 0.0, 8.280282078294265e-35, 0.05435789376497269, 8.1196041687401e-34, 0.0, 8.908226798317464e-33, 2.695360619785948e-35, 0.0009813521755859256, 3.6320360781438854e-13, 0.0001907613914227113, 9.260497717072126e-36, 0.0, 0.019362380728125572, 2.676781719376104e-29, 1.9028412526211902e-11, 7.017892389098815e-37, 1.850829873450607e-23, 4.4639944530329726e-29, 0.0, 0.0007928814156912267, 7.003151267781504e-07, 0.0, 2.510967100045139e-39, 8.005630807878263e-32, 1.4283295117016428e-39, 0.019982345402240753, 8.926776469577033e-16, 0.003171259770169854, 2.2074009979533842e-23, 1.5660402003853298e-23, 1.677914781182536e-41, 3.638787578692516e-33, 0.12010840326547623, 2.5628542362955386e-26, 0.0, 2.187594460258808e-29, 3.0330436513043013e-12, 0.0, 0.00012843012518715113, 9.15673517738469e-05, 7.595054187854749e-27, 1.3274511863994126e-28, 2.6163661535780193e-25, 6.139989246299785e-29, 0.03835887089371681, 1.1254093490453698e-10, 4.572118530892115e-23, 7.926211028814956e-29, 1.509739207155211e-38, 0.14143188297748566, 0.003911309875547886, 7.336854632509553e-18, 3.0489297843948294e-39, 5.817729673044152e-21, 0.024829043075442314, 2.4719858417105e-21, 2.86062835264372e-35, 2.9397485213426026e-20, 0.0, 0.0073370784521102905, 0.0008751690038479865, 1.0478027934202537e-22, 0.038293737918138504, 5.9877916549980726e-36, 1.0159114218269427e-12, 0.0, 0.0, 1.9975067455843986e-26, 1.2027204589453472e-40, 6.445972935894159e-44, 0.00117188086733222, 1.5012025308372681e-19, 0.0, 0.0, 0.0, 3.233326353511111e-14, 2.3071532268659212e-05, 9.349789885042853e-17, 3.772844627880136e-33, 4.2338451928581204e-23, 0.0, 1.0982224935520855e-36, 0.0, 5.060303891679687e-27, 0.03529554605484009, 4.5612265013772796e-42, 0.0, 0.0, 1.3778967799705926e-41, 5.315843282005517e-06, 0.0, 0.0, 1.0564589501882438e-05, 7.377449399949993e-22, 0.091438427567482, 2.5326184310266425e-19, 1.1213084610965233e-25, 5.374249308424134e-19, 3.9626774838236975e-19, 9.375286453428322e-25, 0.0, 6.55107032071852e-42, 5.575927624479024e-24, 0.021111901849508286, 1.5933086921872321e-21, 0.019516250118613243, 0.005180917214602232, 0.0004805093922186643, 2.467562265628942e-10, 5.666310649041717e-38, 0.0, 0.0, 0.29892173409461975, 2.5354674023953943e-40, 1.401298464324817e-45, 1.4053871916058233e-29, 0.0, 3.878565314865831e-28, 6.795945637350087e-07, 7.583622618767549e-11, 0.0035651277285069227, 0.0034973991569131613, 0.0, 0.0455755777657032], "y_weights": [2.911969469927599e-20, 1.8006592270685918e-24, 3.5972186460425364e-18, 1.7877226088369724e-10, 0.0, 1.675910144023525e-24, 0.023677589371800423, 7.630515180362785e-27, 5.9383094195235684e-24, 1.4766038273188177e-20, 1.9906789655358255e-16, 0.05572653189301491, 1.9747303362214387e-21, 6.573661812581122e-05, 8.407790785948902e-43, 0.0, 0.0239107683300972, 0.0, 0.01103290170431137, 0.0, 0.0, 2.8817116635627425e-21, 2.0764184303716758e-14, 0.1098729595541954, 0.0, 6.829294457977422e-17, 0.0, 6.100515506530246e-28, 8.343581414462116e-18, 0.012282483279705048, 1.9311655849410526e-28, 0.07574011385440826, 2.7180319240803934e-23, 8.666592551624264e-25, 0.0, 1.5307850285312125e-38, 0.10382304340600967, 2.0022519357487207e-19, 0.0, 1.5514990056152804e-35, 0.0, 1.6197550003666817e-26, 0.004425197374075651, 0.05914287641644478, 4.1419797279507176e-13, 2.0501933721485014e-36, 1.8038955745813823e-11, 2.834178344081151e-29, 3.174636340327889e-30, 5.797847607753083e-25, 2.178880256556748e-17, 0.0, 1.2582291206368972e-23, 0.0286916084587574, 2.566398279668647e-06, 1.1209788959644398e-26, 0.0, 0.0, 0.019475577399134636, 0.0, 4.9403932746708415e-25, 7.104852824306705e-28, 0.0, 0.01159518864005804, 5.914944631513208e-05, 3.759953851475994e-35, 1.0451484740769956e-05, 1.9063741422775945e-36, 2.357925583525817e-26, 0.0, 3.4291418346432074e-32, 3.578584874140506e-29, 3.6894604071320992e-31, 3.1315013200783397e-17, 0.14552442729473114, 6.698601591476533e-27, 1.7332341074524638e-12, 4.425037825453501e-28, 9.096230130164699e-35, 2.196228012440302e-18, 0.00012756470823660493, 8.914734705261367e-23, 0.0, 1.3307290912387755e-25, 0.0, 1.0357142684865013e-37, 0.0, 3.0141059778342845e-27, 0.0002140455908374861, 0.0, 2.1479287608360333e-36, 0.0, 0.0, 5.633211230815505e-07, 2.6631861613267176e-36, 1.7250645260040355e-31, 0.0009015640243887901, 7.250575886877035e-26, 0.0007221035775728524, 9.910262999397971e-41, 2.2874653902880913e-25, 1.4358559721183583e-33, 1.355029893829374e-18, 3.306601079978455e-26, 0.0, 1.0696088747065901e-26, 4.217908377617699e-43, 0.0019306432222947478, 2.2837327515179418e-11, 3.3744981919880956e-05, 0.0009716646163724363, 0.016290882602334023, 3.5901987324469464e-26, 4.7799259030601144e-32, 5.864644267969008e-40, 1.4751304183150561e-18, 0.1716635674238205, 1.5016321701991727e-27, 0.0, 3.495856909853411e-16, 0.0, 2.488289082091133e-35, 4.337830006306831e-08, 1.0074464290854839e-16, 0.0010237096576020122, 1.5414283107572988e-44, 1.889821815476058e-14, 0.12106074392795563], "size": 2, "data_size": 29, "large": false, "x_coef": [[-0.38876330454413405], [-0.10692692828718577], [-0.30610978203612216], [-1.1768197917369976], [-0.3625722934469978]], "y_coef": [[0.14851034158312243], [-0.3612001444101229], [0.5112900792898682], [1.0480806994373928], [-0.2535932450774864]], "x_kernel_index": 36, "y_kernel_index": 11}, "49": {"id": 49, "members": [33, 31], "x_loglikelihoods": [-94.69440460205078, -37.505287170410156, -151.85357666015625, -31.85442352294922, -184.12335205078125, -149.72946166992188, 7.12096643447876, -73.28749084472656, -114.0585708618164, -47.98820495605469, -47.27728271484375, 9.362295150756836, -32.15598678588867, 18.547801971435547, -113.13818359375, -185.55064392089844, 6.203953266143799, -59.886962890625, 6.298915863037109, -62.95539855957031, -39.14558029174805, -35.52851104736328, -142.47613525390625, 10.007987976074219, 3.0667724609375, -136.17697143554688, -142.82162475585938, -68.12740325927734, -89.03938293457031, 5.589686393737793, -21.875965118408203, 1.296280860900879, -78.64019775390625, -47.14283752441406, -114.08621215820312, -101.22476196289062, 9.747576713562012, -85.32809448242188, -127.60108184814453, -96.21339416503906, -26.76495933532715, -115.5843505859375, -9.088159561157227, 5.718929290771484, -54.99860382080078, -92.4346694946289, -51.49336624145508, -47.746429443359375, 3.5293922424316406, -21.920753479003906, -46.63471221923828, -40.43315887451172, -53.25031661987305, 8.803568840026855, 9.542182922363281, -60.277687072753906, -124.26679992675781, -37.760223388671875, 10.187808990478516, -40.913734436035156, -58.882713317871094, -74.09098815917969, -139.9315185546875, 13.450206756591797, 2.2585742473602295, -65.36087799072266, 4.931317329406738, -89.97792053222656, -28.633773803710938, -113.80403137207031, -133.32470703125, -92.75433349609375, -125.95039367675781, -100.15473937988281, 8.96247673034668, -30.96969223022461, -135.41860961914062, -91.27843475341797, -110.6642074584961, -38.16713333129883, 0.8748846054077148, -27.917312622070312, -73.37709045410156, -47.38389587402344, -97.0324935913086, -133.8336639404297, -183.97894287109375, -79.33345794677734, 15.77205753326416, -58.43080139160156, -125.47249603271484, -143.32534790039062, -99.70697021484375, 0.2977626323699951, -245.77896118164062, -247.63571166992188, 19.666378021240234, -69.64437866210938, 7.457299709320068, -55.89977264404297, -54.956764221191406, -59.76593017578125, -34.262237548828125, -49.64061737060547, -152.03497314453125, -99.51813507080078, -37.709564208984375, 16.61255645751953, -37.70022201538086, 11.871133804321289, 4.299826622009277, 9.692975997924805, -14.950233459472656, -133.81698608398438, -95.4365234375, -115.63250732421875, 7.220157623291016, -92.80561065673828, -125.86563110351562, -92.25093078613281, -165.59584045410156, -46.7574462890625, -7.188832759857178, -9.774944305419922, 0.7656702995300293, 4.148010730743408, -146.7351531982422, 9.759968757629395], "y_loglikelihoods": [-16.362966537475586, -34.142425537109375, -20.08043098449707, -4.663132667541504, -66.22053527832031, -20.159746170043945, 12.114580154418945, -42.76976013183594, -48.846435546875, -18.65200424194336, -15.540719032287598, 10.02177619934082, -21.675527572631836, 13.89427375793457, -59.411277770996094, -77.24232482910156, 12.551319122314453, -75.68160247802734, 6.211315155029297, -142.29969787597656, -121.12748718261719, -23.98257064819336, -20.35717010498047, 10.752753257751465, -85.17518615722656, -35.64958190917969, -153.73471069335938, -57.0482063293457, -41.205772399902344, 14.553775787353516, -24.013803482055664, 12.811975479125977, -33.371925354003906, -53.30987548828125, -65.03701782226562, -60.72751998901367, 10.215662002563477, -18.88831329345703, -106.16606903076172, -55.33598327636719, -64.9041748046875, -51.224151611328125, 17.277999877929688, 10.31139087677002, -16.012659072875977, -58.83953857421875, -18.784061431884766, -42.23251724243164, -29.42086410522461, -25.90729522705078, -35.142539978027344, -70.95573425292969, -24.30503273010254, 12.839662551879883, 7.819575309753418, -28.68392562866211, -104.93033599853516, -664.5953369140625, 13.143882751464844, -74.31446075439453, -18.154848098754883, -28.42576026916504, -126.38257598876953, 15.38529109954834, 4.2453718185424805, -50.26365280151367, 13.80587100982666, -35.92827606201172, -29.281631469726562, -66.61314392089844, -81.60697937011719, -34.733707427978516, -32.045921325683594, -26.071319580078125, 7.63116979598999, -57.11447525024414, -18.83771514892578, -31.818695068359375, -45.038570404052734, -19.564239501953125, 3.6193437576293945, -53.001529693603516, -150.80673217773438, -63.89440155029297, -80.67523193359375, -50.70580291748047, -88.3614501953125, -30.71013069152832, 18.20938491821289, -73.68215942382812, -47.175113677978516, -120.98101806640625, -113.68272399902344, 1.9652585983276367, -36.086761474609375, -71.1077880859375, 11.78563117980957, -28.536083221435547, 17.29121208190918, -54.48513412475586, -57.10723876953125, -53.05770492553711, -33.29755401611328, -27.782196044921875, -61.184696197509766, -60.90557098388672, -44.620384216308594, 11.434511184692383, -18.11917495727539, 1.5830144882202148, 12.841073989868164, 16.524471282958984, -37.09648132324219, -45.61449432373047, -39.21767044067383, -42.651580810546875, 9.514071464538574, -62.78157043457031, -187.1995391845703, -19.811405181884766, -84.29644775390625, -29.85577392578125, 15.652767181396484, -9.967580795288086, 12.781447410583496, -25.09821319580078, -7.174731254577637, 11.63364315032959], "x_weights": [0.0, 1.060305970555299e-25, 0.0, 3.016964137682292e-23, 0.0, 0.0, 2.5489816835033707e-06, 3.057913508849616e-41, 0.0, 2.9699985724938038e-30, 6.046524768878334e-30, 2.397527714492753e-05, 2.2315308330944655e-23, 0.2338721752166748, 0.0, 0.0, 1.0188563237534254e-06, 2.0192557871549085e-35, 1.1203529766135034e-06, 9.388293446525497e-37, 2.0561793539309802e-26, 7.654805964082649e-25, 0.0, 4.572823672788218e-05, 4.422347643640023e-08, 0.0, 0.0, 5.3261925304552686e-39, 0.0, 5.512396228368743e-07, 6.503686369694983e-19, 7.52900675138335e-09, 1.4433374182545616e-43, 6.916631329729875e-30, 0.0, 0.0, 3.524433122947812e-05, 0.0, 0.0, 0.0, 4.89662851804941e-21, 0.0, 2.3271960530521496e-13, 6.272923087635718e-07, 2.680291321741946e-33, 0.0, 8.922482312183473e-32, 3.782317642979825e-30, 7.023702153219347e-08, 6.21882346130762e-19, 1.1496720689347234e-29, 5.673783068002986e-27, 1.5397558055711287e-32, 1.371234975522384e-05, 2.8700396796921268e-05, 1.366171674030311e-35, 0.0, 8.217009998160879e-26, 5.473684359458275e-05, 3.50882249154395e-27, 5.512323489893947e-35, 1.3692087294917788e-41, 0.0, 0.0014292922569438815, 1.9708634724224794e-08, 8.470391833024764e-38, 2.8537399998640467e-07, 0.0, 7.555801636725091e-22, 0.0, 0.0, 0.0, 0.0, 0.0, 1.6074025552370586e-05, 7.308092622945217e-23, 0.0, 0.0, 0.0, 5.470097718568163e-26, 4.940017284127407e-09, 1.5468054301768749e-21, 2.7957305661744425e-41, 5.4350600671286156e-30, 0.0, 0.0, 0.0, 7.286752014489049e-44, 0.014570957981050014, 8.661522791297891e-35, 0.0, 0.0, 0.0, 2.7738751295913744e-09, 0.0, 0.0, 0.7157641649246216, 1.168422277732533e-39, 3.5680820928973844e-06, 1.0884523002217588e-33, 2.7948127568448535e-33, 2.2790568273632754e-35, 2.7156252672307452e-24, 5.690179298799442e-31, 0.0, 0.0, 8.644001917229546e-26, 0.03376852348446846, 8.725134412438781e-26, 0.00029467165586538613, 1.517614549584323e-07, 3.337155794724822e-05, 6.621655183567667e-16, 0.0, 0.0, 0.0, 2.8147842385806143e-06, 0.0, 0.0, 0.0, 0.0, 1.01687596430877e-29, 1.5548907647544574e-12, 1.1710248114076005e-13, 4.428912792064921e-09, 1.3038525992215e-07, 0.0, 3.56837990693748e-05], "y_weights": [4.388725721559398e-16, 8.333293099926823e-24, 1.0662584743296366e-17, 5.290677965175128e-11, 9.76050455095742e-38, 9.849548919217995e-18, 0.0010232434142380953, 1.492838566666095e-27, 3.427266815359154e-30, 4.448577665182428e-17, 9.987011844819977e-16, 0.0001262076839338988, 2.1633287647323835e-18, 0.006065828260034323, 8.844879247039532e-35, 1.5946776524016418e-42, 0.0015836249804124236, 7.595037676640509e-42, 2.793981821014313e-06, 0.0, 0.0, 2.1537018558177324e-19, 8.084944370793323e-18, 0.0002621471357997507, 0.0, 1.846149877244293e-24, 0.0, 9.39642154082846e-34, 7.132538259850266e-27, 0.011730276048183441, 2.087471442875172e-19, 0.0020551993511617184, 1.8006969740629066e-23, 3.9491223484766217e-32, 3.187626214602184e-37, 2.3716841176897038e-35, 0.00015321078535635024, 3.5123150908908073e-17, 0.0, 5.206826880370383e-33, 3.640494489186364e-37, 3.179208166996655e-31, 0.17882312834262848, 0.00016860243340488523, 6.22978968420145e-16, 1.566745477290245e-34, 3.898247786205998e-17, 2.554668263659915e-27, 9.36191647593062e-22, 3.1425945332907723e-20, 3.0652963437246898e-24, 8.570411472733797e-40, 1.5600597918416545e-19, 0.002112897112965584, 1.3953465895610861e-05, 1.9561991478989067e-21, 0.0, 0.0, 0.002864174311980605, 2.9807019634653184e-41, 7.313622603261511e-17, 2.532398299201714e-21, 0.0, 0.026942053809762, 3.912237502845528e-07, 8.307237385170719e-31, 0.005552611313760281, 1.3971134866982571e-24, 1.0760507033676421e-21, 6.591200706139854e-38, 2.1019476964872256e-44, 4.6134546056674245e-24, 6.781361361287009e-23, 2.6671870165101247e-20, 1.1557365724002011e-05, 8.793914564474804e-34, 3.694604522073813e-17, 8.511380027002277e-23, 1.544120231072921e-28, 1.7866621466390117e-17, 2.091918247515423e-07, 5.37541282715066e-32, 0.0, 9.993002386964337e-37, 5.184804318001823e-44, 5.3386519449657e-31, 0.0, 2.578947857880877e-22, 0.45385703444480896, 5.609537882538675e-41, 1.8230229935603187e-29, 0.0, 0.0, 4.001152120736151e-08, 1.1923460019092576e-24, 7.361483261591491e-40, 0.0007364076445810497, 2.267880641150174e-21, 0.18120145797729492, 1.2192438995711914e-32, 8.857816457766419e-34, 5.081771987326551e-32, 1.939722980099799e-23, 4.819802503071414e-21, 1.5014393331665966e-35, 1.984854210294125e-35, 2.3458327464422073e-28, 0.0005183567991480231, 7.579245518075559e-17, 2.730100057135587e-08, 0.002115881070494652, 0.08417253196239471, 4.343967098669443e-25, 8.68081445515018e-29, 5.207938285645426e-26, 1.68010906111051e-27, 7.596131035825238e-05, 3.0408551551213707e-36, 0.0, 1.3954034007957145e-17, 1.401298464324817e-45, 6.0601844692984705e-22, 0.035204172134399414, 2.6291683131833554e-13, 0.0019934058655053377, 7.057780282350047e-20, 4.2927649282487046e-12, 0.0006325730937533081], "size": 2, "data_size": 31, "large": false, "x_coef": [[-0.26081427609312186], [-0.281606256683839], [-0.20895810736702713], [-1.1885630294218752], [-0.24533596828653498]], "y_coef": [[-0.0610568142662206], [-0.22847736471316288], [0.47987642173345085], [1.1749838538277664], [-0.131527679026121]], "x_kernel_index": 107, "y_kernel_index": 42}, "2": {"id": 2, "members": [20], "x_loglikelihoods": [-5.481637954711914, 0.12798883020877838, -9.955841064453125, -1.657748818397522, -32.94646453857422, -8.86916732788086, 5.3969221115112305, 0.7121921181678772, 1.8960882425308228, -5.913125038146973, -3.769718885421753, 4.063146591186523, -3.4439592361450195, 6.816986560821533, -7.558524131774902, -28.329078674316406, 5.666540145874023, -6.068941593170166, 7.347846508026123, -9.07820987701416, -3.1328842639923096, -6.2288498878479, -3.9355969429016113, 6.964956760406494, 1.6705130338668823, 3.8113343715667725, -11.454928398132324, 1.6858396530151367, 1.669629693031311, 6.520007610321045, -1.5830967426300049, 4.771665573120117, -8.726706504821777, 2.603569746017456, -10.01581859588623, -3.343093156814575, 6.350977897644043, -2.4830849170684814, -19.561119079589844, -6.002089500427246, -1.671295166015625, -5.577261447906494, 5.102426528930664, 3.2762510776519775, 2.642936944961548, -0.8535621166229248, -0.8385025858879089, -6.135569095611572, 5.235312461853027, -0.41630011796951294, 1.8179594278335571, -6.635770320892334, -6.664005756378174, 6.015104293823242, 6.782116889953613, -14.107400894165039, -9.730916023254395, -4.981811046600342, 6.880601406097412, -1.0558695793151855, -8.766613006591797, -6.959481239318848, -17.411306381225586, 5.794068813323975, 7.165441036224365, -0.21939899027347565, 6.937629222869873, -6.925066947937012, -1.0297141075134277, -22.91522979736328, -2.6674013137817383, -4.79543924331665, -8.227542877197266, -9.193875312805176, 4.744955539703369, -0.14631935954093933, 3.7008557319641113, -17.163480758666992, -18.7242488861084, -2.7109382152557373, 5.203812122344971, 2.1554248332977295, -7.849267959594727, 3.2860891819000244, -15.239481925964355, -7.117148399353027, -16.672605514526367, -7.079222202301025, 5.823490142822266, -10.030852317810059, -21.526643753051758, -29.030818939208984, -11.881880760192871, 0.6836726069450378, -24.743757247924805, 1.657433271408081, 4.918510913848877, -1.987809181213379, 7.196727275848389, -0.4737755358219147, -3.6828715801239014, 0.3214115798473358, 0.6779312491416931, -3.4537274837493896, -26.381074905395508, 1.7324888706207275, -4.343003273010254, 6.240886211395264, 1.5540939569473267, 6.117523193359375, 5.039876461029053, 4.704614162445068, -0.40907061100006104, -5.380867958068848, -15.396682739257812, 5.388184547424316, 6.301694393157959, 4.3319830894470215, -14.632102966308594, -4.4975199699401855, -13.098129272460938, -6.660305500030518, 2.562758445739746, -0.4940980076789856, 5.169171333312988, 5.573365211486816, -25.742589950561523, 5.705925941467285], "y_loglikelihoods": [-15.184537887573242, -22.48590087890625, -13.484965324401855, -12.513015747070312, -67.1012954711914, -28.64932632446289, -11.118058204650879, 2.23610258102417, 2.4499130249023438, -22.007402420043945, -13.23757266998291, -29.55091094970703, -19.10386085510254, -25.808320999145508, -29.28593635559082, -34.6800537109375, -15.770977973937988, -41.02082824707031, -21.053632736206055, -111.94622802734375, -59.57037353515625, -25.242094039916992, 0.17897458374500275, -21.12496566772461, -23.570222854614258, 0.3176717162132263, -75.14019012451172, 2.6038920879364014, 0.938484251499176, -16.51317024230957, -15.199078559875488, -14.085094451904297, -14.355064392089844, 1.7563773393630981, -33.28965377807617, -31.802175521850586, -14.079381942749023, -15.11994743347168, -98.89643859863281, -34.64928436279297, -40.49353790283203, 0.9022118449211121, -28.567344665527344, -12.452863693237305, -0.5193799734115601, -21.001169204711914, 0.3883328139781952, -24.72292709350586, -73.63334655761719, -12.430224418640137, 1.9123438596725464, -65.1642074584961, -24.511999130249023, -12.252432823181152, -68.34529876708984, -25.577716827392578, -49.048587799072266, -20.550813674926758, -14.385162353515625, -37.566558837890625, -26.919965744018555, -20.00200843811035, -56.060340881347656, -28.336606979370117, -5.256346702575684, -28.582473754882812, -12.560318946838379, -29.15192222595215, -22.646636962890625, -61.78349685668945, 1.6638661623001099, -22.9444522857666, -18.344247817993164, 2.049492120742798, -15.722078323364258, 3.232304573059082, 1.44321608543396, -31.511322021484375, -46.45124435424805, -11.053082466125488, -44.73072052001953, 0.08433175086975098, -78.519287109375, -7.649935722351074, -72.08369445800781, -33.522274017333984, -38.65298843383789, -21.547348022460938, -26.739330291748047, -67.89446258544922, -40.798919677734375, -95.91425323486328, -56.357913970947266, -5.681821823120117, -19.843914031982422, 0.45761844515800476, -31.229415893554688, -22.640331268310547, -16.278223037719727, -34.73549270629883, -1.3788576126098633, -26.505338668823242, 1.3749265670776367, -23.40605354309082, -65.27670288085938, 1.0205904245376587, -48.232059478759766, -9.633906364440918, 0.404471218585968, -61.64469909667969, -13.377924919128418, -25.201396942138672, -17.491092681884766, -26.145235061645508, -42.25144958496094, 1.0741318464279175, -15.207602500915527, 3.0945427417755127, -64.63188934326172, -14.796843528747559, -39.75954818725586, -33.51826095581055, -19.676624298095703, -11.99190616607666, -38.900611877441406, -32.182437896728516, -12.506965637207031, -24.986299514770508], "x_weights": [2.618048711156007e-07, 7.148383156163618e-05, 2.9843927329409325e-09, 1.1985934179392643e-05, 3.0913990973336437e-19, 8.846925858563282e-09, 0.013882782310247421, 0.0001282106532016769, 0.00041887423139996827, 1.7005353925014788e-07, 1.450290596949344e-06, 0.0036578441504389048, 2.0087727534701116e-06, 0.0574384443461895, 3.2809374772568844e-08, 3.1293943256220446e-17, 0.01817900687456131, 1.4551750382452155e-07, 0.09766798466444016, 7.178054595158301e-09, 2.741754769886029e-06, 1.240131979329817e-07, 1.2286127457628027e-06, 0.06659863889217377, 0.0003342856070958078, 0.002843573922291398, 6.665167306962871e-10, 0.0003394485102035105, 0.0003339903778396547, 0.04268019273877144, 1.2914950275444426e-05, 0.007429011631757021, 1.0201470779236388e-08, 0.000849843374453485, 2.8106610372446994e-09, 2.221958766313037e-06, 0.03604273125529289, 5.250889444141649e-06, 2.0106511670458377e-13, 1.555782631612601e-07, 1.1824657121906057e-05, 2.3792998149474442e-07, 0.010341384448111057, 0.0016652555204927921, 0.0008839669753797352, 2.6787107344716787e-05, 2.719356052693911e-05, 1.3613795601941092e-07, 0.01181109994649887, 4.14787937188521e-05, 0.0003873938403557986, 8.255523198386072e-08, 8.025684650192488e-08, 0.02576022781431675, 0.05547010153532028, 4.697388311658557e-11, 3.737146592186491e-09, 4.315687647249433e-07, 0.06121110916137695, 2.1880874555790797e-05, 9.802372247236235e-09, 5.972538730247834e-08, 1.7257922521607405e-12, 0.020651670172810555, 0.08138316124677658, 5.050557592767291e-05, 0.06480329483747482, 6.181657141723917e-08, 2.246073017886374e-05, 7.025301852439008e-15, 4.367023848317331e-06, 5.199843258196779e-07, 1.6805303815203843e-08, 6.394018647881694e-09, 0.007233209442347288, 5.433470505522564e-05, 0.002546151401475072, 2.211148148259512e-12, 4.64285240028145e-13, 4.180975793133257e-06, 0.011444845236837864, 0.0005428902804851532, 2.453177927463912e-08, 0.0016817193245515227, 1.514259551083086e-11, 5.101347966274261e-08, 3.6124536521853212e-12, 5.298536009945565e-08, 0.021268295124173164, 2.768722806578694e-09, 2.8165678475503345e-14, 1.551309079160729e-17, 4.3489858936318626e-10, 0.00012460578000172973, 1.1286165568330205e-15, 0.0003299415693618357, 0.008604095317423344, 8.616456398158334e-06, 0.0839695855975151, 3.916201603715308e-05, 1.581875608280825e-06, 8.673818228999153e-05, 0.0001238924596691504, 1.9892452201020205e-06, 2.1951712478487348e-16, 0.0003556587325874716, 8.174870345101226e-07, 0.03228535130620003, 0.0002975482784677297, 0.028538398444652557, 0.009714346379041672, 0.006947219371795654, 4.17797637055628e-05, 2.8956227993148786e-07, 1.2939827161162487e-11, 0.013762008398771286, 0.03430948033928871, 0.004786074161529541, 2.7795932222574038e-11, 7.004463782323e-07, 1.2887761691171562e-10, 8.055436495624235e-08, 0.0008158585987985134, 3.837416443275288e-05, 0.011055175215005875, 0.01656169630587101, 4.156798306782718e-16, 0.018909286707639694], "y_weights": [1.8777162047456386e-09, 1.2667447386177644e-12, 1.0274137096644154e-08, 2.715549207721324e-08, 5.326816715193316e-32, 2.6665359509217904e-15, 1.0956706830711482e-07, 0.0690745934844017, 0.08554115146398544, 2.0440782313307926e-12, 1.3157900546900692e-08, 1.0824160976371003e-15, 3.728117467516334e-11, 4.568561986508478e-14, 1.410816065243513e-15, 6.409672433392233e-18, 1.0445821985172188e-09, 1.1299843737241984e-20, 5.3053542461989345e-12, 0.0, 9.93361322652774e-29, 8.048015785700954e-14, 0.008829153142869473, 4.940100412076376e-12, 4.2832480184190613e-13, 0.010142720304429531, 1.7187793707685398e-35, 0.09978087991476059, 0.018869910389184952, 4.972928735469395e-10, 1.8506121080008597e-09, 5.637842637185031e-09, 4.303942979788644e-09, 0.04275396093726158, 2.5744165187836794e-17, 1.139414162267704e-16, 5.6701310313655995e-09, 2.003000876271699e-09, 1.401298464324817e-45, 6.6099589158806165e-18, 1.9145718894173508e-20, 0.018197720870375633, 2.89435372065707e-15, 2.883907868067581e-08, 0.004391646943986416, 5.591123050652236e-12, 0.010885344818234444, 1.3525736520386689e-13, 7.75593296368394e-35, 2.949941979579762e-08, 0.049970272928476334, 3.6960208411040384e-31, 1.670186477184879e-13, 3.523930658388963e-08, 1.5353380039271508e-32, 5.753478748114771e-14, 3.686894873996464e-24, 8.771744615387878e-12, 4.176332613070599e-09, 3.5747243481635577e-19, 1.5031363672745983e-14, 1.5185498691838717e-11, 3.3227302810395114e-27, 3.645515032018156e-15, 3.8493639294756576e-05, 2.8508943659575833e-15, 2.59008583469722e-08, 1.613139625574096e-15, 1.0786543099688961e-12, 1.0863257504197583e-29, 0.03897617757320404, 8.00832924280348e-13, 7.968661147605971e-11, 0.05731581896543503, 1.0969303243513195e-09, 0.18705244362354279, 0.03125878795981407, 1.5240474561022474e-16, 4.950769241043304e-23, 1.1692264934026753e-07, 2.766219650248e-22, 0.008031859993934631, 5.857293953056177e-37, 3.5145237688993802e-06, 3.6529132096163094e-34, 2.0401079702195442e-17, 1.2061800350701639e-19, 3.238153451975978e-12, 1.800728348985009e-14, 2.409903449950231e-32, 1.410737147663582e-20, 1.6815581571897805e-44, 2.4675199336763927e-27, 2.515402593417093e-05, 1.7786454600821067e-11, 0.011666283011436462, 2.0203601911476983e-16, 1.0854775195009991e-12, 6.289969101125337e-10, 6.063996550538467e-18, 0.001859349780716002, 2.2754569428229225e-14, 0.029195398092269897, 5.047438703977003e-13, 3.3027695503867294e-31, 0.020484628155827522, 8.342082588132796e-24, 4.83324697597709e-07, 0.01106244046241045, 1.2480656480759521e-29, 1.1434899249707087e-08, 8.382318005938777e-14, 1.870280458282636e-10, 3.2618171537249566e-14, 3.300809102481913e-21, 0.021611303091049194, 1.8349045616261606e-09, 0.16297994554042816, 6.293862416025813e-31, 2.766966211709132e-09, 3.988773804303524e-20, 2.0483114512264776e-17, 2.1025311700006988e-11, 4.572699907612332e-08, 9.416091595784336e-20, 7.789984006629979e-17, 2.732028292484756e-08, 1.0393909447318703e-13], "size": 1, "data_size": 10, "large": false, "x_coef": [[1.0], [1.0], [1.0], [1.0], [1.0]], "y_coef": [[1.0], [1.0], [1.0], [1.0], [1.0]], "x_kernel_index": 0, "y_kernel_index": 0}, "3": {"id": 3, "members": [25], "x_loglikelihoods": [0.9685370326042175, 1.4941411018371582, -0.338051974773407, -3.4864113330841064, -14.53963565826416, -1.2885825634002686, -13.896905899047852, -1.9976179599761963, -3.6239821910858154, -3.4737484455108643, -3.8791346549987793, -5.078835487365723, 1.1534528732299805, -25.791873931884766, 0.15901486575603485, -17.890647888183594, -10.153907775878906, -9.835938453674316, -30.672847747802734, -3.012938976287842, -7.775580406188965, -2.642056941986084, -5.632033348083496, -24.955806732177734, -5.803650379180908, -6.8821611404418945, 0.17399199306964874, -1.3102836608886719, -3.5688750743865967, -22.468154907226562, -4.308598518371582, -9.089861869812012, 1.4346083402633667, -1.5731123685836792, -13.715885162353516, 0.506729006767273, -16.890920639038086, 0.4551253914833069, -12.897133827209473, 1.4710752964019775, 1.0477794408798218, -4.283042907714844, -39.23152160644531, -4.704029560089111, -2.4722893238067627, 0.8450304865837097, -2.034647226333618, -5.461031436920166, -13.928129196166992, 0.69521564245224, -0.20010577142238617, -2.7028675079345703, -5.018685817718506, -14.054067611694336, -32.381954193115234, 1.203283667564392, -9.624350547790527, -0.5784249305725098, -16.171024322509766, -7.279123783111572, -2.7276253700256348, 1.0529006719589233, -18.26561737060547, -8.461462020874023, -27.18695640563965, 0.12891501188278198, -22.427907943725586, -5.615443706512451, 1.5004870891571045, -12.080876350402832, -4.425440788269043, 0.7115662693977356, -17.217191696166992, -4.141353130340576, -9.754955291748047, -1.3932440280914307, -5.106847286224365, -5.613643169403076, -9.777731895446777, 1.2168265581130981, -6.184195041656494, -0.3059067726135254, -12.781867027282715, -0.38254716992378235, -7.2391839027404785, -0.25193265080451965, -24.917173385620117, -4.367053031921387, -11.618204116821289, -6.529173374176025, -7.702697277069092, -11.976078987121582, -14.226374626159668, -3.745115041732788, -36.61381912231445, -6.316391944885254, -33.3186149597168, 1.3875722885131836, -27.058895111083984, 1.5208053588867188, -1.1645293235778809, 0.889785647392273, -1.034034013748169, -9.124923706054688, -15.733421325683594, -1.7058131694793701, -1.9531986713409424, -13.335312843322754, -1.1760703325271606, -18.773874282836914, -8.208260536193848, -8.710531234741211, 0.48850175738334656, -0.12855802476406097, -7.5350728034973145, -4.943966388702393, -18.962928771972656, -2.699164390563965, -15.911940574645996, 0.7956843376159668, -20.048601150512695, -2.129007577896118, -8.86998462677002, -0.10683146119117737, -15.776074409484863, -15.107266426086426, -12.640237808227539, -25.754108428955078], "y_loglikelihoods": [-11.822303771972656, -29.137176513671875, -15.228696823120117, -19.584678649902344, -73.00778198242188, -27.86770248413086, -18.966354370117188, -5.589371681213379, -6.306364059448242, -28.394145965576172, -20.349687576293945, -36.34151840209961, -19.893888473510742, -43.495201110839844, -25.009803771972656, -77.4130630493164, -24.420883178710938, -90.48394775390625, -21.483211517333984, -132.15916442871094, -124.8477783203125, -34.98804473876953, -1.6599189043045044, -24.9755802154541, -33.364479064941406, -5.2437005043029785, -70.74996185302734, -1.3943219184875488, -7.285409927368164, -26.78096580505371, -39.82528305053711, -22.001251220703125, -14.005834579467773, -3.786374807357788, -75.60155487060547, -30.98727798461914, -17.532583236694336, -16.421142578125, -108.54069519042969, -38.445159912109375, -28.201961517333984, -0.855880618095398, -43.68680953979492, -19.464797973632812, -6.014326095581055, -18.97086524963379, -2.979006290435791, -56.58966064453125, -85.01016998291016, -6.0699052810668945, -4.5526275634765625, -85.34143829345703, -34.48883819580078, -19.512664794921875, -93.1576919555664, -22.511180877685547, -105.03036499023438, -50.954654693603516, -19.950178146362305, -83.41261291503906, -30.012807846069336, -14.21583366394043, -121.49637603759766, -45.36279296875, -7.655635356903076, -26.995264053344727, -26.761146545410156, -70.25750732421875, -19.1561222076416, -82.67300415039062, -2.6334550380706787, -19.053707122802734, -43.84189987182617, 1.2873473167419434, -17.219524383544922, -0.2389625906944275, -2.648463726043701, -39.182220458984375, -59.482357025146484, -9.064088821411133, -67.87256622314453, -14.187576293945312, -173.9471435546875, -27.774446487426758, -92.43977355957031, -30.272920608520508, -90.05113983154297, -50.97172546386719, -53.081443786621094, -84.95427703857422, -54.72489929199219, -140.92547607421875, -128.32920837402344, -9.00804615020752, -51.3912353515625, -9.967134475708008, -42.52585220336914, -21.145906448364258, -29.189979553222656, -26.47184181213379, -3.9524357318878174, -26.315534591674805, 0.5416843891143799, -57.25849151611328, -75.69097137451172, -10.006021499633789, -59.60528564453125, -16.3336238861084, -1.9003812074661255, -74.83003234863281, -21.615955352783203, -36.94601058959961, -15.930459022521973, -25.76375961303711, -38.63410186767578, -10.373924255371094, -25.177364349365234, -1.6533737182617188, -138.08412170410156, -21.626176834106445, -86.51997375488281, -37.26480484008789, -47.82783508300781, -11.904598236083984, -49.20663833618164, -48.94391632080078, -12.563538551330566, -35.71426010131836], "x_weights": [0.0360165499150753, 0.06092129275202751, 0.009751192294061184, 0.0004185456200502813, 6.628094961769193e-09, 0.003769185859709978, 1.2604404631133548e-08, 0.0018548868829384446, 0.0003647508565336466, 0.0004238792462274432, 0.0002826084091793746, 8.5145489720162e-05, 0.04333213344216347, 8.602077654785295e-14, 0.01602991111576557, 2.3230693757536613e-10, 5.32213277892879e-07, 7.314389449675218e-07, 6.528648848376777e-16, 0.0006719997618347406, 5.74090336158406e-06, 0.0009737357613630593, 4.896782775176689e-05, 1.9847358890927314e-13, 4.1245686588808894e-05, 1.402772522851592e-05, 0.0162718016654253, 0.0036882718559354544, 0.0003854153328575194, 2.388230238570266e-12, 0.00018393792561255395, 1.5423927379742963e-06, 0.05740032717585564, 0.002835814142599702, 1.5105623418776304e-08, 0.02269558794796467, 6.313036204907974e-10, 0.021554121747612953, 3.42545156684082e-08, 0.059532176703214645, 0.038986723870038986, 0.0001886991667561233, 1.252675211066916e-19, 0.00012386191519908607, 0.0011539056431502104, 0.031831998378038406, 0.001787457731552422, 5.809999129269272e-05, 1.221693324282569e-08, 0.027403132990002632, 0.011193529702723026, 0.0009162868373095989, 9.042411693371832e-05, 1.077129319071446e-08, 1.1818648066061292e-16, 0.04554611071944237, 9.037941595124721e-07, 0.007667699828743935, 1.296836527053813e-09, 9.431673788640182e-06, 0.0008938800892792642, 0.03918689116835594, 1.596669463310718e-10, 2.891382791858632e-06, 2.1317029155862484e-14, 0.01555460412055254, 2.486309552338084e-12, 4.9786962335929275e-05, 0.061309125274419785, 7.748434427412576e-08, 0.00016365425835829228, 0.02785487286746502, 4.5555470506997153e-10, 0.000217422770219855, 7.931376444503258e-07, 0.003394639352336526, 8.279350731754676e-05, 4.9876689445227385e-05, 7.752768738100713e-07, 0.04616713896393776, 2.8190974262543023e-05, 0.010069740004837513, 3.8439488037056435e-08, 0.009326823987066746, 9.815998055273667e-06, 0.01062818057835102, 2.0629132354166996e-13, 0.00017349414702039212, 1.2306936980621686e-07, 1.9965864339610562e-05, 6.174939699121751e-06, 8.60452402662304e-08, 9.066420503245354e-09, 0.0003231386945117265, 1.716691662406187e-18, 2.4700042558833957e-05, 4.632135660552845e-17, 0.05476295202970505, 2.422942150192252e-14, 0.0625675618648529, 0.0042670052498579025, 0.03328901156783104, 0.004861794412136078, 1.4892509625497041e-06, 2.0087866925422304e-09, 0.002483399584889412, 0.0019391367677599192, 2.210136429425802e-08, 0.004218044225126505, 9.604657347228596e-11, 3.724514044733951e-06, 2.2539081783179427e-06, 0.02228565886616707, 0.0120237460359931, 7.301826826733304e-06, 9.743938426254317e-05, 7.95017246479901e-11, 0.0009196862229146063, 1.6803644031782028e-09, 0.030299341306090355, 2.6845718356649506e-11, 0.0016265057493001223, 1.921704097185284e-06, 0.01228784117847681, 1.92490889894259e-09, 3.757247846181144e-09, 4.428802569123036e-08, 8.933150985428184e-14], "y_weights": [9.661085869083763e-07, 2.9192567010645834e-14, 3.203673770713067e-08, 4.1102607428733506e-10, 2.5853018273039047e-33, 1.0389576704386908e-13, 7.62788610053633e-10, 0.000491987681016326, 0.00024019743432290852, 6.137144015639501e-14, 1.912627001221523e-10, 2.1700371995001885e-17, 3.0170413389818407e-10, 1.69692354503103e-20, 1.810370538375683e-12, 3.157344535941307e-35, 3.262364337008883e-12, 6.64818030429623e-41, 6.156686965796965e-11, 0.0, 0.0, 8.399885448089007e-17, 0.025031905621290207, 1.8734005232529105e-12, 4.2596995749843145e-16, 0.0006951479590497911, 2.472123100623224e-32, 0.032646842300891876, 9.023477468872443e-05, 3.0800768836478087e-13, 6.660201866287087e-19, 3.667459044787158e-11, 1.0882548195922936e-07, 0.002985285595059395, 1.932190829337807e-34, 4.589699693707209e-15, 3.1995073257462536e-09, 9.72244773578268e-09, 0.0, 2.647690783062556e-18, 7.437568627383789e-14, 0.05593494325876236, 1.4010311848392952e-20, 4.6337533810003606e-10, 0.0003216612967662513, 7.593555784168871e-10, 0.006693009752780199, 3.4898821260988685e-26, 1.5846756043528306e-38, 0.000304271379718557, 0.0013874152209609747, 1.137816938362754e-38, 1.3838085785389872e-16, 4.4171752366928274e-10, 4.586449873735126e-42, 2.202447772770011e-11, 0.0, 9.773783878435694e-24, 2.8519045458530456e-10, 7.829798329407617e-38, 1.216159233052589e-14, 8.821231034517041e-08, 0.0, 2.6216665565429927e-21, 6.231424049474299e-05, 2.4859538798154e-13, 3.1417308533378263e-13, 4.0452034363561953e-32, 6.309414657401646e-10, 1.6404335224820386e-37, 0.009455673396587372, 6.989842593618789e-10, 1.1997559274820526e-20, 0.4769527018070221, 4.375653173127603e-09, 0.10365907102823257, 0.009314816445112228, 1.2669688662024382e-18, 1.93432160634092e-27, 1.5237143088597804e-05, 4.39245281359899e-31, 9.074049955870578e-08, 0.0, 1.1405081794344657e-13, 9.404113994083847e-42, 9.376157517765066e-15, 1.0248816708378847e-40, 9.608354224584512e-24, 1.165225457025825e-24, 1.675769813623194e-38, 2.252507758830321e-25, 0.0, 0.0, 1.611546758795157e-05, 6.316233352122777e-24, 6.176120223244652e-06, 4.473476763217736e-20, 8.626542535861148e-11, 2.7691099467683916e-14, 4.195777568698905e-13, 0.0025285198353230953, 4.905641322848486e-13, 0.2262757420539856, 1.787891611925203e-26, 1.7669199970320396e-34, 5.94055927649606e-06, 1.710572458005855e-27, 1.0611689305051186e-08, 0.019681695848703384, 4.1794389402799495e-34, 5.391345356264843e-11, 1.1856038449546037e-17, 1.5880976533821922e-08, 8.517823490809817e-13, 2.191850159048365e-18, 4.111963335162727e-06, 1.5310763724560306e-12, 0.02519627846777439, 0.0, 5.33651837997251e-11, 3.501393644242205e-39, 8.619638054650663e-18, 2.2285542715724494e-22, 8.897867473933729e-07, 5.613279241708153e-23, 7.299873323401538e-23, 4.6037553147471044e-07, 4.063329213669941e-17], "size": 1, "data_size": 7, "large": false, "x_coef": [[1.0], [1.0], [1.0], [1.0], [1.0]], "y_coef": [[1.0], [1.0], [1.0], [1.0], [1.0]], "x_kernel_index": 0, "y_kernel_index": 0}, "33": {"id": 33, "members": [34], "x_loglikelihoods": [-76.6420669555664, -33.89228439331055, -129.30995178222656, -24.469867706298828, -109.29122161865234, -104.35693359375, 4.292317867279053, -41.854679107666016, -63.876182556152344, -36.02227020263672, -28.180194854736328, 1.644304871559143, -28.486291885375977, 2.8145554065704346, -104.3203353881836, -90.71812438964844, 2.340102195739746, -36.83305358886719, 2.8062756061553955, -47.291873931884766, -21.91051483154297, -23.25530242919922, -96.39817810058594, 3.916231870651245, 0.6805222034454346, -83.22855377197266, -116.03590393066406, -45.083534240722656, -49.27996063232422, 2.298961639404297, -11.533923149108887, 2.323976755142212, -61.67319107055664, -22.851228713989258, -63.28453826904297, -91.51808166503906, 3.518922805786133, -77.96683502197266, -87.29976654052734, -82.27471923828125, -20.30989646911621, -69.4740219116211, 5.9271240234375, 1.0968594551086426, -31.79886817932129, -77.5489730834961, -20.915651321411133, -27.675296783447266, 4.024417877197266, -13.284232139587402, -32.75358581542969, -30.87181854248047, -36.75666809082031, 1.886356234550476, 1.3733994960784912, -41.05221176147461, -58.36279296875, -26.606477737426758, 2.7276601791381836, -20.013227462768555, -40.629512786865234, -49.380577087402344, -68.66751861572266, 1.219215750694275, 1.248738169670105, -55.679691314697266, 2.3633556365966797, -46.90846252441406, -26.003490447998047, -74.35755157470703, -77.54596710205078, -77.08942413330078, -58.264617919921875, -57.822200775146484, 2.2999486923217773, -17.44338035583496, -65.73065948486328, -55.609981536865234, -78.46070098876953, -31.297630310058594, -0.13516277074813843, -17.710214614868164, -38.365478515625, -32.011260986328125, -64.70344543457031, -108.4821548461914, -84.94339752197266, -45.8285026550293, 2.0748066902160645, -36.697608947753906, -78.06397247314453, -81.55632019042969, -54.632205963134766, -2.5462958812713623, -116.7341079711914, -149.8660125732422, 2.207963466644287, -60.17816925048828, 0.6059443950653076, -51.61125564575195, -29.6000919342041, -53.68040084838867, -17.80645751953125, -26.239225387573242, -90.90789031982422, -55.168216705322266, -26.5986270904541, 2.48449969291687, -21.204383850097656, 4.8292131423950195, 1.498641848564148, 2.1884939670562744, -12.5626802444458, -111.68058776855469, -57.69410705566406, -68.64581298828125, 2.4216108322143555, -67.75617980957031, -66.03584289550781, -85.3750228881836, -79.00163269042969, -30.859601974487305, -0.1408083587884903, -10.742587089538574, 1.5622718334197998, 3.513847827911377, -89.25458526611328, -0.6039282083511353], "y_loglikelihoods": [-14.77698802947998, -15.388413429260254, -13.720766067504883, -1.195028305053711, -30.121612548828125, -13.105354309082031, 5.890771865844727, -19.560691833496094, -18.112022399902344, -7.271081924438477, -7.126795291900635, 10.005131721496582, -13.201000213623047, 7.876408576965332, -44.95305633544922, -69.00740814208984, 6.71213960647583, -56.62309646606445, 8.377033233642578, -43.984840393066406, -88.33092498779297, -6.533550262451172, -7.874970436096191, 8.125858306884766, 9.116352081298828, -8.948362350463867, -87.18533325195312, -19.07624626159668, -9.379420280456543, 7.205400466918945, -25.453556060791016, 6.735888957977295, -20.26921844482422, -16.851613998413086, -48.88400650024414, -33.03955078125, 7.116113185882568, -15.772359848022461, -41.540565490722656, -26.5253963470459, -47.05021286010742, -20.01174545288086, 7.217113971710205, 6.97934627532959, -6.6173930168151855, -41.1555290222168, -5.015048980712891, -29.90874481201172, 11.980500221252441, -24.281780242919922, -13.141558647155762, -31.87799644470215, -10.200417518615723, 6.274843215942383, 11.74615478515625, -14.265755653381348, -84.67106628417969, -32.69782257080078, 6.530175685882568, -60.86522674560547, -12.67028522491455, -24.575239181518555, -106.88468933105469, 9.338826179504395, 2.6289708614349365, -29.2401065826416, 1.1838679313659668, -36.72838592529297, -16.337425231933594, -26.36834144592285, -23.285751342773438, -24.68015480041504, -31.186758041381836, -10.745327949523926, 7.578968524932861, -17.37360382080078, -6.355867385864258, -10.313645362854004, -16.953044891357422, -13.362226486206055, 11.197896957397461, -16.932058334350586, -119.1259536743164, -18.077882766723633, -25.607891082763672, -32.55781173706055, -61.39604949951172, -22.416080474853516, 5.783936977386475, -25.021278381347656, -19.847152709960938, -37.46010971069336, -92.05328369140625, 0.08623851090669632, -32.94373321533203, -21.518932342529297, 8.23650074005127, -19.93989372253418, 5.2326979637146, -30.854219436645508, -17.0920467376709, -29.32280731201172, -11.941627502441406, -24.187870025634766, -23.34467124938965, -19.083724975585938, -21.211231231689453, 4.976377487182617, -4.3891730308532715, 12.309698104858398, 3.3745062351226807, 8.684847831726074, -22.273473739624023, -28.181602478027344, -19.984355926513672, -11.966723442077637, 7.855465888977051, -23.277498245239258, -108.99137878417969, -8.561136245727539, -68.40730285644531, -15.83456802368164, 3.676370859146118, -10.159836769104004, 9.623933792114258, 8.113903999328613, -5.227931976318359, 8.687618255615234], "x_weights": [5.5354177136705555e-37, 2.037722629487125e-18, 0.0, 2.5191186755948308e-14, 0.0, 0.0, 0.07807411998510361, 7.097754916362666e-22, 1.9377761062570825e-31, 2.4216089833644363e-19, 6.164161571448187e-16, 0.0055270022712647915, 4.538774167094149e-16, 0.017812425270676613, 0.0, 4.259947331547444e-43, 0.011083339340984821, 1.0764286134320666e-19, 0.017665550112724304, 3.08871131311346e-24, 3.2565779500143277e-13, 8.486481374407606e-14, 1.401298464324817e-45, 0.05360126495361328, 0.002108259592205286, 7.632648527422987e-40, 0.0, 2.810910513794943e-23, 4.230212370060442e-25, 0.010636617429554462, 1.0453400811627489e-08, 0.01090604905039072, 1.7540914782066306e-30, 1.2712022461145583e-13, 3.501478406833911e-31, 1.9197788961249994e-43, 0.03602681681513786, 1.4716716732032094e-37, 1.301806273357755e-41, 1.9811641766532123e-39, 1.6139914925383803e-12, 7.181130805016856e-34, 0.4004003405570984, 0.0031969600822776556, 1.653122439420696e-17, 2.235043921459814e-37, 8.806943889438923e-13, 1.0212885885699545e-15, 0.05972548574209213, 1.8159674874951293e-09, 6.363200185808085e-18, 4.177502968387165e-17, 1.1618741735102923e-19, 0.007040626835078001, 0.0042153834365308285, 1.5835368134078825e-21, 4.805496137799964e-29, 2.973935430666927e-15, 0.01632995530962944, 2.1714153912444356e-12, 2.416595436824991e-21, 3.825295737348253e-25, 1.60861718299726e-33, 0.003613065928220749, 0.003721322398632765, 7.030634225004826e-28, 0.01134408451616764, 4.5320082670774285e-24, 5.435065256604839e-15, 5.43629259563882e-36, 2.241772396166116e-37, 3.5388788265784027e-37, 5.301211848038902e-29, 8.251149114207109e-29, 0.010647119954228401, 2.83669962519717e-11, 3.0332935242566267e-32, 7.538224135945262e-28, 8.981061987704185e-38, 2.7289090417902084e-17, 0.0009325597784481943, 2.172344422401995e-11, 2.3252066405911215e-20, 1.3367898788985745e-17, 8.472818107174722e-32, 0.0, 1.3738190014394074e-40, 