{"7": {"id": 7, "members": [3, 4, 5, 6, 7, 8, 9, 10], "x_loglikelihoods": [-238.07723999023438, -114.29756164550781, -489.1543273925781, -155.9354248046875, -576.5769653320312, -545.10791015625, -326.5672302246094, -225.13433837890625, -347.5404357910156, -202.6592254638672, -107.1397476196289, -148.56936645507812, -128.7079315185547, -458.361328125, -353.7732238769531, 33.033687591552734, -323.1888427734375, 49.05817413330078, -722.5439453125, -190.45445251464844, 47.32459259033203, -105.23933410644531, -381.7657470703125, -472.8848571777344, -99.15898132324219, -535.9951171875, -417.9327392578125, -180.17845153808594, -315.2720947265625, -554.1404418945312, 23.526084899902344, -243.82550048828125, -221.62591552734375, -157.9811553955078, 64.67742919921875, -316.5386657714844, -378.6789245605469, -366.7760925292969, -567.7024536132812, -253.77978515625, -88.04449462890625, -348.14630126953125, -828.1268920898438, -167.57919311523438, -204.84352111816406, -323.65765380859375, -186.00982666015625, 37.703399658203125, -355.13812255859375, -118.71856689453125, -110.15528869628906, -156.63458251953125, -233.18548583984375, -417.2845458984375, -674.1586303710938, -156.9130096435547, 56.04000473022461, 11.419421195983887, -418.74005126953125, 49.03056335449219, -168.7420196533203, -198.91990661621094, 57.213623046875, -226.0688934326172, -527.24755859375, -231.5681610107422, -415.57135009765625, 56.600120544433594, -99.19471740722656, -484.2015075683594, -371.9009704589844, -337.1490173339844, 55.05021667480469, -361.5972595214844, -208.24264526367188, -120.65596008300781, -313.72430419921875, -260.4215393066406, -466.9325866699219, -120.47492980957031, -135.87928771972656, -79.68988800048828, 44.121368408203125, -135.79443359375, -337.6067199707031, -460.0694885253906, 73.30450439453125, 50.19269561767578, -279.486328125, -267.8639221191406, -366.8077392578125, -457.398681640625, 57.27288055419922, -117.2546615600586, 50.8361701965332, -536.9723510742188, -552.3826293945312, -264.85052490234375, -679.6133422851562, -229.21487426757812, -145.4568328857422, -274.64923095703125, -87.88787841796875, 53.71471405029297, -549.1985473632812, -236.46665954589844, -147.2752685546875, -286.8141174316406, -125.54515838623047, -378.9278869628906, -242.7874755859375, -250.53309631347656, -57.85576248168945, -442.33941650390625, -304.967529296875, -425.253173828125, -436.43548583984375, -318.03204345703125, 60.591583251953125, -297.6825256347656, 74.93840789794922, -146.1185302734375, -94.60523986816406, -40.94281768798828, -334.920654296875, -359.22674560546875, -538.3004150390625, -693.5973510742188], "y_loglikelihoods": [-118.79025268554688, -83.67507934570312, -71.39801025390625, -99.37266540527344, -397.6642761230469, -227.48951721191406, -221.33189392089844, -263.8242492675781, -279.1681823730469, -154.3308868408203, -68.32775115966797, -597.8968505859375, -96.62580871582031, -379.7123718261719, -150.3932647705078, 65.13983917236328, -260.83984375, 68.53941345214844, -424.14208984375, -648.5770874023438, 57.470481872558594, -113.18278503417969, -86.38306427001953, -429.19354248046875, -470.6655578613281, -244.7415008544922, -572.7659912109375, -282.5035400390625, -295.7109375, -267.63818359375, 56.825191497802734, -261.65948486328125, -90.86271667480469, -290.9331359863281, 69.17632293701172, -183.31170654296875, -305.1517639160156, -72.18052673339844, -556.0704345703125, -169.68524169921875, -237.97802734375, -208.18222045898438, -382.59844970703125, -292.9576721191406, -77.05883026123047, -184.8206787109375, -123.61970520019531, 51.55963134765625, -1367.665771484375, -165.00791931152344, -204.39154052734375, -399.0106201171875, -157.71914672851562, -204.08425903320312, -1160.7279052734375, -126.90559387207031, 76.72315979003906, 44.276397705078125, -246.8701629638672, 76.14551544189453, -100.34225463867188, -100.75847625732422, 67.62454986572266, -442.16900634765625, -119.64238739013672, -156.85740661621094, -93.88670349121094, 59.825157165527344, -145.46469116210938, -342.6851501464844, -448.46466064453125, -131.78997802734375, 57.24034881591797, -132.81300354003906, -360.6888122558594, -340.3441162109375, -129.25527954101562, -111.94328308105469, -306.801513671875, -69.6413345336914, -928.05517578125, -296.9181823730469, 79.5299072265625, -431.936279296875, -386.5429382324219, -206.5371551513672, 73.86441040039062, 36.317710876464844, -299.7870178222656, -443.3554992675781, -253.7046661376953, -597.00927734375, 79.87080383300781, -64.68648529052734, 58.085792541503906, -351.42034912109375, -599.5203247070312, -148.6904296875, -209.1920623779297, -205.07113647460938, -311.8656005859375, -128.286376953125, -161.33926391601562, 48.42420196533203, -292.05255126953125, -341.8924255371094, -287.26788330078125, -149.6170654296875, -146.7560272216797, -1175.255615234375, -155.74168395996094, -426.1737976074219, -140.81427001953125, -179.12503051757812, -257.7373046875, -331.5362854003906, -355.0364990234375, -334.93841552734375, 76.10198974609375, -75.97637176513672, 77.04036712646484, -209.87791442871094, -237.77865600585938, -68.44440460205078, -622.0927734375, -421.43328857421875, -117.35818481445312, -466.57965087890625], "x_weights": [0.0, 0.0, 0.0, 0.0, 0.0, 0.0, 0.0, 0.0, 0.0, 0.0, 0.0, 0.0, 0.0, 0.0, 0.0, 5.291392177428346e-19, 0.0, 4.818546603391205e-12, 0.0, 0.0, 8.511990483121845e-13, 0.0, 0.0, 0.0, 0.0, 0.0, 0.0, 0.0, 0.0, 0.0, 3.9307064573652213e-23, 0.0, 0.0, 0.0, 2.9259868824738078e-05, 0.0, 0.0, 0.0, 0.0, 0.0, 0.0, 0.0, 0.0, 0.0, 0.0, 0.0, 0.0, 5.644170956804528e-17, 0.0, 0.0, 0.0, 0.0, 0.0, 0.0, 0.0, 0.0, 5.189034535391102e-09, 2.1707698070985394e-28, 0.0, 4.6873225786892014e-12, 0.0, 0.0, 1.677963545887451e-08, 0.0, 0.0, 0.0, 0.0, 9.085352026261262e-09, 0.0, 0.0, 0.0, 0.0, 1.9285328889395714e-09, 0.0, 0.0, 0.0, 0.0, 0.0, 0.0, 0.0, 0.0, 0.0, 3.45850599678052e-14, 0.0, 0.0, 0.0, 0.16329148411750793, 1.4984163215769897e-11, 0.0, 0.0, 0.0, 0.0, 1.7804005381094612e-08, 0.0, 2.8516087061114526e-11, 0.0, 0.0, 0.0, 0.0, 0.0, 0.0, 0.0, 0.0, 5.07254183101935e-10, 0.0, 0.0, 0.0, 0.0, 0.0, 0.0, 0.0, 0.0, 0.0, 0.0, 0.0, 0.0, 0.0, 0.0, 4.918265972264635e-07, 0.0, 0.8366788029670715, 0.0, 0.0, 0.0, 0.0, 0.0, 0.0, 0.0], "y_weights": [0.0, 0.0, 0.0, 0.0, 0.0, 0.0, 0.0, 0.0, 0.0, 0.0, 0.0, 0.0, 0.0, 0.0, 0.0, 2.1491474910817487e-07, 0.0, 6.436985586333321e-06, 0.0, 0.0, 1.0034751501963868e-10, 0.0, 0.0, 0.0, 0.0, 0.0, 0.0, 0.0, 0.0, 0.0, 5.263329355686963e-11, 0.0, 0.0, 0.0, 1.2169949513918255e-05, 0.0, 0.0, 0.0, 0.0, 0.0, 0.0, 0.0, 0.0, 0.0, 0.0, 0.0, 0.0, 2.7192983108326185e-13, 0.0, 0.0, 0.0, 0.0, 0.0, 0.0, 0.0, 0.0, 0.02305889129638672, 1.8680506970393702e-16, 0.0, 0.012941083870828152, 0.0, 0.0, 2.5784713670873316e-06, 0.0, 0.0, 0.0, 0.0, 1.0571318265206742e-09, 0.0, 0.0, 0.0, 0.0, 7.971886345492507e-11, 0.0, 0.0, 0.0, 0.0, 0.0, 0.0, 0.0, 0.0, 0.0, 0.3817625641822815, 0.0, 0.0, 0.0, 0.001322206575423479, 6.53092827069971e-20, 0.0, 0.0, 0.0, 0.0, 0.5368375182151794, 0.0, 1.856661074883803e-10, 0.0, 0.0, 0.0, 0.0, 0.0, 0.0, 0.0, 0.0, 1.18238032144574e-14, 0.0, 0.0, 0.0, 0.0, 0.0, 0.0, 0.0, 0.0, 0.0, 0.0, 0.0, 0.0, 0.0, 0.0, 0.01238989643752575, 0.0, 0.031666483730077744, 0.0, 0.0, 0.0, 0.0, 0.0, 0.0, 0.0], "size": 8, "data_size": 116, "large": false, "x_coef": [[0.5096214520115462], [0.04870154254743972], [-0.16067531088638476], [-1.1175908084504684], [0.26587141751133575]], "y_coef": [[-0.4190811573509062], [0.23416747063434096], [0.8416262153823679], [0.7713578662353124], [0.3653334475242434]], "x_kernel_index": 120, "y_kernel_index": 92}, "17": {"id": 17, "members": [13, 14, 15, 16, 17, 21, 22, 24, 26, 29], "x_loglikelihoods": [-307.35650634765625, -172.8074188232422, -728.034423828125, -78.71131134033203, -447.54986572265625, -514.0833740234375, -507.80450439453125, 22.26239776611328, 8.882638931274414, -102.70069122314453, -101.76889038085938, -238.08631896972656, -209.58245849609375, -804.46044921875, -590.57763671875, -787.430908203125, -410.2008361816406, -449.08624267578125, -902.5357666015625, -176.9376220703125, -334.4863586425781, -86.3265151977539, -12.776849746704102, -710.2061157226562, -183.14505004882812, -31.832218170166016, -764.576416015625, 10.02683162689209, 19.354122161865234, -754.9286499023438, -182.31471252441406, -370.5557861328125, -425.50146484375, 8.56297779083252, -674.0737915039062, -416.6111755371094, -609.711181640625, -476.76580810546875, -411.37982177734375, -470.494873046875, -155.63229370117188, 25.130474090576172, -1145.07958984375, -207.92868041992188, 8.909571647644043, -429.846923828125, 6.7194929122924805, -288.4972839355469, -521.9300537109375, -190.9091033935547, 1.5994986295700073, -137.62203979492188, -136.1927490234375, -589.03369140625, -1056.8048095703125, -346.2655944824219, -422.8732604980469, -195.47572326660156, -551.7604370117188, -250.3283233642578, -107.88986206054688, -229.3217010498047, -653.5611572265625, -339.4237060546875, -770.656494140625, -220.6560516357422, -717.1934204101562, -326.8739013671875, -204.60205078125, -450.734130859375, 16.825057983398438, -423.51568603515625, -516.9287109375, 39.925052642822266, -307.60272216796875, 15.301362991333008, -50.12105178833008, -187.9853057861328, -351.77215576171875, -142.47695922851562, -181.0650634765625, -16.430299758911133, -374.4120788574219, -6.131234169006348, -202.74166870117188, -570.05029296875, -912.2012329101562, -330.60858154296875, -490.38189697265625, -229.26783752441406, -294.04339599609375, -422.32110595703125, -599.9916381835938, -154.63877868652344, -1143.908935546875, -139.45753479003906, -1127.9515380859375, -377.9482116699219, -973.2887573242188, -358.83905029296875, 19.521635055541992, -329.2677917480469, 5.942688941955566, -358.90960693359375, -482.4153747558594, -2.7432568073272705, -76.35607147216797, -500.6308288574219, 12.668724060058594, -616.357666015625, -373.34820556640625, -290.6759338378906, -124.53140258789062, -603.3728637695312, -220.31936645507812, -62.079307556152344, -728.9158325195312, -40.42000198364258, -648.7255859375, -444.21136474609375, -752.5810546875, -80.27265930175781, -207.64810180664062, -100.62013244628906, -493.6703796386719, -462.4136047363281, -380.68096923828125, -1015.546142578125], "y_loglikelihoods": [-275.21124267578125, -467.896240234375, -256.5549621582031, -123.74728393554688, -460.6417541503906, -445.9390563964844, -237.37196350097656, 31.009918212890625, 26.92816925048828, -147.5435333251953, -92.86180114746094, -570.0715942382812, -306.972900390625, -528.748046875, -414.6004333496094, -664.6272583007812, -328.1852722167969, -783.2236328125, -377.78009033203125, -849.8815307617188, -1204.54345703125, -197.61595153808594, -2.456446886062622, -423.13238525390625, -463.37213134765625, -6.062866687774658, -1198.156982421875, 23.612499237060547, -0.13383102416992188, -343.4543151855469, -298.02349853515625, -289.8052673339844, -296.1955261230469, 18.972196578979492, -657.0656127929688, -505.00604248046875, -286.8968505859375, -274.19354248046875, -685.4217529296875, -556.5892944335938, -553.0177001953125, 6.622439384460449, -587.266357421875, -264.2623596191406, -26.47258949279785, -409.9884948730469, -8.461581230163574, -492.62347412109375, -1389.105712890625, -260.9519348144531, 14.191609382629395, -508.6688537597656, -170.83731079101562, -262.6222839355469, -1329.6529541015625, -391.3105163574219, -955.6025390625, -419.7763671875, -313.24658203125, -723.502685546875, -212.88064575195312, -277.9315185546875, -1058.6087646484375, -581.0206298828125, -120.19598388671875, -475.7047424316406, -309.87384033203125, -607.6605224609375, -386.8006591796875, -485.7914733886719, 30.078269958496094, -375.39349365234375, -376.9491882324219, 19.613019943237305, -297.464599609375, 40.775306701660156, 16.655189514160156, -229.7154541015625, -342.102783203125, -202.80836486816406, -882.5296630859375, -36.00236511230469, -1484.3233642578125, -195.4867401123047, -544.7030029296875, -493.2395935058594, -753.8402709960938, -401.2425231933594, -580.9270629882812, -491.1856384277344, -282.8787841796875, -822.4388427734375, -1057.3077392578125, -121.9271011352539, -376.35650634765625, -25.566848754882812, -654.4221801757812, -384.8796081542969, -382.17254638671875, -487.7923583984375, -22.323362350463867, -499.3641357421875, 20.53166961669922, -479.6363220214844, -506.2858581542969, -7.939352989196777, -364.6101379394531, -213.8888702392578, 7.56635046005249, -1189.0792236328125, -287.5820007324219, -535.5758666992188, -378.39996337890625, -461.6886901855469, -239.3817901611328, 7.1242475509643555, -301.4367980957031, 34.13278579711914, -1235.4119873046875, -315.53778076171875, -764.0330810546875, -226.22959899902344, -467.234375, -222.87274169921875, -773.5907592773438, -686.1766357421875, -77.16316986083984, -483.2278747558594], "x_weights": [0.0, 0.0, 0.0, 0.0, 0.0, 0.0, 0.0, 2.134058441072284e-08, 3.299520961899498e-14, 0.0, 0.0, 0.0, 0.0, 0.0, 0.0, 0.0, 0.0, 0.0, 0.0, 0.0, 0.0, 0.0, 1.2937597313524137e-23, 0.0, 0.0, 6.858247228961539e-32, 0.0, 1.0360192792633477e-13, 1.164550234022954e-09, 0.0, 0.0, 0.0, 0.0, 2.3967535855290434e-14, 0.0, 0.0, 0.0, 0.0, 0.0, 0.0, 0.0, 3.756608748517465e-07, 0.0, 0.0, 3.3895961395764146e-14, 0.0, 3.793227837140412e-15, 0.0, 0.0, 0.0, 2.266852403626865e-17, 0.0, 0.0, 0.0, 0.0, 0.0, 0.0, 0.0, 0.0, 0.0, 0.0, 0.0, 0.0, 0.0, 0.0, 0.0, 0.0, 0.0, 0.0, 0.0, 9.285378715917503e-11, 0.0, 0.0, 0.9999996423721313, 0.0, 2.023332716649673e-11, 7.824808585835849e-40, 0.0, 0.0, 0.0, 0.0, 3.351046366195222e-25, 0.0, 9.954261603101158e-21, 0.0, 0.0, 0.0, 0.0, 0.0, 0.0, 0.0, 0.0, 0.0, 0.0, 0.0, 0.0, 0.0, 0.0, 0.0, 0.0, 1.3769183571099575e-09, 0.0, 1.7444013567947795e-15, 0.0, 0.0, 2.947060216346203e-19, 0.0, 0.0, 1.454543516882234e-12, 0.0, 0.0, 0.0, 0.0, 0.0, 0.0, 5.605193857299268e-45, 0.0, 1.278162274231002e-35, 0.0, 0.0, 0.0, 0.0, 0.0, 0.0, 0.0, 0.0, 0.0, 0.0], "y_weights": [0.0, 0.0, 0.0, 0.0, 0.0, 0.0, 0.0, 5.732508361688815e-05, 9.675283081378439e-07, 0.0, 0.0, 0.0, 0.0, 0.0, 0.0, 0.0, 0.0, 0.0, 0.0, 0.0, 0.0, 0.0, 1.6752771331293122e-19, 0.0, 0.0, 4.548194033089219e-21, 0.0, 3.513067170501927e-08, 1.7091739348065755e-18, 0.0, 0.0, 0.0, 0.0, 3.3917868513810845e-10, 0.0, 0.0, 0.0, 0.0, 0.0, 0.0, 0.0, 1.46891839613954e-15, 0.0, 0.0, 6.223141196417066e-30, 0.0, 4.1313299414342635e-22, 0.0, 0.0, 0.0, 2.8460697340526586e-12, 0.0, 0.0, 0.0, 0.0, 0.0, 0.0, 0.0, 0.0, 0.0, 0.0, 0.0, 0.0, 0.0, 0.0, 0.0, 0.0, 0.0, 0.0, 0.0, 2.258057429571636e-05, 0.0, 0.0, 6.437758104382851e-10, 0.0, 0.9986171722412109, 3.343221879892333e-11, 0.0, 0.0, 0.0, 0.0, 4.5214719805257336e-34, 0.0, 0.0, 0.0, 0.0, 0.0, 0.0, 0.0, 0.0, 0.0, 0.0, 0.0, 0.0, 0.0, 1.5394550870798183e-29, 0.0, 0.0, 0.0, 0.0, 3.944522156188775e-28, 0.0, 1.6132407631985757e-09, 0.0, 0.0, 6.964511891849768e-22, 0.0, 0.0, 3.775130978222324e-15, 0.0, 0.0, 0.0, 0.0, 0.0, 0.0, 2.426219574775063e-15, 0.0, 0.0013019336620345712, 0.0, 0.0, 0.0, 0.0, 0.0, 0.0, 0.0, 0.0, 0.0, 0.0], "size": 10, "data_size": 130, "large": false, "x_coef": [[-0.14497556454914648], [0.04678003180162656], [-0.21671109166213567], [-0.06495051662776404], [-0.10689924281237305]], "y_coef": [[0.11746315328079807], [-0.05927108941989952], [0.31306496788643956], [0.10215980775877584], [-0.12329739513639304]], "x_kernel_index": 73, "y_kernel_index": 75}, "24": {"id": 24, "members": [18, 19, 23], "x_loglikelihoods": [-77.14037322998047, -36.025390625, -151.75790405273438, -33.46365737915039, -188.20297241210938, -153.28868103027344, -113.27669525146484, 8.990143775939941, 10.569177627563477, -52.53736877441406, -33.81044006347656, -52.847511291503906, -65.2024917602539, -191.25979614257812, -122.09452819824219, -208.4505157470703, -98.3638916015625, -98.05197143554688, -259.03387451171875, -57.894195556640625, -66.36651611328125, -44.65787124633789, 0.22785663604736328, -170.16998291015625, -42.10211944580078, 2.5845446586608887, -169.49478149414062, 9.588211059570312, 6.734017848968506, -183.2202911376953, -34.35581970214844, -78.63218688964844, -108.33267974853516, 5.706188201904297, -136.4529266357422, -76.26516723632812, -140.18667602539062, -101.44268798828125, -152.56239318847656, -97.98530578613281, -38.641510009765625, -1.181711196899414, -269.32049560546875, -55.628997802734375, 2.838299512863159, -85.64131164550781, 0.5545077323913574, -64.48060607910156, -118.21268463134766, -46.919464111328125, 6.381677150726318, -57.84214782714844, -61.31531524658203, -139.58250427246094, -262.1402587890625, -113.27103424072266, -97.39247131347656, -45.13018798828125, -135.20175170898438, -46.86273956298828, -54.10867691040039, -68.6159439086914, -162.65579223632812, -81.37019348144531, -182.64305114746094, -44.71234893798828, -157.65478515625, -73.32777404785156, -46.000186920166016, -174.01962280273438, 7.418210506439209, -101.25028991699219, -115.29222869873047, -4.283360004425049, -75.0759048461914, 1.4437744617462158, 1.071852207183838, -99.22286987304688, -144.0362091064453, -45.29475784301758, -37.50585174560547, 2.490957021713257, -95.07829284667969, 6.4963884353637695, -101.02664947509766, -129.7030792236328, -194.99937438964844, -73.71939086914062, -114.35580444335938, -84.2334213256836, -116.60128784179688, -162.54290771484375, -138.27462768554688, -43.91032409667969, -252.9768524169922, -0.703016996383667, -248.8882293701172, -81.46513366699219, -237.728759765625, -71.43576049804688, 0.2689380645751953, -75.07829284667969, 2.3202128410339355, -72.69468688964844, -172.4069366455078, 10.86471176147461, -28.956405639648438, -115.1041488647461, 5.237865447998047, -140.70428466796875, -84.93095397949219, -78.80325317382812, -27.463674545288086, -128.80686950683594, -97.30288696289062, 2.1608242988586426, -166.80503845214844, 3.555123805999756, -152.39968872070312, -91.68875122070312, -162.20578002929688, -38.787960052490234, -39.75969314575195, -17.348827362060547, -116.92127990722656, -114.32462310791016, -166.05087280273438, -255.08152770996094], "y_loglikelihoods": [-158.73858642578125, -201.03988647460938, -137.46536254882812, -59.30640411376953, -225.9755401611328, -239.15463256835938, -114.89039611816406, -39.6829948425293, -32.64030456542969, -74.91291809082031, -47.93714141845703, -258.385986328125, -159.23892211914062, -217.9036865234375, -236.22412109375, -286.5539855957031, -133.70510864257812, -287.32305908203125, -184.38778686523438, -362.4489440917969, -420.5583190917969, -78.34117126464844, -14.408459663391113, -201.68948364257812, -196.0039520263672, -44.90131378173828, -640.11279296875, -17.53522491455078, -40.51874923706055, -150.22048950195312, -133.10523986816406, -133.18392944335938, -158.27435302734375, -37.85487365722656, -231.575439453125, -261.919921875, -133.83523559570312, -148.20986938476562, -307.06329345703125, -267.38946533203125, -305.2623291015625, -41.042320251464844, -243.3345489501953, -121.29684448242188, -31.304723739624023, -242.75294494628906, -28.817672729492188, -170.77383422851562, -608.9515380859375, -171.13555908203125, -33.765281677246094, -245.1591796875, -86.0267105102539, -115.96131896972656, -560.82470703125, -187.73138427734375, -378.2945861816406, -215.12716674804688, -137.497314453125, -270.9114990234375, -110.49400329589844, -158.57107543945312, -446.6009521484375, -233.73974609375, -57.836002349853516, -246.11607360839844, -138.8843231201172, -244.5018768310547, -199.98765563964844, -218.7322540283203, -38.277217864990234, -202.83457946777344, -158.13890075683594, -21.521133422851562, -142.16038513183594, -27.063095092773438, -17.131900787353516, -92.8708267211914, -160.13499450683594, -112.46468353271484, -365.051025390625, -56.49180603027344, -576.6317138671875, -147.6737823486328, -225.2574005126953, -269.2422180175781, -279.0668640136719, -140.40859985351562, -228.33529663085938, -216.64788818359375, -139.627685546875, -326.8394470214844, -416.0494384765625, -53.630592346191406, -146.4354248046875, -50.66220474243164, -304.208251953125, -209.77874755859375, -168.50698852539062, -258.79486083984375, -67.37701416015625, -239.76727294921875, -26.459741592407227, -172.50518798828125, -216.74945068359375, -51.8578987121582, -181.88604736328125, -91.96421813964844, -12.083173751831055, -497.4759216308594, -137.08584594726562, -230.873046875, -205.85128784179688, -250.7032470703125, -130.98439025878906, -44.74013900756836, -136.28225708007812, -37.085350036621094, -522.575927734375, -148.28643798828125, -305.3122253417969, -126.0352554321289, -189.2576904296875, -123.52894592285156, -343.2926940917969, -275.796875, -50.3956413269043, -225.3916473388672], "x_weights": [2.665575162211025e-39, 1.9133719524633304e-21, 0.0, 2.4793968226214138e-20, 0.0, 0.0, 0.0, 0.06788872182369232, 0.32927843928337097, 1.2904417943643383e-28, 1.752831584034238e-20, 9.463358310153601e-29, 4.0770593516305785e-34, 0.0, 0.0, 0.0, 0.0, 0.0, 0.0, 6.08550275095838e-31, 1.2729587889229126e-34, 3.410049957158326e-25, 1.0626362382026855e-05, 0.0, 4.3924781000360094e-24, 0.00011217123392270878, 0.0, 0.12346245348453522, 0.007111718412488699, 0.0, 1.0159792559307144e-20, 5.996548492415903e-40, 0.0, 0.002544449409469962, 0.0, 6.395652308040254e-39, 0.0, 0.0, 0.0, 0.0, 1.398405774967363e-22, 2.5954764169000555e-06, 0.0, 5.86218242822871e-30, 0.00014457250654231757, 5.423025056937042e-43, 1.4731523151567671e-05, 8.391790804027962e-34, 0.0, 3.5527398572518013e-26, 0.004999826662242413, 6.410626620881693e-31, 1.9885034188598263e-32, 0.0, 0.0, 0.0, 0.0, 2.12635682065287e-25, 0.0, 3.7600928706355176e-26, 2.6811923998753047e-29, 1.3424670670634177e-35, 0.0, 3.879775058176121e-41, 0.0, 3.229247475024262e-25, 0.0, 1.206642076775668e-37, 8.908414534112821e-26, 0.0, 0.014096641913056374, 0.0, 0.0, 1.1673157729319428e-07, 2.1007686439593427e-38, 3.584684964152984e-05, 2.4713091988814995e-05, 0.0, 0.0, 1.803700384465832e-25, 4.353547893249443e-22, 0.0001021496209432371, 0.0, 0.005607553292065859, 0.0, 0.0, 0.0, 8.15645557494576e-38, 0.0, 2.2154528720975358e-42, 0.0, 0.0, 0.0, 7.201389423360373e-25, 0.0, 4.189008905086666e-06, 0.0, 3.528329403323457e-41, 0.0, 8.003308338402964e-37, 1.1072001143475063e-05, 2.0957419061081167e-38, 8.611594967078418e-05, 2.2726092580681707e-37, 0.0, 0.4424988329410553, 2.248125530867032e-18, 0.0, 0.0015929563669487834, 0.0, 1.102821891423631e-42, 5.05368482069495e-40, 1.0002447465184135e-17, 0.0, 0.0, 7.342798926401883e-05, 0.0, 0.00029607274336740375, 0.0, 1.401298464324817e-45, 0.0, 1.2078992742355992e-22, 4.571012547902995e-23, 2.471313355779242e-13, 0.0, 0.0, 0.0, 0.0], "y_weights": [0.0, 0.0, 0.0, 2.795507569169283e-21, 0.0, 0.0, 2.802596928649634e-45, 9.306753501539533e-13, 1.0651229898073211e-09, 4.662702876898233e-28, 2.4214120275246843e-16, 0.0, 0.0, 0.0, 0.0, 0.0, 0.0, 0.0, 0.0, 0.0, 0.0, 1.5127469526494745e-29, 0.08818390965461731, 0.0, 0.0, 5.040944214379202e-15, 0.0, 0.0038676972035318613, 4.0349177449737483e-13, 0.0, 0.0, 0.0, 0.0, 5.790833958185804e-12, 0.0, 0.0, 0.0, 0.0, 0.0, 0.0, 0.0, 2.390290385328314e-13, 0.0, 0.0, 4.0498138176303655e-09, 0.0, 4.870209480145604e-08, 0.0, 0.0, 0.0, 3.4580266428108075e-10, 0.0, 6.949907576461258e-33, 1.401298464324817e-45, 0.0, 0.0, 0.0, 0.0, 0.0, 0.0, 1.639519203260036e-43, 0.0, 0.0, 0.0, 1.2163158571631654e-20, 0.0, 0.0, 0.0, 0.0, 0.0, 3.795940124728947e-12, 0.0, 0.0, 7.184463902376592e-05, 0.0, 2.8154707365501963e-07, 0.005789138376712799, 7.406570073312305e-36, 0.0, 2.2420775429197073e-44, 0.0, 4.664714781608887e-20, 0.0, 0.0, 0.0, 0.0, 0.0, 0.0, 0.0, 0.0, 0.0, 0.0, 0.0, 8.155195372651379e-19, 0.0, 1.587037160486487e-17, 0.0, 0.0, 0.0, 0.0, 8.738547513017867e-25, 0.0, 5.147354613654898e-07, 0.0, 0.0, 4.800691163871449e-18, 0.0, 1.833800890326057e-35, 0.9020864963531494, 0.0, 0.0, 0.0, 0.0, 0.0, 0.0, 5.922533564782636e-15, 0.0, 1.2500891814759552e-11, 0.0, 0.0, 0.0, 0.0, 0.0, 0.0, 0.0, 0.0, 2.0718298504025853e-17, 0.0], "size": 3, "data_size": 39, "large": false, "x_coef": [[0.09610638039165581], [0.20202556991171966], [-0.5242209274959474], [-0.14774433101833281], [-0.050906835900831615]], "y_coef": [[0.27436035869254455], [-0.023603136777144974], [0.34843466472807755], [-0.1081595565372527], [-0.19006632759515682]], "x_kernel_index": 8, "y_kernel_index": 108}, "27": {"id": 27, "members": [11, 12, 20, 27, 28, 30], "x_loglikelihoods": [-163.6486358642578, -76.74214935302734, -417.7668762207031, -86.60749053955078, -543.467041015625, -324.04718017578125, -149.65443420410156, 20.19679069519043, 24.54544448852539, -139.18655395507812, -115.12458038330078, -75.75399017333984, -128.15322875976562, -246.3782501220703, -340.5403747558594, -349.98480224609375, -130.1711883544922, -177.2237548828125, -298.03900146484375, -209.0257110595703, -135.51722717285156, -119.32139587402344, -1.6715643405914307, -199.71575927734375, -49.10649871826172, 8.112467765808105, -379.9881896972656, 18.56509017944336, 22.2725830078125, -258.0028076171875, -67.64562225341797, -99.1737289428711, -238.35597229003906, 18.1859073638916, -250.69921875, -239.6337127685547, -176.07847595214844, -280.5078125, -432.145751953125, -241.5923614501953, -72.75347137451172, -2.314603090286255, -355.7097473144531, -65.84786224365234, 18.096086502075195, -199.5867156982422, 2.94681715965271, -160.53370666503906, -153.5800018310547, -67.35665893554688, 14.045280456542969, -166.8536834716797, -162.12576293945312, -200.5316925048828, -328.249755859375, -166.63360595703125, -166.12081909179688, -111.65251159667969, -170.0901641845703, -91.21297454833984, -160.9198455810547, -125.43719482421875, -274.3831787109375, -105.68545532226562, -206.28863525390625, -138.5799560546875, -189.97425842285156, -152.0550994873047, -98.93972778320312, -482.3170471191406, 12.23646354675293, -269.10137939453125, -180.95465087890625, -15.020322799682617, -76.0295639038086, 6.721526622772217, 7.9499735832214355, -270.4752502441406, -409.2122802734375, -91.79889678955078, -33.68437957763672, 5.729809761047363, -151.1353759765625, 16.040767669677734, -270.527587890625, -347.9111022949219, -391.2022705078125, -115.94596862792969, -158.2969970703125, -240.0608673095703, -371.9143371582031, -509.43780517578125, -245.43809509277344, -37.7869987487793, -422.8675842285156, -10.842208862304688, -387.15777587890625, -208.19357299804688, -326.17803955078125, -181.86892700195312, -1.7622227668762207, -178.77806091308594, 8.207880020141602, -131.09332275390625, -508.27880859375, 20.060577392578125, -95.29969024658203, -156.74317932128906, 14.0503511428833, -184.65464782714844, -109.77702331542969, -86.7427749633789, -44.43877029418945, -308.786865234375, -276.4028625488281, -0.7888146638870239, -223.843505859375, -1.1460316181182861, -253.66917419433594, -261.1800231933594, -293.5610656738281, -118.73523712158203, -39.759342193603516, -46.550838470458984, -119.11906433105469, -123.33991241455078, -454.4083557128906, -390.4394226074219], "y_loglikelihoods": [-281.9712219238281, -355.8354797363281, -223.80043029785156, -111.49095916748047, -489.7091369628906, -427.5873718261719, -166.00396728515625, 13.317946434020996, 30.45439338684082, -162.37969970703125, -84.74351501464844, -442.95758056640625, -280.1384582519531, -347.8135986328125, -399.020751953125, -410.74163818359375, -229.97000122070312, -446.3454895019531, -270.9813232421875, -818.7740478515625, -672.1929931640625, -179.13059997558594, 5.977770805358887, -323.53094482421875, -348.6055908203125, 25.692392349243164, -1088.2266845703125, 14.663504600524902, 28.700878143310547, -258.426025390625, -174.0167236328125, -202.14134216308594, -266.33905029296875, 33.10068130493164, -362.3443298339844, -455.18890380859375, -222.57493591308594, -245.6714324951172, -699.4281005859375, -463.1594543457031, -571.5235595703125, 21.00421905517578, -396.9244384765625, -201.38392639160156, 9.200395584106445, -384.7040710449219, 14.078128814697266, -263.49017333984375, -1045.1058349609375, -291.43597412109375, 25.794620513916016, -475.8550720214844, -173.10618591308594, -187.91128540039062, -951.8695678710938, -372.3875732421875, -559.9598388671875, -243.44065856933594, -237.50393676757812, -451.93365478515625, -215.4241180419922, -289.8654479980469, -653.5777587890625, -410.6947937011719, -91.6687240600586, -433.98052978515625, -206.9197235107422, -356.66290283203125, -374.91986083984375, -445.2174377441406, 28.45616912841797, -366.61956787109375, -228.3983154296875, 12.631165504455566, -232.22117614746094, 23.000957489013672, 18.339839935302734, -217.44381713867188, -338.8061218261719, -200.89598083496094, -655.571044921875, 26.118061065673828, -854.51416015625, -18.610408782958984, -515.2540893554688, -473.6071472167969, -416.5589904785156, -237.09405517578125, -369.992431640625, -485.6128845214844, -276.5901794433594, -691.8528442382812, -604.0728759765625, -84.0693130493164, -215.98110961914062, 28.15530014038086, -486.3664855957031, -364.9620056152344, -275.0535583496094, -497.2107849121094, 19.43590545654297, -429.8368835449219, 20.609664916992188, -269.1329345703125, -480.8088073730469, 33.34466552734375, -365.24530029296875, -160.20484924316406, 2.0677571296691895, -896.3141479492188, -189.0167694091797, -400.7066345214844, -348.3208923339844, -419.16162109375, -299.7847595214844, 23.95184326171875, -227.15432739257812, 27.3052921295166, -766.3635864257812, -227.98495483398438, -444.1919860839844, -253.8376007080078, -304.5706787109375, -213.1224365234375, -557.5811157226562, -492.2997741699219, -105.70096588134766, -326.7164611816406], "x_weights": [0.0, 8.407790785948902e-45, 0.0, 0.0, 0.0, 0.0, 0.0, 0.011403822340071201, 0.8823620676994324, 0.0, 0.0, 2.5223372357846707e-44, 0.0, 0.0, 0.0, 0.0, 0.0, 0.0, 0.0, 0.0, 0.0, 0.0, 3.6286464284718267e-12, 0.0, 9.099396709907723e-33, 6.440151878450706e-08, 0.0, 0.0022305496968328953, 0.09089826792478561, 0.0, 8.083109931764842e-41, 0.0, 0.0, 0.0015266342088580132, 0.0, 0.0, 0.0, 0.0, 0.0, 0.0, 4.8905316404936116e-43, 1.9075505064414244e-12, 0.0, 4.878998954132218e-40, 0.001395488390699029, 0.0, 3.676903226335071e-10, 0.0, 0.0, 1.0791259343918984e-40, 2.4293132810271345e-05, 0.0, 0.0, 0.0, 0.0, 0.0, 0.0, 0.0, 0.0, 0.0, 0.0, 0.0, 0.0, 0.0, 0.0, 0.0, 0.0, 0.0, 0.0, 0.0, 3.980378096457571e-06, 0.0, 0.0, 5.786996924451609e-18, 1.8216880036222622e-44, 1.602573007630781e-08, 5.4742621102832345e-08, 0.0, 0.0, 0.0, 4.5368617091448975e-26, 5.944564840376643e-09, 0.0, 0.00017869507428258657, 0.0, 0.0, 0.0, 0.0, 0.0, 0.0, 0.0, 0.0, 0.0, 7.499126795109229e-28, 0.0, 3.7755850408216116e-16, 0.0, 0.0, 0.0, 0.0, 3.3141510369372185e-12, 0.0, 7.08488343548197e-08, 0.0, 0.0, 0.009951620362699032, 0.0, 0.0, 2.441662763885688e-05, 0.0, 0.0, 0.0, 9.68686056179296e-31, 0.0, 0.0, 8.772389065159203e-12, 0.0, 6.137339768341743e-12, 0.0, 0.0, 0.0, 0.0, 1.0433567788203654e-28, 1.1719887915692653e-31, 0.0, 0.0, 0.0, 0.0], "y_weights": [0.0, 0.0, 0.0, 0.0, 0.0, 0.0, 0.0, 1.0754475088248228e-09, 0.029775094240903854, 0.0, 0.0, 0.0, 0.0, 0.0, 0.0, 0.0, 0.0, 0.0, 0.0, 0.0, 0.0, 0.0, 6.978971437213155e-13, 0.0, 0.0, 0.0002545320021454245, 0.0, 4.130072728258938e-09, 0.005155978724360466, 0.0, 0.0, 0.0, 0.0, 0.4198763072490692, 0.0, 0.0, 0.0, 0.0, 0.0, 0.0, 0.0, 2.3425809558830224e-06, 0.0, 0.0, 1.751294595453423e-11, 0.0, 2.3000208404511113e-09, 0.0, 0.0, 0.0, 0.0002819288638420403, 0.0, 0.0, 0.0, 0.0, 0.0, 0.0, 0.0, 0.0, 0.0, 0.0, 0.0, 0.0, 0.0, 0.0, 0.0, 0.0, 0.0, 0.0, 0.0, 0.0040367827750742435, 0.0, 0.0, 5.411568970714598e-10, 0.0, 1.725309448374901e-05, 1.6314338324718847e-07, 0.0, 0.0, 0.0, 0.0, 0.000389590160921216, 0.0, 1.4631211468413084e-23, 0.0, 0.0, 0.0, 0.0, 0.0, 0.0, 0.0, 0.0, 0.0, 0.0, 0.0, 0.002987924497574568, 0.0, 0.0, 0.0, 0.0, 4.88185264657659e-07, 0.0, 1.5788538121341844e-06, 0.0, 0.0, 0.5358983278274536, 0.0, 0.0, 1.3985997113859141e-14, 0.0, 0.0, 0.0, 0.0, 0.0, 0.0, 4.465103120310232e-05, 0.0, 0.001277073402889073, 0.0, 0.0, 0.0, 0.0, 0.0, 0.0, 0.0, 0.0, 0.0, 0.0], "size": 6, "data_size": 82, "large": false, "x_coef": [[0.04195673768292222], [0.22931566704360568], [-0.4684679312457869], [-0.20709690099035433], [-0.13739646253413226]], "y_coef": [[0.10426604001976951], [0.025843123466065616], [0.5026763316054683], [0.09326148442849116], [-0.1911012330943748]], "x_kernel_index": 8, "y_kernel_index": 105}, "40": {"id": 40, "members": [36, 37, 38, 39, 40, 42, 45, 48, 49, 50], "x_loglikelihoods": [65.50697326660156, 51.137149810791016, 71.38963317871094, -157.34486389160156, -506.3236389160156, 34.01408767700195, -347.4174499511719, -235.5504913330078, -374.9736022949219, -148.17782592773438, -165.47288513183594, -125.0169448852539, 46.756927490234375, -551.9188232421875, 76.96774291992188, -361.20947265625, -294.1639404296875, -125.02708435058594, -806.3631591796875, -126.08267211914062, -99.97179412841797, -96.78349304199219, -270.16412353515625, -593.017333984375, -124.92401123046875, -513.1393432617188, 76.44178009033203, -163.41885375976562, -345.24578857421875, -570.049560546875, -58.24114990234375, -240.68936157226562, 66.5177001953125, -195.69219970703125, -212.12120056152344, 56.9374885559082, -400.4454345703125, 63.28388977050781, -458.449951171875, 74.01065063476562, 27.886886596679688, -382.489990234375, -1010.7998046875, -143.74942016601562, -234.76620483398438, 58.85417556762695, -216.0435028076172, -72.75513458251953, -366.73101806640625, 1.434956669807434, -87.48353576660156, -92.31974029541016, -209.75816345214844, -371.4443359375, -754.0291137695312, 5.408902645111084, -221.43751525878906, -8.42534065246582, -426.2333679199219, -102.68008422851562, -111.91759490966797, 30.02642059326172, -312.09649658203125, -203.09425354003906, -645.9436645507812, 35.16631317138672, -496.0799865722656, -134.09715270996094, 48.549339294433594, -367.45294189453125, -413.6451110839844, 68.60379791259766, -305.6166076660156, -365.803466796875, -243.0911865234375, -139.86376953125, -461.3707275390625, -204.052978515625, -315.7408752441406, 44.82862091064453, -168.02149963378906, -73.14096069335938, -203.25723266601562, -113.40057373046875, -270.0119934082031, 65.54196166992188, -435.5287170410156, -94.55805206298828, -254.7713623046875, -246.35955810546875, -294.61212158203125, -414.6874084472656, -209.98240661621094, -113.93168640136719, -597.2346801757812, -575.4733276367188, -645.8167724609375, 66.84500885009766, -662.6229858398438, 63.97237777709961, -184.37313842773438, 55.83883285522461, -124.75863647460938, -124.10604858398438, -542.7713623046875, -272.5308532714844, -105.8537826538086, -288.96087646484375, -144.2207794189453, -439.13861083984375, -210.33016967773438, -258.1553955078125, 15.996339797973633, 70.26648712158203, -289.444091796875, -439.8618469238281, -434.45501708984375, -229.46499633789062, -259.71917724609375, 74.99734497070312, -359.77069091796875, -98.2779541015625, -180.88160705566406, 6.613864421844482, -395.70452880859375, -412.88336181640625, -454.6986389160156, -631.43212890625], "y_loglikelihoods": [55.131935119628906, 72.72953796386719, 70.89408111572266, -45.69222640991211, -332.8099365234375, 53.027809143066406, -233.75860595703125, -325.3101806640625, -304.3351745605469, -126.67068481445312, -75.46932220458984, -432.43701171875, 70.76171112060547, -387.6020812988281, 58.69527816772461, -373.4925842285156, -224.19357299804688, -248.44602966308594, -314.58843994140625, -561.58251953125, -419.22900390625, -114.27335357666016, -106.64993286132812, -390.542724609375, -441.6758117675781, -247.36134338378906, 57.96683120727539, -334.2216491699219, -291.3411865234375, -180.83062744140625, -129.91896057128906, -254.97216796875, 69.94966888427734, -325.6775207519531, -216.51959228515625, 75.20734405517578, -267.07098388671875, 71.21446228027344, -463.7528991699219, 78.31597137451172, 56.34226989746094, -263.1941223144531, -374.0332946777344, -274.4422607421875, -118.00059509277344, 62.05672836303711, -108.66577911376953, -118.68930053710938, -1275.7593994140625, 12.584712028503418, -190.9737091064453, -373.5254821777344, -145.67955017089844, -149.9785919189453, -1039.4798583984375, 61.4654426574707, -379.9197082519531, -397.7601013183594, -210.74114990234375, -264.1531982421875, -44.44185256958008, 51.30793380737305, -580.6077270507812, -338.66302490234375, -130.6256103515625, 84.92803955078125, -107.36695098876953, -174.4744873046875, 69.08368682861328, -342.9488220214844, -472.8900146484375, 74.33153533935547, -121.29751586914062, -174.340576171875, -295.7225341796875, -402.1629333496094, -135.04656982421875, -130.9860382080078, -229.57020568847656, 51.226051330566406, -873.6754760742188, -296.9480895996094, -674.3168334960938, -422.864990234375, -424.7625427246094, 77.50603485107422, -370.68475341796875, -121.56356811523438, -318.4249267578125, -388.434814453125, -239.59742736816406, -659.5023193359375, -553.2446899414062, -89.30302429199219, -205.54293823242188, -407.3229064941406, -613.0875244140625, 77.49862670898438, -196.02139282226562, 58.17636489868164, -332.7169189453125, 84.80001831054688, -193.05267333984375, -120.52758026123047, -207.51202392578125, -369.9847412109375, -262.8348083496094, -111.61490631103516, -147.71044921875, -1062.7161865234375, -162.92919921875, -366.7917785644531, 76.21647644042969, 84.64434051513672, -204.6597137451172, -323.4222412109375, -279.9139099121094, -349.59161376953125, -543.420654296875, 61.72816848754883, -291.57977294921875, -199.356201171875, -379.00177001953125, 54.181251525878906, -449.9863586425781, -404.63677978515625, -65.775146484375, -411.6014709472656], "x_weights": [5.893291927350219e-06, 3.385500430344579e-12, 0.002114290604367852, 0.0, 0.0, 1.2392858711360674e-19, 0.0, 0.0, 0.0, 0.0, 0.0, 0.0, 4.23951814680721e-14, 0.0, 0.559380054473877, 0.0, 0.0, 0.0, 0.0, 0.0, 0.0, 0.0, 0.0, 0.0, 0.0, 0.0, 0.3305858373641968, 0.0, 0.0, 0.0, 0.0, 0.0, 1.619239446881693e-05, 0.0, 0.0, 1.1186083170855454e-09, 0.0, 6.380946615536232e-07, 0.0, 0.02907087467610836, 2.7049664311148885e-22, 0.0, 0.0, 0.0, 0.0, 7.604744389766438e-09, 0.0, 0.0, 0.0, 8.795001896749315e-34, 0.0, 0.0, 0.0, 0.0, 0.0, 4.678412855785391e-32, 0.0, 4.591586753645648e-38, 0.0, 0.0, 0.0, 2.2979984165002006e-21, 0.0, 0.0, 0.0, 3.922624106094173e-19, 0.0, 0.0, 2.545370869373037e-13, 0.0, 0.0, 0.00013040426711086184, 0.0, 0.0, 0.0, 0.0, 0.0, 0.0, 0.0, 6.164013764198891e-15, 0.0, 0.0, 0.0, 0.0, 0.0, 6.103138730395585e-06, 0.0, 0.0, 0.0, 0.0, 0.0, 0.0, 0.0, 0.0, 0.0, 0.0, 0.0, 2.2462569177150726e-05, 0.0, 1.2702570302280947e-06, 0.0, 3.7285319276492146e-10, 0.0, 0.0, 0.0, 0.0, 0.0, 0.0, 0.0, 0.0, 0.0, 0.0, 1.8542239132908047e-27, 0.000687683408614248, 0.0, 0.0, 0.0, 0.0, 0.0, 0.07797834277153015, 0.0, 0.0, 0.0, 1.5610048936899967e-31, 0.0, 0.0, 0.0, 0.0], "y_weights": [4.3534471275315234e-14, 1.9115036593575496e-06, 3.049624126560957e-07, 0.0, 0.0, 5.309125856908228e-15, 0.0, 0.0, 0.0, 0.0, 0.0, 0.0, 2.6715218837125576e-07, 0.0, 1.5359373928963693e-12, 0.0, 0.0, 0.0, 0.0, 0.0, 0.0, 0.0, 0.0, 0.0, 0.0, 0.0, 7.413325053655384e-13, 0.0, 0.0, 0.0, 0.0, 0.0, 1.1860235105132233e-07, 0.0, 0.0, 2.2775744582759216e-05, 0.0, 4.2013232359749964e-07, 0.0, 0.0005099555710330606, 1.4604107040436937e-13, 0.0, 0.0, 0.0, 0.0, 4.428256719646306e-11, 0.0, 0.0, 0.0, 1.4481308698387285e-32, 0.0, 0.0, 0.0, 0.0, 0.0, 2.451549553639243e-11, 0.0, 0.0, 0.0, 0.0, 0.0, 9.508031653806615e-16, 0.0, 0.0, 0.0, 0.37941721081733704, 0.0, 0.0, 4.9888683406607015e-08, 0.0, 0.0, 9.486669114266988e-06, 0.0, 0.0, 0.0, 0.0, 0.0, 0.0, 0.0, 8.760512901756078e-16, 0.0, 0.0, 0.0, 0.0, 0.0, 0.000226872245548293, 0.0, 0.0, 0.0, 0.0, 0.0, 0.0, 0.0, 0.0, 0.0, 0.0, 0.0, 0.00022519772755913436, 0.0, 9.141392070394216e-13, 0.0, 0.33382442593574524, 0.0, 0.0, 0.0, 0.0, 0.0, 0.0, 0.0, 0.0, 0.0, 0.0, 6.247888086363673e-05, 0.2856985926628113, 0.0, 0.0, 0.0, 0.0, 0.0, 3.188167091439098e-11, 0.0, 0.0, 0.0, 1.6825060970642423e-14, 0.0, 0.0, 0.0, 0.0], "size": 10, "data_size": 131, "large": false, "x_coef": [[0.00399537693409923], [-0.4602722128160902], [-0.5206823551664109], [-0.8715750692701972], [0.38601692593201475]], "y_coef": [[0.06278644150223944], [0.6450758660098486], [0.6083033709404947], [1.0144492627763533], [-0.11672253358297552]], "x_kernel_index": 14, "y_kernel_index": 65}, "45": {"id": 45, "members": [41, 43, 44, 46, 47], "x_loglikelihoods": [6.0218281745910645, 13.591713905334473, -10.383334159851074, -59.73636245727539, -218.51345825195312, 6.527004241943359, -90.29730224609375, -84.68384552001953, -137.44461059570312, -61.95399475097656, -75.72022247314453, -30.966690063476562, 12.12944221496582, -158.97024536132812, -5.95375919342041, -144.89410400390625, -75.8967514038086, -46.084739685058594, -516.3323364257812, -63.82173156738281, -29.955665588378906, -44.338462829589844, -97.14405822753906, -164.0663604736328, -33.579097747802734, -161.85789489746094, 0.41720056533813477, -65.24664306640625, -119.00056457519531, -175.59498596191406, -15.613738059997559, -53.39744186401367, 7.038419723510742, -68.77595520019531, -87.0835952758789, -4.544466495513916, -103.95523071289062, 6.731274604797363, -187.90269470214844, 3.1709296703338623, 9.333559036254883, -149.97117614746094, -289.7994689941406, -37.55044937133789, -81.89492797851562, 8.217499732971191, -69.58204650878906, -44.70831298828125, -93.85995483398438, 10.296573638916016, -39.4554443359375, -46.307884216308594, -83.0670394897461, -102.34793090820312, -215.38621520996094, 3.442824602127075, -106.73291778564453, -15.08476448059082, -114.22647857666016, -38.161895751953125, -54.59696578979492, 7.376260757446289, -119.64683532714844, -51.49028015136719, -167.6195526123047, 4.414813041687012, -123.3504867553711, -74.9896240234375, 13.9794921875, -163.6995086669922, -163.75424194335938, 6.791108131408691, -120.77722930908203, -123.10418701171875, -59.95281219482422, -48.21007537841797, -195.5605926513672, -94.66544342041016, -144.5426025390625, 10.978126525878906, -38.16164779663086, -28.318986892700195, -77.66124725341797, -43.799381256103516, -116.61039733886719, -0.6775199770927429, -166.75526428222656, -55.855533599853516, -68.70144653320312, -99.3412857055664, -133.10830688476562, -190.96214294433594, -79.51676177978516, -22.477935791015625, -234.83938598632812, -272.46868896484375, -190.32827758789062, 7.766848564147949, -184.2637481689453, 14.950333595275879, -76.62474060058594, 15.713130950927734, -51.09943389892578, -37.633445739746094, -222.8666229248047, -115.93501281738281, -41.94409942626953, -77.19583129882812, -51.637271881103516, -121.92572021484375, -61.02096939086914, -69.6461181640625, 7.6504974365234375, 4.566921710968018, -121.62953186035156, -150.86904907226562, -112.46192169189453, -80.22258758544922, -102.38577270507812, 1.713090181350708, -147.29147338867188, -43.46095275878906, -43.32386779785156, -0.2109951376914978, -94.54581451416016, -106.6673355102539, -190.4884796142578, -203.55935668945312], "y_loglikelihoods": [22.72791290283203, 16.34526824951172, 18.44336700439453, -10.132400512695312, -89.1851577758789, 19.659954071044922, -105.65486907958984, -105.47015380859375, -106.55074310302734, -30.94385528564453, -21.811012268066406, -190.1431884765625, 19.680940628051758, -162.84715270996094, 8.66053295135498, -94.95997619628906, -101.7526626586914, -66.68863677978516, -147.2637939453125, -175.78326416015625, -114.05673217773438, -30.477767944335938, -40.53059387207031, -174.79122924804688, -352.1606140136719, -100.00349426269531, -13.421160697937012, -109.30718994140625, -110.32400512695312, -80.12031555175781, -37.24723815917969, -116.2568359375, 15.259774208068848, -123.14630126953125, -61.68619155883789, 10.291491508483887, -119.46719360351562, 20.91119384765625, -124.01007843017578, 12.09343147277832, 19.38800048828125, -104.43492126464844, -169.79202270507812, -120.17076110839844, -48.400299072265625, 9.25368595123291, -46.877220153808594, -30.12813949584961, -566.171630859375, 16.669288635253906, -72.66775512695312, -112.37674713134766, -32.859519958496094, -69.31504821777344, -459.56982421875, 21.359853744506836, -103.89138793945312, -1340.14501953125, -94.93663024902344, -68.79407501220703, -9.563919067382812, 19.89981460571289, -152.85293579101562, -149.86367797851562, -56.9243278503418, 17.104915618896484, -47.39097213745117, -47.071144104003906, 22.84987449645996, -102.6611328125, -168.89541625976562, 23.427812576293945, -28.85552978515625, -60.47336959838867, -132.87774658203125, -136.09927368164062, -49.282867431640625, -37.6798210144043, -57.760650634765625, 15.712959289550781, -373.6497802734375, -113.43841552734375, -191.31851196289062, -180.35818481445312, -124.65022277832031, 19.70364761352539, -132.19674682617188, -28.010944366455078, -140.08872985839844, -103.67142486572266, -66.81661987304688, -180.505126953125, -152.490478515625, -37.90658950805664, -55.550575256347656, -153.29559326171875, -268.95135498046875, 23.658618927001953, -87.08628845214844, 15.86282730102539, -139.2332000732422, 17.194467544555664, -75.03153991699219, -28.52384376525879, -54.666500091552734, -139.7654571533203, -76.00763702392578, -50.10711669921875, -49.409645080566406, -465.84906005859375, -76.04399108886719, -162.5732421875, 18.711240768432617, 18.451623916625977, -46.04740524291992, -115.87553405761719, -119.24324035644531, -121.18974304199219, -167.54257202148438, 12.74456787109375, -82.87265014648438, -54.62063217163086, -161.83782958984375, 17.847930908203125, -207.24127197265625, -247.11424255371094, -10.744694709777832, -188.27346801757812], "x_weights": [3.419841596041806e-05, 0.06630798429250717, 2.5664589810986405e-12, 9.453375160480761e-34, 0.0, 5.66762792004738e-05, 0.0, 1.401298464324817e-44, 0.0, 1.0291525361902352e-34, 1.0811578171651694e-40, 2.951867121213288e-21, 0.015364174731075764, 0.0, 2.1531540439490016e-10, 0.0, 9.061916909095727e-41, 8.024376520674724e-28, 0.0, 1.5897615476246937e-35, 8.112957559558118e-21, 4.6005497472154545e-27, 0.0, 0.0, 2.1654221750897187e-22, 0.0, 1.2587722153512004e-07, 3.823849258885693e-36, 0.0, 0.0, 1.3734052245896033e-14, 5.352357738898547e-31, 9.451621735934168e-05, 1.121346945018128e-37, 1.401298464324817e-45, 8.812982565942207e-10, 0.0, 6.952082185307518e-05, 0.0, 1.9764090666285483e-06, 0.0009381506824865937, 0.0, 0.0, 4.081375024843999e-24, 2.2420775429197073e-43, 0.0003073082771152258, 5.007938031028602e-38, 3.1782335351019703e-27, 0.0, 0.0024575626011937857, 6.074041122698735e-25, 6.4194947646744655e-28, 7.006492321624085e-44, 0.0, 0.0, 2.593935050754226e-06, 0.0, 2.3309309940110906e-14, 0.0, 2.2144134191981653e-24, 1.6128665289539252e-31, 0.00013250394840724766, 0.0, 3.604236079282229e-30, 0.0, 6.85627719576587e-06, 0.0, 2.2447960619404975e-40, 0.0977182686328888, 0.0, 0.0, 7.380745228147134e-05, 0.0, 0.0, 7.613521249109968e-34, 9.580534295382551e-29, 0.0, 0.0, 0.0, 0.004858466796576977, 2.2149626636034254e-24, 4.1684913939603134e-20, 1.5520781790861674e-41, 7.887327153239134e-27, 0.0, 4.212267867842456e-08, 0.0, 4.5815183258150484e-32, 1.2080883288947285e-37, 0.0, 0.0, 0.0, 2.4270489402105832e-42, 1.434550881337644e-17, 0.0, 0.0, 0.0, 0.00019582083041314036, 0.0, 0.25799232721328735, 4.3758347145471063e-41, 0.5532042384147644, 5.327934727870383e-30, 3.756311872642745e-24, 0.0, 0.0, 5.0427622135974167e-26, 2.4718904910689773e-41, 3.1115529187734966e-30, 0.0, 2.616309715239666e-34, 4.6971347960561363e-38, 0.00017431238666176796, 7.982669558259659e-06, 0.0, 0.0, 0.0, 1.1981101869977186e-42, 0.0, 4.5998638142918935e-07, 0.0, 1.1063881277429599e-26, 1.2689448580294045e-26, 6.71623041625935e-08, 0.0, 0.0, 0.0, 0.0], "y_weights": [0.13511019945144653, 0.00022842353791929781, 0.00186180230230093, 7.238280875487813e-16, 0.0, 0.006284788250923157, 0.0, 0.0, 0.0, 6.627282587558006e-25, 6.1330817802636234e-21, 0.0, 0.006418077740818262, 0.0, 1.0502742497919826e-07, 0.0, 0.0, 1.9841405345914382e-40, 0.0, 0.0, 0.0, 1.0562206571423856e-24, 4.548513286789299e-29, 0.0, 0.0, 0.0, 2.699880792553885e-17, 0.0, 0.0, 0.0, 1.21286102693617e-27, 0.0, 7.714660023339093e-05, 0.0, 2.9519461979386017e-38, 5.36560889941029e-07, 0.0, 0.021963277831673622, 0.0, 3.2523075788049027e-06, 0.0047883144579827785, 0.0, 0.0, 0.0, 1.7382007047618333e-32, 1.9006660068043857e-07, 7.971891181273786e-32, 1.4982917017181594e-24, 0.0, 0.00031583564123138785, 5.016648502282845e-43, 0.0, 9.758271027342136e-26, 1.43535001700791e-41, 0.0, 0.03439914807677269, 0.0, 0.0, 0.0, 2.416539201728147e-41, 1.2779791703782916e-15, 0.007988416589796543, 0.0, 0.0, 3.452706145670564e-36, 0.0004882603825535625, 4.7691760072218446e-32, 6.566610019258407e-32, 0.15263547003269196, 0.0, 0.0, 0.27205127477645874, 5.349136425115225e-24, 9.927281488987503e-38, 0.0, 0.0, 7.191265219359875e-33, 7.86941956772673e-28, 1.4960663288596421e-36, 0.00012137592420913279, 0.0, 0.0, 0.0, 0.0, 0.0, 0.006565480027347803, 0.0, 1.2447509587546531e-23, 0.0, 0.0, 1.74579367879443e-40, 0.0, 0.0, 6.272756236281658e-28, 1.363864020203416e-35, 0.0, 0.0, 0.3426799476146698, 0.0, 0.00014100009866524488, 0.0, 0.0005340026691555977, 4.764414778704378e-44, 7.453019781869706e-24, 3.301579070319644e-35, 0.0, 1.8216880036222622e-44, 3.153830772105058e-33, 6.334949910880486e-33, 0.0, 1.6815581571897805e-44, 0.0, 0.0024337146896868944, 0.001877238741144538, 1.8278773761571806e-31, 0.0, 0.0, 0.0, 0.0, 6.2370118030230515e-06, 0.0, 3.456542573522564e-35, 0.0, 0.0010264526354148984, 0.0, 0.0, 3.9239171858469887e-16, 0.0], "size": 5, "data_size": 52, "large": false, "x_coef": [[-0.23879967605959926], [-0.4028803890782938], [-0.39567659268656774], [-0.9710146989925426], [0.44327468295036315]], "y_coef": [[0.1361834142757759], [0.6327275762083773], [0.4426007648193967], [1.1618321495048347], [-0.0481319556712111]], "x_kernel_index": 101, "y_kernel_index": 97}, "39": {"id": 39, "members": [32, 35], "x_loglikelihoods": [-44.234947204589844, -15.64924430847168, -82.0733871459961, -45.622074127197266, -208.85153198242188, -61.18951416015625, 14.374940872192383, -58.90650939941406, -92.1556396484375, -56.51122283935547, -62.31183624267578, 10.360528945922852, -11.356710433959961, 8.722620010375977, -63.38019943237305, -124.80502319335938, 13.342682838439941, -48.50324249267578, -7.397981643676758, -65.96007537841797, -35.05671691894531, -47.9918212890625, -110.85620880126953, 10.147269248962402, 3.115370273590088, -116.86498260498047, -71.59305572509766, -54.31547546386719, -72.1572036743164, 13.374198913574219, -17.365203857421875, 11.533479690551758, -34.88054656982422, -35.22379684448242, -76.60134887695312, -57.40656280517578, 15.167745590209961, -41.63896942138672, -146.80294799804688, -48.705047607421875, -9.234349250793457, -94.90867614746094, 8.326980590820312, 7.988670349121094, -42.85519027709961, -46.90200424194336, -39.31572723388672, -47.67303466796875, 14.026338577270508, -5.620595932006836, -34.152374267578125, -47.417694091796875, -69.7991943359375, 15.331169128417969, 11.743223190307617, -22.16651153564453, -71.39891815185547, -29.306272506713867, 13.591365814208984, -30.162158966064453, -62.252323150634766, -27.686264038085938, -100.35409545898438, 12.372291564941406, 10.246012687683105, -33.323081970214844, 14.024637222290039, -63.81623840332031, -10.328126907348633, -137.73114013671875, -109.97271728515625, -41.888206481933594, -74.6317138671875, -82.16693115234375, 10.537961959838867, -26.055742263793945, -99.52587890625, -104.0853271484375, -121.66195678710938, -13.775577545166016, 6.610194683074951, -19.62148666381836, -57.37037658691406, -34.22924041748047, -112.5174560546875, -65.51226806640625, -138.74246215820312, -43.26125717163086, 13.943107604980469, -77.90382385253906, -133.82069396972656, -167.92266845703125, -76.7983169555664, 5.142287254333496, -156.91024780273438, -187.25820922851562, 5.8291015625, -31.371328353881836, 14.895017623901367, -25.532758712768555, -40.16302490234375, -24.780391693115234, -25.085094451904297, -38.039451599121094, -187.7022705078125, -77.54198455810547, -36.25647735595703, 13.429187774658203, -30.601369857788086, 13.350597381591797, 12.024332046508789, 9.646442413330078, -4.835514068603516, -68.47659301757812, -116.93620300292969, -95.84011840820312, 16.079532623291016, -73.88594055175781, -86.33590698242188, -49.14754104614258, -110.38690185546875, -45.829811096191406, 3.085336446762085, -6.01533842086792, 11.650550842285156, 11.631370544433594, -170.62197875976562, 14.198722839355469], "y_loglikelihoods": [-31.987655639648438, -41.678672790527344, -27.17115592956543, -9.449692726135254, -115.89292907714844, -41.75047302246094, 9.251989364624023, -47.14242935180664, -40.48540115356445, -32.66674041748047, -23.157669067382812, 10.107916831970215, -34.67863464355469, 3.365361452102661, -83.88727569580078, -131.1681365966797, 9.261789321899414, -105.01982879638672, 8.488341331481934, -221.54153442382812, -160.97970581054688, -34.300689697265625, -18.510330200195312, 10.786787033081055, -191.9507293701172, -24.22751235961914, -181.69003295898438, -49.668792724609375, -26.32982063293457, 8.595634460449219, -50.81904602050781, 10.414769172668457, -38.964332580566406, -42.40993881225586, -92.9136962890625, -74.0772476196289, 10.730148315429688, -30.059635162353516, -159.2337646484375, -67.15603637695312, -100.1395263671875, -46.38972473144531, 7.574774742126465, 10.167415618896484, -15.517218589782715, -69.1799087524414, -11.74327278137207, -52.737998962402344, -54.92714309692383, -42.811920166015625, -25.369922637939453, -113.25831604003906, -39.734535217285156, 9.444066047668457, 0.12220931053161621, -46.75779342651367, -153.09378051757812, -1404.761474609375, 9.056622505187988, -112.86650848388672, -42.971961975097656, -49.516387939453125, -205.6525115966797, 8.538050651550293, 3.259772777557373, -66.2708511352539, 1.5264487266540527, -69.25265502929688, -46.014217376708984, -102.52232360839844, -59.455204010009766, -52.504783630371094, -57.07945251464844, -25.007217407226562, 11.067804336547852, -47.272682189941406, -14.085819244384766, -49.98987579345703, -65.38742065429688, -27.66457748413086, 4.028328895568848, -37.77653121948242, -229.99517822265625, -44.28368377685547, -119.52337646484375, -72.16534423828125, -152.61972045898438, -48.07127380371094, 4.545893669128418, -102.95626831054688, -69.13333129882812, -156.84327697753906, -177.6953887939453, -1.394200086593628, -68.91832733154297, -57.83964920043945, 5.9838385581970215, -44.89092254638672, 5.761874198913574, -79.1172103881836, -43.741966247558594, -62.628334045410156, -28.147491455078125, -45.67607498168945, -93.71092224121094, -46.80469512939453, -84.57698059082031, 6.74531364440918, -11.507408142089844, 2.6985371112823486, 6.058717250823975, 8.878066062927246, -45.59379196166992, -59.123085021972656, -77.33924865722656, -28.062570571899414, 11.232998847961426, -48.768028259277344, -209.03053283691406, -22.594572067260742, -124.5863265991211, -66.68367767333984, -3.9580917358398438, -23.838726043701172, 6.110895156860352, -87.86209869384766, -18.604494094848633, 10.883752822875977], "x_weights": [1.9112243137038727e-27, 4.9650619207664785e-15, 7.006492321624085e-44, 4.774084220407008e-28, 0.0, 8.280154656543346e-35, 0.05435788631439209, 8.119603250385138e-34, 0.0, 8.908226063633494e-33, 2.6953603328000223e-35, 0.0009813540382310748, 3.632021983515643e-13, 0.00019076155149377882, 9.260496282142498e-36, 0.0, 0.019362377002835274, 2.6767811175229965e-29, 1.9028410791488426e-11, 7.017891492267798e-37, 1.850829557906245e-23, 4.463993851179865e-29, 0.0, 0.0007928812992759049, 7.003144446571241e-07, 0.0, 2.5109292649866024e-39, 8.005629632383912e-32, 1.4283281104031785e-39, 0.019982319325208664, 8.926740470676774e-16, 0.003171259304508567, 2.207375596632236e-23, 1.5660460379560285e-23, 1.677914781182536e-41, 3.638731742710852e-33, 0.12010838836431503, 2.5628930630432175e-26, 0.0, 2.18762741171645e-29, 3.0330432176234323e-12, 0.0, 0.00012843009608332068, 9.156734449788928e-05, 7.595081921245948e-27, 1.3274662327271031e-28, 2.616385628581617e-25, 6.140012116717875e-29, 0.03835894167423248, 1.125411430713541e-10, 4.572117899803391e-23, 7.926149037944871e-29, 1.509738926895518e-38, 0.14143186807632446, 0.003911309409886599, 7.336881102289154e-18, 3.048928383096365e-39, 5.817728865250585e-21, 0.024829061701893806, 2.4719854378137164e-21, 2.860649876588132e-35, 2.9397704933276235e-20, 0.0, 0.007337077520787716, 0.0008751688874326646, 1.047790613407877e-22, 0.03829373046755791, 5.987790937533259e-36, 1.0159131565504187e-12, 0.0, 0.0, 1.9975064374356075e-26, 1.2027204589453472e-40, 6.445972935894159e-44, 0.0011718820314854383, 1.5012022723433267e-19, 0.0, 0.0, 0.0, 3.2333134786103127e-14, 2.3071528630680405e-05, 9.349788561553872e-17, 3.772843893196167e-33, 4.233844561769396e-23, 0.0, 1.0982223141858821e-36, 0.0, 5.0603424102785745e-27, 0.03529553860425949, 4.5612265013772796e-42, 0.0, 0.0, 1.3778967799705926e-41, 5.315842372510815e-06, 0.0, 0.0, 1.0564568583504297e-05, 7.377533208532564e-22, 0.09143850207328796, 2.532618172532701e-19, 1.1213083378370069e-25, 5.374248791436251e-19, 3.962661974187212e-19, 9.375213483794589e-25, 0.0, 6.549669022254195e-42, 5.575926835618119e-24, 0.021111898124217987, 1.5933084902388404e-21, 0.019516227766871452, 0.005180911626666784, 0.0004805093340110034, 2.4675617105174297e-10, 5.666310088522331e-38, 0.0, 0.0, 0.298921674489975, 2.5354253634414645e-40, 1.401298464324817e-45, 1.4053975735719297e-29, 0.0, 3.878564833383345e-28, 6.79594450048171e-07, 7.583621924878159e-11, 0.0035651272628456354, 0.003497398691251874, 0.0, 0.045575570315122604], "y_weights": [2.9119730242192937e-20, 1.8006615936513075e-24, 3.597209960646105e-18, 1.7877214986139478e-10, 0.0, 1.6759058052885464e-24, 0.02367757260799408, 7.630495150691363e-27, 5.9383173081326206e-24, 1.4766057660233783e-20, 1.9906816125137857e-16, 0.05572650581598282, 1.9747404336410255e-21, 6.573657447006553e-05, 8.407790785948902e-43, 0.0, 0.023910757154226303, 0.0, 0.011032884009182453, 0.0, 0.0, 2.8817045953690317e-21, 2.076421140877107e-14, 0.10987310111522675, 0.0, 6.829277914365171e-17, 0.0, 6.10052369173251e-28, 8.343592167810079e-18, 0.01228247582912445, 1.9311607701161916e-28, 0.07574012875556946, 2.7180353950683764e-23, 8.66657085794937e-25, 0.0, 1.5307637287945548e-38, 0.1038229838013649, 2.0022395280395324e-19, 0.0, 1.5515010145167588e-35, 0.0, 1.6197509944323974e-26, 0.004425192717462778, 0.059142787009477615, 4.141969428030079e-13, 2.050196062641553e-36, 1.8038910643003447e-11, 2.8341819551997967e-29, 3.174640478068004e-30, 5.797877190037029e-25, 2.1788749626008276e-17, 0.0, 1.2582307772447982e-23, 0.028691619634628296, 2.5663991891633486e-06, 1.1209803596711975e-26, 0.0, 0.0, 0.019475581124424934, 0.0, 4.940418419612195e-25, 7.1048619724739405e-28, 0.0, 0.011595182120800018, 5.914943903917447e-05, 3.7599587302367275e-35, 1.0451469279360026e-05, 1.9063477754456897e-36, 2.3579198827731816e-26, 0.0, 3.429120087997717e-32, 3.578589388038813e-29, 3.6894091555784034e-31, 3.13150529054528e-17, 0.14552435278892517, 6.698610065568288e-27, 1.7332296622235566e-12, 4.425094158904375e-28, 9.096034405763512e-35, 2.1962228425614735e-18, 0.0001275646354770288, 8.914780774738232e-23, 0.0, 1.3307308168720057e-25, 0.0, 1.0357077664616268e-37, 0.0, 3.014121577866834e-27, 0.00021404535800684243, 0.0, 2.1479479530198007e-36, 0.0, 0.0, 5.633207820210373e-07, 2.6631694802697983e-36, 1.7250800425294664e-31, 0.0009015655959956348, 7.250530280855952e-26, 0.0007221035193651915, 9.910122869551539e-41, 2.287468348516486e-25, 1.435847064075231e-33, 1.3550316515881757e-18, 3.3066053940615304e-26, 0.0, 1.0696184273191143e-26, 4.217908377617699e-43, 0.0019306421745568514, 2.283735700547851e-11, 3.374496372998692e-05, 0.00097166548948735, 0.016290873289108276, 3.5901904124295867e-26, 4.779896221827756e-32, 5.864616241999722e-40, 1.475126592604723e-18, 0.1716637909412384, 1.5016341924256143e-27, 0.0, 3.495834939936342e-16, 0.0, 2.4882546437800735e-35, 4.337823611422209e-08, 1.007447752574464e-16, 0.0010237109381705523, 1.5414283107572988e-44, 1.8898170720915534e-14, 0.12106067687273026], "size": 2, "data_size": 29, "large": false, "x_coef": [[-0.26081427609312186], [-0.281606256683839], [-0.20895810736702713], [-1.1885630294218752], [-0.24533596828653498]], "y_coef": [[-0.0610568142662206], [-0.22847736471316288], [0.47987642173345085], [1.1749838538277664], [-0.131527679026121]], "x_kernel_index": 107, "y_kernel_index": 42}, "1": {"id": 1, "members": [33, 34], "x_loglikelihoods": [-137.62159729003906, -58.180580139160156, -221.0367431640625, -45.76667404174805, -196.72940063476562, -197.06094360351562, 5.820818901062012, -99.87652587890625, -153.7344970703125, -63.645835876464844, -56.06422424316406, 4.909310340881348, -48.463829040527344, 9.665289878845215, -173.5003204345703, -205.2088623046875, 2.94836163520813, -71.6261215209961, 2.1051230430603027, -80.9394302368164, -42.72026062011719, -40.84141159057617, -206.01553344726562, 6.97929573059082, 1.8036960363388062, -196.15769958496094, -200.10165405273438, -100.25492858886719, -120.14077758789062, 0.7243070602416992, -23.136699676513672, 2.521371841430664, -107.97000885009766, -59.64521026611328, -127.77896118164062, -156.33697509765625, 7.058592319488525, -132.18508911132812, -154.3503875732422, -140.1445770263672, -36.28004455566406, -160.37294006347656, -4.681087493896484, 3.3092072010040283, -76.26448059082031, -135.41690063476562, -57.442508697509766, -52.880985260009766, 3.980034589767456, -25.30539321899414, -69.73095703125, -50.63111877441406, -65.91874694824219, 2.9862046241760254, 4.034643173217773, -78.4150390625, -134.14158630371094, -47.106258392333984, 5.463164806365967, -43.606773376464844, -71.95343780517578, -95.32303619384766, -154.33804321289062, 6.354709148406982, 1.9609062671661377, -99.39920806884766, 4.4849934577941895, -100.004638671875, -43.275596618652344, -123.95454406738281, -182.98757934570312, -134.29917907714844, -135.49525451660156, -133.7156982421875, 6.5801215171813965, -42.576107025146484, -166.28787231445312, -99.0234375, -133.8694610595703, -55.94805145263672, -1.0237864255905151, -38.89735794067383, -85.67598724365234, -69.3707504272461, -116.40402221679688, -190.91513061523438, -186.2979278564453, -95.00163269042969, 8.311090469360352, -62.458072662353516, -138.279296875, -141.87367248535156, -113.1356201171875, -1.5037394762039185, -264.970703125, -333.236083984375, 8.951029777526855, -103.3050765991211, 1.2068400382995605, -86.22634887695312, -70.56145477294922, -92.58978271484375, -44.222442626953125, -54.55793380737305, -163.66880798339844, -132.10003662109375, -48.12012481689453, 9.090697288513184, -52.0152473449707, 8.157339096069336, 2.7570064067840576, 6.078934192657471, -21.255725860595703, -194.80316162109375, -104.62144470214844, -162.94674682617188, 4.677615165710449, -143.51589965820312, -142.040283203125, -143.2962646484375, -174.89990234375, -55.00084686279297, -3.7831614017486572, -16.313690185546875, 3.277144432067871, 5.155480861663818, -158.6178436279297, -1.333437442779541], "y_loglikelihoods": [-24.64128875732422, -29.91034507751465, -23.539134979248047, -0.7562562227249146, -53.83563995361328, -21.873353958129883, 13.499343872070312, -45.45476531982422, -44.68220901489258, -13.010726928710938, -13.549604415893555, 19.286808013916016, -22.530071258544922, 17.969192504882812, -74.56880187988281, -95.62518310546875, 14.176057815551758, -85.95441436767578, 14.26032829284668, -84.906005859375, -129.71383666992188, -15.017415046691895, -18.519426345825195, 16.14626693725586, 18.276012420654297, -25.103979110717773, -156.73995971679688, -52.10050582885742, -28.091663360595703, 15.838075637817383, -35.111572265625, 14.866186141967773, -37.13365173339844, -44.124759674072266, -72.34838104248047, -60.401798248291016, 14.372367858886719, -25.405515670776367, -78.2713623046875, -49.40763854980469, -79.44482421875, -46.793582916259766, 17.050426483154297, 14.711614608764648, -13.403318405151367, -73.61259460449219, -13.525956153869629, -46.150535583496094, 20.363567352294922, -42.52700424194336, -31.875656127929688, -59.604610443115234, -18.8302001953125, 13.429630279541016, 23.370582580566406, -26.56688117980957, -123.11328125, -44.292945861816406, 14.014509201049805, -88.73796081542969, -18.593246459960938, -39.263484954833984, -152.2112274169922, 19.169677734375, 5.711245059967041, -52.50253677368164, 7.839751720428467, -50.01500701904297, -30.586618423461914, -52.28827667236328, -67.18684387207031, -42.26115036010742, -42.53852462768555, -26.733213424682617, 14.213788032531738, -49.65537643432617, -16.281036376953125, -22.744380950927734, -30.7462158203125, -23.6717472076416, 22.10517120361328, -41.435794830322266, -177.53163146972656, -43.160362243652344, -57.514549255371094, -56.3929443359375, -86.87184143066406, -35.29676055908203, 15.120966911315918, -50.156837463378906, -37.93004608154297, -84.87141418457031, -135.48756408691406, 1.5640568733215332, -47.150978088378906, -55.32491683959961, 18.20018768310547, -34.37089920043945, 14.083168029785156, -55.67134475708008, -44.0789794921875, -54.036678314208984, -29.966882705688477, -35.066322326660156, -42.94027328491211, -48.6641845703125, -38.14386749267578, 11.169244766235352, -13.510102272033691, 22.703407287597656, 10.312713623046875, 19.071861267089844, -42.2056884765625, -50.71043395996094, -33.48137664794922, -32.439720153808594, 16.155658721923828, -59.98902130126953, -180.0618133544922, -16.736980438232422, -100.25531768798828, -27.652740478515625, 12.144210815429688, -15.483122825622559, 18.06598663330078, 18.139358520507812, -6.400813102722168, 17.81232452392578], "x_weights": [0.0, 1.1946243458875694e-30, 0.0, 2.9411848082024614e-25, 0.0, 0.0, 0.007459096610546112, 0.0, 0.0, 5.054764931148012e-33, 9.91637780862152e-30, 0.002997941104695201, 1.9822698663851756e-26, 0.3485930860042572, 0.0, 0.0, 0.0004218847316224128, 1.7294457049148836e-36, 0.000181543204234913, 1.5602337361485378e-40, 6.188178744669608e-24, 4.0507609897202725e-23, 0.0, 0.023757804185152054, 0.00013429875252768397, 0.0, 0.0, 0.0, 0.0, 4.563512629829347e-05, 1.9796811691580145e-15, 0.0002752672880887985, 0.0, 2.761534805646662e-31, 0.0, 0.0, 0.02571842633187771, 0.0, 0.0, 0.0, 3.877154262471946e-21, 0.0, 2.0500583275406825e-07, 0.0006052112439647317, 1.6729893572102807e-38, 0.0, 2.4990411806956134e-30, 2.392303028587841e-28, 0.0011837061028927565, 2.263307769265953e-16, 1.150711465986833e-35, 2.2694507500337984e-27, 5.207008347310791e-34, 0.0004381561593618244, 0.001250143744982779, 1.9476801498481708e-39, 0.0, 7.704567186724474e-26, 0.005216257646679878, 2.5500883282964524e-24, 1.2466808509085985e-36, 0.0, 0.0, 0.01272189524024725, 0.00015716193593107164, 0.0, 0.001961302477866411, 0.0, 3.551268385144531e-24, 0.0, 0.0, 0.0, 0.0, 0.0, 0.015938488766551018, 7.147726667244648e-24, 0.0, 0.0, 0.0, 1.1137974859803962e-29, 7.945327524794266e-06, 2.8302733887035185e-22, 1.3676673011810215e-42, 1.649689231121479e-35, 0.0, 0.0, 0.0, 0.0, 0.08999066054821014, 1.6578362702263414e-32, 0.0, 0.0, 0.0, 4.916669240628835e-06, 0.0, 0.0, 0.17065520584583282, 0.0, 7.393676787614822e-05, 7.88931035414872e-43, 5.01517195969618e-36, 1.401298464324817e-45, 1.3777595732495648e-24, 4.472273845307961e-29, 0.0, 0.0, 2.7953206057820867e-26, 0.19623497128486633, 5.6859282711217835e-28, 0.07716565579175949, 0.00034840908483602107, 0.009655711241066456, 1.2986491459835488e-14, 0.0, 0.0, 0.0, 0.00237793056294322, 0.0, 0.0, 0.0, 0.0, 2.8719178441210803e-29, 5.031884597883618e-07, 1.818823845874118e-12, 0.0005861144163645804, 0.0038347195368260145, 0.0, 5.829508609167533e-06], "y_weights": [7.313037455534632e-22, 3.765085583630613e-24, 2.2016944791392112e-21, 1.7267744525928386e-11, 1.5316239101395828e-34, 1.1646553582936745e-20, 2.6814150260179304e-05, 6.682204372136348e-31, 1.4468883488000224e-30, 8.225959805515648e-17, 4.7990385397256297e-17, 0.008746368810534477, 6.039317949773897e-21, 0.0023420420475304127, 1.5134023414708024e-43, 0.0, 5.275421790429391e-05, 0.0, 5.739253538195044e-05, 0.0, 0.0, 1.105842954389178e-17, 3.3326496834059727e-19, 0.0003783625434152782, 0.0031830603256821632, 4.604188061717629e-22, 0.0, 8.683863497653875e-34, 2.3207005143770278e-23, 0.00027801122632808983, 2.0744903254702363e-26, 0.00010519039642531425, 2.7462081596050478e-27, 2.526575019973794e-30, 1.3970945689318426e-42, 2.1552822370781996e-37, 6.419682904379442e-05, 3.4056294054708255e-22, 4.203895392974451e-45, 1.282947024114922e-32, 1.401298464324817e-45, 1.7517696417648864e-31, 0.0009345007129013538, 9.012525697471574e-05, 5.555018092128053e-17, 3.937648684752736e-43, 4.9138938912675977e-17, 3.3323494551319512e-31, 0.02567192353308201, 1.2486246191496551e-29, 5.275358406169656e-25, 4.783235226015155e-37, 2.4424262759490403e-19, 2.5008508600876667e-05, 0.5192644000053406, 1.066164950938902e-22, 0.0, 2.1354604018280876e-30, 4.488461490836926e-05, 0.0, 3.0954884714869527e-19, 3.264063662335057e-28, 0.0, 0.0077796271070837975, 1.1118225451411945e-08, 5.809112165836314e-34, 9.34188690848714e-08, 6.98927194353442e-33, 1.9145853357092525e-24, 7.197197884247177e-34, 2.4366758606604947e-40, 1.6288862459005472e-29, 1.2343225580583417e-29, 9.027876291731786e-23, 5.4782671213615686e-05, 1.0014267065421416e-32, 3.1254260507104133e-18, 4.874324125975672e-21, 1.6321558753078285e-24, 1.928257972315017e-21, 0.14649653434753418, 3.718217503447565e-29, 0.0, 6.627753122817558e-30, 3.867426995474694e-36, 1.1872138515687119e-35, 0.0, 1.723793119664898e-26, 0.00013571440649684519, 6.0650688975591664e-33, 1.2384081024624777e-27, 0.0, 0.0, 1.7576587407752697e-10, 1.22536046687626e-31, 3.4543718119821294e-35, 0.00295062898658216, 4.3509259611891406e-26, 4.807459845324047e-05, 2.442946740792752e-35, 2.6449407183332338e-30, 1.2526909245095843e-34, 3.5581362081853854e-24, 2.170517192497384e-26, 8.25945513848211e-30, 2.6982779281458625e-32, 1.0000053235525482e-27, 2.608644081192324e-06, 4.9924191394339916e-17, 0.26646366715431213, 1.1077152066718554e-06, 0.00705468375235796, 1.7217729443386822e-29, 3.486677875012143e-33, 1.0590010220547403e-25, 3.0011111199056414e-25, 0.00038193276850506663, 3.256661351602962e-37, 0.0, 1.981049176998667e-18, 0.0, 3.5994896379006097e-23, 6.9157167672528885e-06, 6.941260467639743e-18, 0.002580072032287717, 0.0027764944825321436, 6.107103483945359e-14, 0.0020020168740302324], "size": 2, "data_size": 25, "large": false, "x_coef": [[-0.38876330454413405], [-0.10692692828718577], [-0.30610978203612216], [-1.1768197917369976], [-0.3625722934469978]], "y_coef": [[0.14851034158312243], [-0.3612001444101229], [0.5112900792898682], [1.0480806994373928], [-0.2535932450774864]], "x_kernel_index": 36, "y_kernel_index": 11}, "21": {"id": 21, "members": [1, 2], "x_loglikelihoods": [4.880426406860352, 5.53928279876709, -7.858467102050781, -17.83834457397461, -97.6090087890625, -23.64251708984375, -47.32394790649414, -20.703941345214844, -31.025875091552734, -29.40244483947754, -7.277289390563965, -17.757667541503906, 0.29966163635253906, -74.69818115234375, 0.043506622314453125, 8.771232604980469, -46.152130126953125, 19.716508865356445, -119.23408508300781, -17.5090274810791, 16.633092880249023, -16.917146682739258, -27.786666870117188, -77.41129302978516, -16.51277732849121, -39.65870666503906, -0.2158203125, -10.706186294555664, -31.072154998779297, -79.7134017944336, 7.679065227508545, -32.73008728027344, 5.094032287597656, -14.34553337097168, 20.158931732177734, -0.7003707885742188, -58.120506286621094, -8.522869110107422, -81.83013916015625, 6.554679870605469, 2.1936216354370117, -44.802005767822266, -132.09361267089844, -27.18505096435547, -19.304954528808594, -1.1163482666015625, -23.151504516601562, 16.71023941040039, -52.91910934448242, -4.795849800109863, -4.321464538574219, -19.904829025268555, -34.78981399536133, -61.131370544433594, -117.99224853515625, -1.4547672271728516, 6.4555253982543945, 11.904335975646973, -63.324058532714844, 13.839090347290039, -23.38003921508789, -0.2759513854980469, 13.501470565795898, -29.764354705810547, -84.06645202636719, -2.3979415893554688, -61.77202606201172, 13.23838996887207, 5.200558662414551, -78.1861343383789, -40.855682373046875, -5.792594909667969, 8.003341674804688, -52.58723831176758, -32.9989013671875, -14.644360542297363, -33.21211242675781, -47.26688003540039, -69.45378875732422, 1.3492069244384766, -14.067376136779785, -3.806015968322754, 10.781846046447754, -5.7776031494140625, -55.18989944458008, -9.960685729980469, 16.18840217590332, 12.841046333312988, -39.83155059814453, -40.411922454833984, -54.80848693847656, -75.05236053466797, 19.769418716430664, -19.937454223632812, 6.3484649658203125, -47.32502746582031, -80.8117446899414, 0.13543319702148438, -106.93732452392578, 0.33531951904296875, -23.02313995361328, -4.916667938232422, -10.0123291015625, 16.633811950683594, -82.94795227050781, -20.862937927246094, -18.50469398498535, -39.6370849609375, -10.85119342803955, -57.331783294677734, -31.4278621673584, -41.89543151855469, 1.1380743980407715, -5.1746368408203125, -49.61915969848633, -27.744640350341797, -65.64779663085938, -14.492481231689453, 16.565521240234375, 1.2911529541015625, 14.250066757202148, -22.036739349365234, -12.618956565856934, -0.16087865829467773, -55.240516662597656, -59.13401794433594, -93.9431381225586, -110.31135559082031], "y_loglikelihoods": [-23.25101661682129, -22.492589950561523, -13.101471900939941, -13.482583999633789, -48.1920051574707, -49.25395202636719, -57.5594596862793, -9.42474365234375, -12.546810150146484, -14.576386451721191, -3.964961528778076, -146.11875915527344, -20.137371063232422, -109.7146987915039, -21.990291595458984, 9.661035537719727, -73.47645568847656, 7.173725128173828, -105.08421325683594, -97.48152923583984, 2.6708178520202637, -17.52809715270996, -6.068110942840576, -112.79124450683594, -115.36933135986328, -17.211774826049805, -112.16763305664062, -20.393754959106445, -18.378250122070312, -69.43966674804688, 9.279820442199707, -69.82762145996094, -15.503049850463867, -19.48310089111328, 10.510185241699219, -34.166290283203125, -77.89645385742188, -13.842206954956055, -78.62922668457031, -36.2285270690918, -43.954254150390625, -16.844409942626953, -118.5088119506836, -69.83659362792969, -2.2041854858398438, -27.96090316772461, -7.472088813781738, 6.6264262199401855, -361.95379638671875, -26.30622673034668, -9.651848793029785, -48.16997146606445, -13.427677154541016, -55.64423370361328, -310.8890686035156, -31.63287925720215, 8.54916763305664, 13.72811508178711, -70.84585571289062, 11.594038963317871, -12.13132095336914, -16.434057235717773, 6.867250442504883, -120.58016204833984, -31.078933715820312, -30.928730010986328, -36.30136489868164, 1.8237924575805664, -32.502464294433594, -45.227108001708984, -37.831207275390625, -25.552017211914062, 9.389055252075195, -12.139372825622559, -87.92855072021484, -25.827770233154297, -5.844669342041016, -18.499773025512695, -37.18497085571289, -12.526240348815918, -221.36215209960938, -12.466592788696289, -1.5653643608093262, -35.48950958251953, -57.56166076660156, -38.552669525146484, 10.255880355834961, 3.0473461151123047, -95.0788803100586, -57.77535629272461, -24.634206771850586, -89.2377700805664, 6.735729217529297, -22.40781593322754, 10.276365280151367, -20.531091690063477, -160.30601501464844, -29.966028213500977, -65.38961029052734, -41.762271881103516, -28.20285987854004, -27.068382263183594, -13.59393310546875, 2.2151880264282227, -49.26972198486328, -19.1181697845459, -33.16799545288086, -41.85149383544922, -10.620645523071289, -306.171875, -50.608943939208984, -117.62330627441406, -26.8638973236084, -33.547019958496094, -24.252735137939453, -17.80904197692871, -77.51703643798828, -25.380403518676758, 6.74793815612793, -16.585960388183594, 10.611886978149414, -18.5567684173584, -75.58272552490234, -13.722017288208008, -171.29013061523438, -130.4997100830078, -9.271045684814453, -118.19801330566406], "x_weights": [9.394261724082753e-08, 1.8155172654132912e-07, 2.756966204810196e-13, 1.2771024284121568e-17, 0.0, 3.85039876628562e-20, 1.9988993674715918e-30, 7.272988637799793e-19, 2.3930625674407702e-23, 1.2133889888294684e-22, 4.929846136349225e-13, 1.3844056209615157e-17, 9.626354158243089e-10, 2.5839943682149627e-42, 7.451009254033636e-10, 4.598522536980454e-06, 6.452132386013747e-30, 0.2606702148914337, 0.0, 1.775192956573719e-17, 0.011939356103539467, 3.208455917697618e-17, 6.105543087824465e-22, 1.7095841264762768e-43, 4.807432106837328e-17, 4.2634673253729785e-27, 5.748980180797503e-10, 1.5983901349844384e-14, 2.2848354266376976e-23, 1.6815581571897805e-44, 1.5427524431288475e-06, 4.353354543441573e-24, 1.1631360763431076e-07, 4.1988974324480327e-16, 0.4057263433933258, 3.5412228704956306e-10, 4.0917288094037455e-35, 1.418683015031244e-13, 2.802596928649634e-45, 5.011661414755508e-07, 6.397328000673497e-09, 2.4891813973916506e-29, 0.0, 1.1143016472722717e-21, 2.9463557169582494e-18, 2.336127402635668e-10, 6.291434926441174e-20, 0.012896894477307796, 7.427509461832415e-33, 5.895351481294275e-12, 9.473974556251097e-12, 1.6172002394846872e-18, 5.55004125248181e-25, 2.015139655645274e-36, 0.0, 1.6654171097751913e-10, 4.5385743874248874e-07, 0.00010551344894338399, 2.2492248377110268e-37, 0.0007304003229364753, 5.0060870505306934e-20, 5.413475778759391e-10, 0.000521116133313626, 8.44939133707001e-23, 0.0, 6.484963954722645e-11, 1.0618716006656266e-36, 0.0004005715309176594, 1.29388098457639e-07, 7.847271400218976e-44, 1.2880212133878595e-27, 2.1758471760446874e-12, 2.1336713871278334e-06, 1.0350777302599251e-32, 3.327205461221439e-24, 3.114266978928573e-16, 2.6883342297841717e-24, 2.1162900637966855e-30, 4.896935574475576e-40, 2.749625194198302e-09, 5.545452178477796e-16, 1.5863135457983013e-11, 3.434129030210897e-05, 2.208712813339675e-12, 7.667461286955845e-34, 3.368600903319412e-14, 0.007653395179659128, 0.00026922536198981106, 3.586722120748536e-27, 2.0074532107821865e-27, 1.122781602547066e-33, 1.8132802128363133e-42, 0.274833619594574, 1.5652872114214717e-18, 4.0777791809887276e-07, 1.996735141312406e-30, 5.605193857299268e-45, 8.168424270316166e-10, 0.0, 9.97580240635898e-10, 7.153156791916826e-20, 5.2244263602785335e-12, 3.199050657080697e-14, 0.011947941966354847, 0.0, 6.203853560171942e-19, 6.558931384663139e-18, 4.3566546012901215e-27, 1.3826344955828861e-14, 9.004161027463356e-35, 1.6009364091608675e-23, 4.553713056897901e-28, 2.226281159423138e-09, 4.036492928100044e-12, 2.013692352619628e-31, 6.367605962200251e-22, 2.2021298868181212e-38, 3.6250649038143583e-16, 0.011159246787428856, 2.594543691003537e-09, 0.0011016554199159145, 1.918165666061467e-19, 2.3603519634559636e-15, 6.073673786133327e-10, 7.289042563954784e-34, 1.4850498539475756e-35, 0.0, 0.0], "y_weights": [6.60993807092918e-17, 1.4111707867599553e-16, 1.690790953426391e-12, 1.1549804081883996e-12, 9.737883132950853e-28, 3.3671842108298687e-28, 8.322057430198711e-32, 6.681473430081297e-11, 2.9442592027612013e-12, 3.868500300912431e-13, 1.570454344346217e-08, 0.0, 1.4874326305423877e-15, 0.0, 2.331976465602063e-16, 0.0129933413118124, 1.0175727783076593e-38, 0.001080178888514638, 0.0, 0.0, 1.1964873010583688e-05, 2.0212991165818178e-14, 1.917075165280835e-09, 0.0, 0.0, 2.7733686590205968e-14, 0.0, 1.1510399541665652e-15, 8.638011502913254e-15, 5.7639567133599385e-37, 0.008874855004251003, 3.9105164075748474e-37, 1.5314310963018135e-13, 2.8614308205467164e-15, 0.030373992398381233, 1.2015865694583055e-21, 1.2245667020041711e-40, 8.061063752271003e-13, 5.884893030778502e-41, 1.5280483120910876e-22, 6.743671741811897e-26, 4.0045352830194586e-14, 0.0, 3.87558752994921e-37, 9.13525823875716e-08, 5.952788734625613e-19, 4.708687884047436e-10, 0.0006248946883715689, 0.0, 3.114140205227893e-18, 5.32405057540597e-11, 9.954824696711492e-28, 1.220170015373001e-12, 5.649427260645135e-31, 0.0, 1.5135694302945614e-20, 0.004274080973118544, 0.7586318254470825, 1.4126045887504983e-37, 0.08978702127933502, 4.460881750795176e-12, 6.036233931314486e-14, 0.0007950518629513681, 0.0, 2.6337648807951477e-20, 3.0606219039390476e-20, 1.4207052950361506e-22, 5.129197234055027e-06, 6.3437422256197185e-21, 1.8884391757922117e-26, 3.076818485549393e-23, 6.620432676796763e-18, 0.009899228811264038, 4.425103079103154e-12, 5.605193857299268e-45, 5.0249104630228295e-18, 2.3970592177846584e-09, 7.649556240719481e-15, 5.871631819256758e-23, 3.0054459355249863e-12, 0.0, 3.190171217470894e-12, 1.7304424204667157e-07, 3.199545363106971e-22, 8.303727946786339e-32, 1.4954598685621196e-23, 0.023553675040602684, 1.7435404515708797e-05, 0.0, 6.706068318051261e-32, 1.6576285885256398e-17, 1.401298464324817e-45, 0.0006970701506361365, 1.5360127229245004e-16, 0.02404114603996277, 1.003334560582597e-15, 0.0, 8.015025998939089e-20, 3.308576361155032e-35, 6.037570110898105e-25, 4.673466546360154e-19, 1.453240117379606e-18, 1.033275786981036e-12, 7.586305855511455e-06, 3.314500156459913e-28, 4.1216546980429e-15, 3.2606863999084728e-21, 5.52221862139273e-25, 2.0206855286253322e-11, 0.0, 8.685629881864256e-29, 0.0, 1.7829735414924846e-18, 2.2320339938233644e-21, 2.4274893896595604e-17, 1.5262220808454248e-14, 1.7896403077431536e-40, 7.859888378452345e-18, 0.0007056327303871512, 5.1855563706947397e-14, 0.03362562507390976, 7.225787351274049e-15, 1.2383050321484116e-39, 9.090547325313336e-13, 0.0, 0.0, 7.791525064027027e-11, 0.0], "size": 2, "data_size": 31, "large": false, "x_coef": [[0.38212726795441804], [-0.06773072338625168], [-0.13060577490548128], [-1.2016802310779633], [0.2328251650129008]], "y_coef": [[-0.32840004721795807], [0.21606550717826487], [0.7929696772300241], [0.6532778078532676], [0.4242830415965449]], "x_kernel_index": 34, "y_kernel_index": 57}, "2": {"id": 2, "members": [31], "x_loglikelihoods": [-33.71487808227539, -13.216991424560547, -60.12678527832031, -10.557613372802734, -96.6851577758789, -57.02545928955078, 5.592465877532959, -15.265636444091797, -24.20026397705078, -20.36463737487793, -19.39325714111328, 6.097288608551025, -12.178447723388672, 11.697067260742188, -43.95819854736328, -71.0599136352539, 5.595695495605469, -25.093894958496094, 7.000067710876465, -29.307830810546875, -18.335832595825195, -17.942401885986328, -32.85877227783203, 6.944924354553223, 1.9435985088348389, -23.247825622558594, -58.75586700439453, -12.956008911132812, -18.178550720214844, 7.164340972900391, -10.273186683654785, 1.0988855361938477, -32.3433723449707, -10.34885025024414, -49.59178924560547, -36.40587615966797, 6.207908630371094, -31.109832763671875, -60.550453186035156, -38.34353256225586, -10.794812202453613, -24.6854248046875, 1.5200519561767578, 3.5065813064575195, -10.532978057861328, -34.56674575805664, -14.966510772705078, -22.540742874145508, 3.573774576187134, -9.899591445922852, -9.657352447509766, -20.67385482788086, -24.088226318359375, 7.703719615936279, 6.880941390991211, -22.914867401123047, -48.487998962402344, -17.26044273376465, 7.452301979064941, -17.320186614990234, -27.558795928955078, -28.148529052734375, -54.26100158691406, 8.314713478088379, 1.5464065074920654, -21.641353607177734, 2.8096790313720703, -36.88174057006836, -11.36166763305664, -64.20702362060547, -27.88312530517578, -35.544586181640625, -48.719749450683594, -24.261253356933594, 4.682304859161377, -5.836965560913086, -34.86139678955078, -47.864959716796875, -55.25544357299805, -13.51671028137207, 1.7635082006454468, -6.730171203613281, -26.066585540771484, -10.024406433105469, -45.331905364990234, -51.40068054199219, -82.6243896484375, -30.160324096679688, 9.535773277282715, -32.67034912109375, -65.25718688964844, -83.00801849365234, -41.20355224609375, -0.7447941303253174, -97.5423583984375, -64.26564025878906, 12.923311233520508, -26.517475128173828, 6.8564043045043945, -21.284683227539062, -13.99539566040039, -20.856548309326172, -7.846254348754883, -21.32191276550293, -79.2740478515625, -22.586326599121094, -16.188064575195312, 10.006359100341797, -6.8893585205078125, 8.543006896972656, 3.0414626598358154, 5.802535057067871, -6.25718879699707, -50.69441223144531, -48.50918960571289, -21.331565856933594, 4.964154243469238, -17.045883178710938, -49.86119079589844, -34.32969284057617, -69.69755554199219, -22.61620330810547, -3.5464799404144287, -4.203841209411621, -0.9492020606994629, 2.506377696990967, -77.37190246582031, 10.48947811126709], "y_loglikelihoods": [-6.498666763305664, -19.620492935180664, -10.262062072753906, -5.10190486907959, -42.506507873535156, -11.391742706298828, 4.506008148193359, -16.875680923461914, -22.27625274658203, -12.91235637664795, -9.117912292480469, 0.7400999069213867, -12.346457481384277, 3.80148983001709, -29.7955265045166, -50.62454605102539, 5.087400913238525, -46.35028839111328, 0.3280220031738281, -101.3785400390625, -79.74459838867188, -15.498703002929688, -9.712712287902832, 2.7323436737060547, -94.3348388671875, -19.49396514892578, -84.18006896972656, -24.02395248413086, -22.4935302734375, 5.9211015701293945, -14.35578441619873, 4.681678771972656, -16.507488250732422, -26.036727905273438, -41.57264709472656, -33.365264892578125, 2.9594082832336426, -9.255160331726074, -69.43526458740234, -32.45374298095703, -32.50956726074219, -24.44231414794922, 7.4446868896484375, 2.5791258811950684, -9.22673225402832, -26.382465362548828, -10.273155212402344, -25.990732192993164, -37.80393600463867, -7.662075042724609, -16.408445358276367, -43.22911834716797, -15.675251007080078, 5.684874534606934, -3.8048529624938965, -16.382795333862305, -66.48810577392578, -653.0001831054688, 5.659550666809082, -46.44171905517578, -12.231890678405762, -13.737516403198242, -81.05601501464844, 5.554440498352051, 1.1630973815917969, -27.001218795776367, 7.149988174438477, -22.641653060913086, -15.032434463500977, -40.69321060180664, -37.705875396728516, -17.1527099609375, -20.69415283203125, -10.083433151245117, 0.9963507652282715, -24.832706451416016, -8.91254711151123, -19.387958526611328, -31.245391845703125, -9.254719734191895, -7.287929534912109, -28.49779510498047, -92.40106201171875, -38.811920166015625, -48.768577575683594, -26.87067985534668, -62.88565444946289, -17.829444885253906, 8.872354507446289, -48.546600341796875, -29.092222213745117, -73.56970977783203, -70.24845123291016, 0.4874403476715088, -21.87952423095703, -37.30179214477539, 1.821944236755371, -14.105081558227539, 8.440741539001465, -29.668001174926758, -30.120311737060547, -28.343839645385742, -15.272298812866211, -16.90373992919922, -41.5890998840332, -31.325109481811523, -27.687742233276367, 5.24164342880249, -8.998244285583496, -8.810694694519043, 5.902864933013916, 6.137457847595215, -17.16427230834961, -23.08565902709961, -25.720645904541016, -22.178586959838867, 1.2138757705688477, -26.070045471191406, -116.12910461425781, -11.635560989379883, -52.44844055175781, -18.03759002685547, 7.184927940368652, -4.644294738769531, 4.33939266204834, -35.123661041259766, -6.001850128173828, 2.508938789367676], "x_weights": [3.660850975153947e-21, 2.9221464657724905e-12, 1.2389055119566327e-32, 4.174988132987778e-11, 0.0, 2.7537652581854672e-31, 0.00043106768862344325, 3.7669232967260657e-13, 4.962815337927454e-17, 2.298893158627323e-15, 6.0727400349016095e-15, 0.0007141463574953377, 8.255354733144316e-12, 0.19308128952980042, 1.3030653416663883e-25, 2.212283919698373e-37, 0.0004324621695559472, 2.030622193827031e-17, 0.0017614047974348068, 3.0028943907056497e-19, 1.748306157505798e-14, 2.591088862837366e-14, 8.617587816416616e-21, 0.0016669046599417925, 1.1216635357413907e-05, 1.286372790429549e-16, 4.880006610468361e-32, 3.793544905289492e-12, 2.0460873663766255e-14, 0.0020758796017616987, 5.548552936551765e-11, 4.819570676772855e-06, 1.4428441954515704e-20, 5.144223935715786e-11, 4.659387869981457e-28, 2.482550822311297e-22, 0.0007976803462952375, 4.953823776101547e-20, 8.11038645631973e-33, 3.575880293184793e-23, 3.293370784418492e-11, 3.055100602597227e-17, 7.343760898947949e-06, 5.353740561986342e-05, 4.279116991301457e-11, 1.5617828316758224e-21, 5.080370260764078e-13, 2.6088445368843e-16, 5.725835944758728e-05, 8.061772083234331e-11, 1.0271492684177375e-10, 1.6874328853777707e-15, 5.551181959319277e-17, 0.0035600110422819853, 0.0015635915333405137, 1.7945978527380494e-16, 1.4050730724318937e-27, 5.124521887021026e-14, 0.002768611768260598, 4.827329196641951e-14, 1.7263728808979311e-18, 9.572346013495603e-19, 4.3703443039278204e-30, 0.006558470893651247, 7.5398779699753504e-06, 6.412792211246926e-16, 2.6668374630389735e-05, 1.542521322238124e-22, 1.8683526947782525e-11, 2.0941760171797817e-34, 1.2481932104659798e-18, 5.874239477865057e-22, 1.1144252067345828e-27, 4.669181771466645e-17, 0.00017348717665299773, 4.686045329549415e-09, 1.1632069844281397e-21, 2.619879866390878e-27, 1.616714556731116e-30, 2.165388094527154e-12, 9.368070095661096e-06, 1.9181927157774226e-09, 7.677031832241373e-18, 7.115805167323686e-11, 3.298916157277163e-26, 7.63373930746031e-29, 2.1005463980229008e-42, 1.2802858536790825e-19, 0.02223832905292511, 1.040439729813989e-20, 7.327116297923815e-35, 1.4307257320756382e-42, 2.0478298590578705e-24, 7.626206297572935e-07, 0.0, 1.97495081388141e-34, 0.6580989360809326, 4.890739286124891e-18, 0.0015256924089044333, 9.161124016302696e-16, 1.341668855008027e-12, 1.4056712930010087e-15, 6.283237263815522e-10, 8.826313597472344e-16, 5.990831194681458e-41, 2.492597999900916e-16, 1.497549913936913e-13, 0.03560204803943634, 1.635904967045576e-09, 0.008240416646003723, 3.362474308232777e-05, 0.0005318355397321284, 3.078263866029829e-09, 1.5469125887510395e-28, 1.3756065368757634e-27, 8.74153883434199e-16, 0.00022997107589617372, 6.350902605461312e-14, 3.55901020366824e-28, 1.9795726547584984e-21, 8.639835946499903e-37, 2.4192288001031364e-16, 4.6296875666484993e-08, 2.3991853836946575e-08, 6.21634910658031e-07, 1.969131153600756e-05, 4.014005438073795e-40, 0.057715293020009995], "y_weights": [7.981584104754802e-08, 1.5971746765864464e-13, 1.8521122413517332e-09, 3.2262283866657526e-07, 1.8368905434831708e-23, 5.984849282825166e-10, 0.0048012989573180676, 2.4854736324630977e-12, 1.1219424877800723e-14, 1.3081559446792568e-10, 5.8152074267070475e-09, 0.00011113364598713815, 2.3037019514227097e-10, 0.002373505849391222, 6.0868345936607496e-18, 5.475987366412495e-27, 0.008587254211306572, 3.933241491466433e-25, 7.360077142948285e-05, 0.0, 1.235338483299436e-39, 9.849700915998127e-12, 3.208089793815816e-09, 0.0008148281485773623, 0.0, 1.812603208804428e-13, 1.463796375833704e-41, 1.9541295732711413e-15, 9.028345460831717e-15, 0.01976632885634899, 3.088777844606483e-11, 0.0057233660481870174, 3.5918087080977212e-12, 2.6110658807884744e-16, 4.6736250500992477e-23, 1.7142518156412795e-19, 0.0010225367732346058, 5.069435538018752e-09, 3.707428539448431e-35, 4.26524102334393e-19, 4.03366095411417e-19, 1.2860649468927812e-15, 0.09070070832967758, 0.0006990759866312146, 5.215612830511418e-09, 1.8478396968244946e-16, 1.8316800298734393e-09, 2.733963214594581e-16, 2.024802228262173e-21, 2.4936031906008793e-08, 3.9657647825375175e-12, 8.917795643345806e-24, 8.255610604857022e-12, 0.015607520006597042, 1.1803136885646381e-06, 4.068802586520981e-12, 7.063299434961422e-34, 0.0, 0.015217240899801254, 3.589572512473669e-25, 2.583342706419245e-10, 5.7318743501566516e-11, 3.3284762163414515e-40, 0.013698944821953773, 0.00016964889073278755, 9.952768817391547e-17, 0.06754989176988602, 7.785369503482235e-15, 1.5700768810078536e-11, 1.1261250692761753e-22, 2.2334169364099765e-21, 1.8840697231514714e-12, 5.4584314227845016e-14, 2.2143429312393437e-09, 0.00014359320630319417, 8.703942747582516e-16, 7.140927849036416e-09, 2.0153053759217748e-13, 1.427985569495326e-18, 5.071659980870891e-09, 3.6250721535679986e-08, 2.2283833766233514e-17, 4.203895392974451e-45, 7.389623858745833e-22, 3.503490593011513e-26, 1.1340605169943627e-16, 2.5913775902613205e-32, 9.57623411991515e-13, 0.3781280219554901, 4.3742580632050075e-26, 1.2297948938454529e-17, 5.936166653692024e-37, 1.6440323080511096e-35, 8.632106619188562e-05, 1.668274757704244e-14, 3.345499271831259e-21, 0.00032785709481686354, 3.968854064839711e-11, 0.2455792874097824, 6.9147274087211854e-18, 4.398840204848288e-18, 2.5992683331072226e-17, 1.2352337035170802e-11, 2.416702688662342e-12, 4.597341885020014e-23, 1.3185666350546944e-18, 5.009456082202379e-17, 0.010019384324550629, 6.554458309437905e-09, 7.90657761484681e-09, 0.019409123808145523, 0.02454078011214733, 1.862410833192163e-12, 4.994016048002472e-15, 3.581696816914938e-16, 1.2370472349384695e-14, 0.00017848584684543312, 2.5255044358083573e-16, 0.0, 4.689907906474389e-10, 8.838055922124082e-28, 7.776755042883388e-13, 0.06995178014039993, 5.098385145174689e-07, 0.0040644193068146706, 2.954004785329498e-20, 1.3117583819166612e-07, 0.0006516921566799283], "size": 1, "data_size": 17, "large": false, "x_coef": [[1.0], [1.0], [1.0], [1.0], [1.0]], "y_coef": [[1.0], [1.0], [1.0], [1.0], [1.0]], "x_kernel_index": 0, "y_kernel_index": 0}, "26": {"id": 26, "members": [25], "x_loglikelihoods": [0.9685370326042175, 1.4941411018371582, -0.338051974773407, -3.4864113330841064, -14.53963565826416, -1.2885825634002686, -13.896905899047852, -1.9976179599761963, -3.6239821910858154, -3.4737484455108643, -3.8791346549987793, -5.078835487365723, 1.1534528732299805, -25.791873931884766, 0.15901486575603485, -17.890647888183594, -10.153907775878906, -9.835938453674316, -30.672847747802734, -3.012938976287842, -7.775580406188965, -2.642056941986084, -5.632033348083496, -24.955806732177734, -5.803650379180908, -6.8821611404418945, 0.17399199306964874, -1.3102836608886719, -3.5688750743865967, -22.468154907226562, -4.308598518371582, -9.089861869812012, 1.4346083402633667, -1.5731123685836792, -13.715885162353516, 0.506729006767273, -16.890920639038086, 0.4551253914833069, -12.897133827209473, 1.4710752964019775, 1.0477794408798218, -4.283042907714844, -39.23152160644531, -4.704029560089111, -2.4722893238067627, 0.8450304865837097, -2.034647226333618, -5.461031436920166, -13.928129196166992, 0.69521564245224, -0.20010577142238617, -2.7028675079345703, -5.018685817718506, -14.054067611694336, -32.381954193115234, 1.203283667564392, -9.624350547790527, -0.5784249305725098, -16.171024322509766, -7.279123783111572, -2.7276253700256348, 1.0529006719589233, -18.26561737060547, -8.461462020874023, -27.18695640563965, 0.12891501188278198, -22.427907943725586, -5.615443706512451, 1.5004870891571045, -12.080876350402832, -4.425440788269043, 0.7115662693977356, -17.217191696166992, -4.141353130340576, -9.754955291748047, -1.3932440280914307, -5.106847286224365, -5.613643169403076, -9.777731895446777, 1.2168265581130981, -6.184195041656494, -0.3059067726135254, -12.781867027282715, -0.38254716992378235, -7.2391839027404785, -0.25193265080451965, -24.917173385620117, -4.367053031921387, -11.618204116821289, -6.529173374176025, -7.702697277069092, -11.976078987121582, -14.226374626159668, -3.745115041732788, -36.61381912231445, -6.316391944885254, -33.3186149597168, 1.3875722885131836, -27.058895111083984, 1.5208053588867188, -1.1645293235778809, 0.889785647392273, -1.034034013748169, -9.124923706054688, -15.733421325683594, -1.7058131694793701, -1.9531986713409424, -13.335312843322754, -1.1760703325271606, -18.773874282836914, -8.208260536193848, -8.710531234741211, 0.48850175738334656, -0.12855802476406097, -7.5350728034973145, -4.943966388702393, -18.962928771972656, -2.699164390563965, -15.911940574645996, 0.7956843376159668, -20.048601150512695, -2.129007577896118, -8.86998462677002, -0.10683146119117737, -15.776074409484863, -15.107266426086426, -12.640237808227539, -25.754108428955078], "y_loglikelihoods": [-11.822303771972656, -29.137176513671875, -15.228696823120117, -19.584678649902344, -73.00778198242188, -27.86770248413086, -18.966354370117188, -5.589371681213379, -6.306364059448242, -28.394145965576172, -20.349687576293945, -36.34151840209961, -19.893888473510742, -43.495201110839844, -25.009803771972656, -77.4130630493164, -24.420883178710938, -90.48394775390625, -21.483211517333984, -132.15916442871094, -124.8477783203125, -34.98804473876953, -1.6599189043045044, -24.9755802154541, -33.364479064941406, -5.2437005043029785, -70.74996185302734, -1.3943219184875488, -7.285409927368164, -26.78096580505371, -39.82528305053711, -22.001251220703125, -14.005834579467773, -3.786374807357788, -75.60155487060547, -30.98727798461914, -17.532583236694336, -16.421142578125, -108.54069519042969, -38.445159912109375, -28.201961517333984, -0.855880618095398, -43.68680953979492, -19.464797973632812, -6.014326095581055, -18.97086524963379, -2.979006290435791, -56.58966064453125, -85.01016998291016, -6.0699052810668945, -4.5526275634765625, -85.34143829345703, -34.48883819580078, -19.512664794921875, -93.1576919555664, -22.511180877685547, -105.03036499023438, -50.954654693603516, -19.950178146362305, -83.41261291503906, -30.012807846069336, -14.21583366394043, -121.49637603759766, -45.36279296875, -7.655635356903076, -26.995264053344727, -26.761146545410156, -70.25750732421875, -19.1561222076416, -82.67300415039062, -2.6334550380706787, -19.053707122802734, -43.84189987182617, 1.2873473167419434, -17.219524383544922, -0.2389625906944275, -2.648463726043701, -39.182220458984375, -59.482357025146484, -9.064088821411133, -67.87256622314453, -14.187576293945312, -173.9471435546875, -27.774446487426758, -92.43977355957031, -30.272920608520508, -90.05113983154297, -50.97172546386719, -53.081443786621094, -84.95427703857422, -54.72489929199219, -140.92547607421875, -128.32920837402344, -9.00804615020752, -51.3912353515625, -9.967134475708008, -42.52585220336914, -21.145906448364258, -29.189979553222656, -26.47184181213379, -3.9524357318878174, -26.315534591674805, 0.5416843891143799, -57.25849151611328, -75.69097137451172, -10.006021499633789, -59.60528564453125, -16.3336238861084, -1.9003812074661255, -74.83003234863281, -21.615955352783203, -36.94601058959961, -15.930459022521973, -25.76375961303711, -38.63410186767578, -10.373924255371094, -25.177364349365234, -1.6533737182617188, -138.08412170410156, -21.626176834106445, -86.51997375488281, -37.26480484008789, -47.82783508300781, -11.904598236083984, -49.20663833618164, -48.94391632080078, -12.563538551330566, -35.71426010131836], "x_weights": [0.0360165499150753, 0.06092129275202751, 0.009751192294061184, 0.0004185456200502813, 6.628094961769193e-09, 0.003769185859709978, 1.2604404631133548e-08, 0.0018548868829384446, 0.0003647508565336466, 0.0004238792462274432, 0.0002826084091793746, 8.5145489720162e-05, 0.04333213344216347, 8.602077654785295e-14, 0.01602991111576557, 2.3230693757536613e-10, 5.32213277892879e-07, 7.314389449675218e-07, 6.528648848376777e-16, 0.0006719997618347406, 5.74090336158406e-06, 0.0009737357613630593, 4.896782775176689e-05, 1.9847358890927314e-13, 4.1245686588808894e-05, 1.402772522851592e-05, 0.0162718016654253, 0.0036882718559354544, 0.0003854153328575194, 2.388230238570266e-12, 0.00018393792561255395, 1.5423927379742963e-06, 0.05740032717585564, 0.002835814142599702, 1.5105623418776304e-08, 0.02269558794796467, 6.313036204907974e-10, 0.021554121747612953, 3.42545156684082e-08, 0.059532176703214645, 0.038986723870038986, 0.0001886991667561233, 1.252675211066916e-19, 0.00012386191519908607, 0.0011539056431502104, 0.031831998378038406, 0.001787457731552422, 5.809999129269272e-05, 1.221693324282569e-08, 0.027403132990002632, 0.011193529702723026, 0.0009162868373095989, 9.042411693371832e-05, 1.077129319071446e-08, 1.1818648066061292e-16, 0.04554611071944237, 9.037941595124721e-07, 0.007667699828743935, 1.296836527053813e-09, 9.431673788640182e-06, 0.0008938800892792642, 0.03918689116835594, 1.596669463310718e-10, 2.891382791858632e-06, 2.1317029155862484e-14, 0.01555460412055254, 2.486309552338084e-12, 4.9786962335929275e-05, 0.061309125274419785, 7.748434427412576e-08, 0.00016365425835829228, 0.02785487286746502, 4.5555470506997153e-10, 0.000217422770219855, 7.931376444503258e-07, 0.003394639352336526, 8.279350731754676e-05, 4.9876689445227385e-05, 7.752768738100713e-07, 0.04616713896393776, 2.8190974262543023e-05, 0.010069740004837513, 